solver_type L2R_LR
nr_class 7
label 0 1 2 5 6 3 4
nr_feature 19890
bias -1
w
0.325386263966689 -0.9558301713196051 0.9622143615640457 -0.4847878588108215 -0.3505126876567551 -0.09926820794647243 -1.091918374097936 
-2.405239089898866 -0.0184720973296033 0.1906606531104516 1.622219496234359 0.8944092261519283 1.258043783932264 0.3715652441823727 
-2.723029105915788 -2.76334594688466 -1.646741219317263 -1.020843563545055 -0.1563345654491559 3.497111662869528 0.1800009565767094 
0 0 0 0 0 0 0 
0 0 0 0 0 0 0 
0 0 0 0 0 0 0 
0 0 0 0 0 0 0 
0 0 0 0 0 0 0 
0 0 0 0 0 0 0 
0 0 0 0 0 0 0 
0 0 0 0 0 0 0 
0 0 0 0 0 0 0 
0 0 0 0 0 0 0 
0 0 0 0 0 0 0 
0 0 0 0 0 0 0 
0 0 0 0 0 0 0 
0 0 0 0 0 0 0 
0 0 0 0 0 0 0 
0 0 0 0 0 0 0 
0 0 0 0 0 0 0 
0 0 0 0 0 0 0 
0.4836812156436202 -0.01485660616289844 -0.1123966348660853 -0.004253162233763774 -0.07374205052488345 -0.003434045600612299 -0.08404569282668337 
0.03865100120853013 -0.0001242509139309229 -0.03806007282499094 -0.000112951576930714 -0.01140227841334332 -5.76968418546885e-05 -0.0422736872202983 
0.6462154920462347 -0.06571094551229857 -0.1144658742018151 -0.009513661595260224 -0.1291693239484068 -0.003547247614066535 -0.07138950338719451 
0.008098767183080193 -0.003228955681896286 -0.004866913011246148 -0.004788793083612792 -0.01814046753228484 -0.003308464255969694 -0.008154445361517765 
-0.1013177995503607 0.1154058049817945 -0.04021672313234582 -0.0542012717844757 -0.01058493317000029 -0.06068031206548857 -0.009971101888880155 
-0.02743690834949707 -0.03479705964258558 -0.1018513569070269 -0.01216771040269808 0.08953671903992463 -0.01069792739195359 -0.02350774206401111 
0.002813742912571004 -0.001983142922593417 -0.003462715589287926 -0.004722881825951407 -0.002449855828221029 -0.00346196455771533 -0.002521500820466636 
0.000440660890888628 -0.000403765496109354 -0.000512812641744648 -0.0004242223666674159 -0.00084132149779525 -0.0004195903738648098 -0.0003945217862172501 
0.002025918413501093 -0.005157630592662936 -0.00404141474950555 -0.002158568502245011 -0.002169787028336826 -0.003153889625283342 -0.002041455180909816 
-0.2259829338159233 -0.1641222390488147 -0.006844542924558735 -0.03459547642550432 -0.001277220613380056 0.501875019204721 -0.005132698790817898 
0.009604823579685217 -0.0002974964587329673 -0.001140642058914172 -0.0002093344886305303 -0.00628152578707666 -3.309709441876106e-05 -0.003163932636984204 
0 0 0 0 0 0 0 
0.01190567136518572 -0.002291412504517264 -0.003481600600883366 -0.01569245396783273 -0.002738130881687479 -0.002553149716104395 -0.002262928595330989 
0.01650260667820214 -0.001417028298158768 -0.001107760943923423 -0.001014800446078211 -0.006192461655021047 -0.0005142859282710526 -0.001356134082877674 
0.00356141165431997 -0.002343025843767661 -0.00133513750727198 -0.004299092304443197 -0.006675283879305583 -0.002363446148734774 -0.00275957255471572 
0.004106745016372218 -0.001765968051722749 -0.0005069191207871358 -0.001279107948836792 -0.002273332906010114 -0.0006503729288815896 -0.001658307534117266 
0.008832097328346547 -0.0003057802477729532 -0.0001339863560176377 -0.0008489612159164839 -0.00969622656080628 -0.001926738490192837 -0.004390463665780526 
0.004985433672485546 -0.0006398893165931315 -0.0001414479401403532 -0.001389438072919212 -0.0007178281481227437 -0.001500555774727471 -0.0004291842444108226 
0.003889139956543203 -0.01987462620868199 -0.004623593507970983 -0.00697526112324813 -0.003978345170192008 -0.007653726958586594 -0.004930354504683797 
0.003226176461926166 -0.004846074358548618 -0.003958947277116262 -0.008072525813996577 -0.001251399317130231 -0.001626885052952007 -0.002805404508787228 
0.004044123511424408 -0.008921138180156192 -0.004480016441002493 -0.003594291887334868 -0.005289087326041031 -0.001414828086667294 -0.004945653888180948 
-0.1916302934658643 -0.1681734678474286 -0.3954580053733779 -0.07889837162624699 -0.1433317179933633 -0.3402062036708964 1.137049205140073 
0.07155766190306559 -0.0001386742009679331 -0.0255481993162805 -0.0002304754246987043 -0.009059694129071035 -0.000135496396178864 -0.0782212692014162 
-0.5898092175360526 -0.02150467420159042 -0.003529923394231629 -0.2185900357078918 -0.09352544201211174 0.858830548588063 -0.02574422608206677 
-0.3837455377859566 0.6563311746432435 0.3215145753480834 -0.08102579601731583 -0.09106571384404481 -0.124868277626858 -0.1536158524742736 
0.01094718587289066 -0.0002263422317416047 -0.01844756880197913 -0.0004190049889993197 -0.01020542249314964 -0.0002436675315149277 -0.01607228782144193 
-0.1338400410439564 0.3041021564363168 -0.001527803877255426 -0.08983620674331166 -0.003916558037995001 -0.1601442137495026 -0.002801841214928069 
0.004102015814533479 -0.002351357801006067 -0.003522683770632365 -0.003613321663758891 -0.0141163393997038 -0.001453091123774965 -0.01008826142876787 
0.003394267566831394 -0.004237763111521343 -0.002756628410468509 -0.002927263107089795 -0.006113303349906517 -0.00216609907974044 -0.00292215149794818 
-0.0256524163066355 -0.007429193217416799 -0.002991463135257932 -0.03448030207396305 -0.008617391388864597 0.2381758702672696 -0.003143944701875024 
0.03929103917286124 -0.02211442271728624 -0.01172905779443047 -0.04112850210471427 -0.04721936821527664 -0.1156078585102224 -0.02144752229426241 
0.01924956778180425 -0.03260729990522809 -0.03266797925499165 -0.02673254555485614 -0.04205138702864573 -0.03114546192950534 -0.04090140107583361 
0.1452376621603696 -0.01962272165757839 -0.01108990924861342 -0.1465270775363001 -0.01980313483080645 -0.05020727135250914 -0.01486935816878177 
-0.038918622488725 -0.05521781305925628 -0.1077528792818168 -0.01148081839795631 -0.1677604774993539 -0.005596168316850944 0.5590446469080155 
-0.06219282654312841 -0.03432781180161187 -0.09212394227911745 -0.03401091714006114 -0.1238961200501812 -0.001791489123870353 0.5245926472826715 
-0.142406576553167 -0.3511284603371326 -0.001394211087955727 -0.08573760444203304 -0.002650189461167528 0.5579151235844788 -0.002152652214194348 
0.01078859235910603 -0.003612660006267608 -0.001611807934200462 -0.003034451655356748 -0.005613600596995001 -0.005051621801709538 -0.004232255786107619 
0.004376392151496781 -0.002824999392389445 -0.003187789271325853 -0.002282273958488497 -0.004494066166090135 -0.001854764457273444 -0.003553452843949418 
0.005373744337082106 -0.00528448969013804 -0.002539922890879281 -0.004762526971787281 -0.004014597701368802 -0.003130071034850367 -0.004061992289024271 
0.001018890787884238 -0.00199724522536605 -0.004178124512276119 -0.002310335303322089 -0.003726972268007824 -0.002596590922232562 -0.005792933515503819 
0.005521327850177032 -0.003503364640109875 -0.003662768341680292 -0.003329737859671477 -0.006813290065319086 -0.003065370979423248 -0.003659008838489226 
0.00246013187045439 -0.007206692544863809 -0.004861572227205284 -0.004697286143533689 -0.009567211259568727 -0.004726617884459057 -0.004473658966534757 
0.01745174370613734 -0.00501351747737432 -0.003118162256291543 -0.01883608814095588 -0.006321501955546318 -0.007635042509869603 -0.0078276268041739 
0.01359175719958982 -0.005005543859619235 -0.00504275825316524 -0.008365654818004631 -0.009208348082721324 -0.004239167464764513 -0.007344850421211801 
0.008068493767262701 -0.005773751526057178 -0.002865556497550652 -0.005688717094259331 -0.0181736496353948 -0.003576165528887075 -0.007285650438754951 
0.1125354693253502 -0.00627716283144273 -0.01341927916910178 -0.0327474210744455 -0.06459436875082648 -0.01114432820260828 -0.04907294908612495 
0.09085217792331736 -0.01069524741949046 -0.00357988858081853 -0.003933462391616664 -0.0672386498444809 -0.001920503568038083 -0.007987904392464709 
-0.2011547300600692 -0.1258561014254014 -0.008691019436208262 0.7326971200462826 -0.04120255598005802 -0.1102728432789375 -0.03546798887856657 
0.2205769364658605 -0.0243817940138904 -0.005621785470782318 -0.08771397212839481 -0.009868464623291431 -0.07358913458105126 -0.005589056235091323 
0.03281298672467111 -4.367419099372743e-05 -0.07490037644222849 -0.00147584429381079 -0.008716952749502434 -7.321888311474134e-06 -0.03533848327319566 
0.04376662446609257 -0.01017047006694313 -0.0007589151207070355 -0.02499820869051081 -0.01290150976779315 -0.003352864459777587 -0.003596969133261625 
0.02174174066085306 -0.004195706645733947 -0.002429146220417309 -0.0105309216025793 -0.01339432210758857 -0.016435724751558 -0.02229675266737277 
0.007493732469995131 -0.00986780096986418 -0.01497466606658846 -0.008298379514134587 -0.007850736447199708 -0.008616075353983911 -0.01317069575830224 
-0.6736496648167101 -0.001718310847085076 -0.01979029792999352 -0.01622311518420685 -0.01250233142276904 -0.01321959374487929 0.6264291043282013 
-0.5148002393372021 1.099266637774904 0.5078834293030421 -0.08622729327158302 -0.2600608187399707 -0.537516683242134 -0.111804618931203 
0.08472969344113947 -0.0003291214318296352 -0.04108932734283136 -0.0004823454573292342 -0.08722175058413796 -0.0002963005852001379 -0.03342406514549308 
-0.1505421972717113 0.01481499097746805 0.4763092156921299 -0.07743180635732481 -0.1637452054129584 -0.02534099229199676 -0.05790289416305233 
-0.8612595051680682 -0.8982977778078484 -0.07646141364732117 0.2366310290032898 -0.1952599953199895 1.6235850624682 -0.0545300971768721 
0.03277779772588964 -0.01893179107016152 -0.3746527705797651 -0.005144374419020267 0.5119728072794555 -0.009054742099521021 -0.2179478273739474 
0.1081890467751319 -0.03096592370891009 -0.00342246675879529 -0.02648999214646791 -0.06218132235713726 -0.01092286767336393 -0.008343991520817665 
0.003346092196887812 -0.001987774262146396 -0.0005204857078513996 -0.001536560331853814 -0.006199445198494989 -0.003676443250177218 -0.00389766188286305 
0.0006526839790059174 -0.0005288808529169107 -0.0003127817823916043 -0.0006300027692810003 -0.0009914468057868231 -0.000879126592551219 -0.0008888931946184797 
0.00329279146868255 -0.005350842072318883 -0.002159839375608413 -0.001821766240313219 -0.00136198154685886 -0.002762474055342719 -0.001297592933216066 
0.001293858312483586 -0.001628793793943443 -0.002271598576594078 -0.001871663962014963 -0.001622666395199062 -0.001217195228425511 -0.001405203770847142 
0.001206840145812029 -0.0005074437075987979 -0.0005665195799881596 -0.0008016065447947735 -0.003667186511267071 -0.0001231524822996443 -0.0008460392779504242 
0.007135299350561691 -0.01270580980935972 -0.00381425231056539 -0.006522533432430594 -0.005246252648371462 -0.006279579364742726 -0.006205690977100015 
0.08182526979465701 -0.0001188579755939324 -0.01325496175141266 -0.00108354881978465 -0.03049423096244214 -0.0001538565999698006 -0.04789190388298026 
0.003585539686913775 -0.001723986619387709 -0.0003716371208942048 -0.0009094075615677403 -0.003790369871773974 -0.0005804886772490906 -0.0008671289763800134 
0.1252444008236901 -0.004281726587957654 -0.001616876868849514 -0.09177026473435698 -0.002768874899238106 -0.09228805413690708 -0.0017450107959749 
0.01419520521072368 -0.004666428889447459 -0.001936757278595003 -0.003957401442173743 -0.004900110868043451 -0.0021084697294163 -0.005284611858918843 
0.003360209205563387 -0.005140595533778886 -0.0005039656575239068 -0.003355455526678166 -0.005238850535610874 -0.0008052854439269037 -0.00148820044874501 
0.02270693964384267 -0.0009656278161730579 -0.004889683808256877 -0.0009235150678649375 -0.01844857360325464 -0.0004489445700892773 -0.01715602144911585 
0.00605739984357165 -0.003006075379286188 -0.00101320556051802 -0.003395464116161133 -0.001427837141529556 -0.0009282931662407548 -0.005476371844690259 
0.0008602387383712235 -0.001180168617754384 -0.001303526056481735 -0.0008068090699417967 -0.002326690453822364 -0.002159139427267261 -0.001178936582579723 
0.002476854345697351 -0.0008010390219725788 -0.001665054166729058 -0.002954564210419807 -0.002607316684140108 -0.001553561621698264 -0.003613138892715632 
0.004879812266434907 -0.01534982441864751 -0.0003710537368098839 -0.004157110349542864 -0.003906986934918339 -0.004199354133896108 -0.001049369271879137 
-0.1129513206834367 0.1939990477614731 -0.0607620787273766 -0.06761131580249279 -0.008886464968847549 -0.07813212115865839 -0.008316787890011283 
0.06023283999676966 -0.005217070429119794 -0.02510201168895998 -0.001134438949005683 -0.03723343982138771 -0.0002289897908293831 -0.009135372777278657 
-0.347969206339631 -0.244281718499461 -0.0148974431015982 -0.09144485842699752 -0.09917883501895006 1.01787191108649 -0.01012041914681146 
0.02481271356281883 -0.0002093964904047145 -0.01554652960974397 -0.0003495613731528629 -0.01719055202003127 -8.680850280942097e-05 -0.02910347878676014 
0.09813049919723915 -0.005392702575170149 -8.527530892089092e-05 -0.002846566297471165 -0.01145492412938251 -0.001919697644921615 -0.0009850600083956542 
0.2531142017253055 -0.006093472265816654 -0.005809911490314477 -0.05087990765234739 -0.0237924939604688 -0.02327685883986801 -0.01844278905096968 
0.01205124366444641 -0.005331228245836226 -0.002728299963272317 -0.004129298220249173 -0.004114013530749913 -0.001880065660938124 -0.005193672350308654 
0.02986255024206027 -0.006819314722351436 -0.001753760726969915 -0.004724806093634411 -0.01804924499328225 -0.005411812213720135 -0.005130022829849681 
0.01359628666421982 -0.006255784505341268 -0.008670412336014495 -0.005847323537241138 -0.009929514289252451 -0.01464456483259334 -0.0130029169969276 
0.00216551395392249 -0.001717311663175786 -0.0008695281918042405 -0.002231889332179912 -0.002863327546965614 -0.002996790069256826 -0.001838749879431088 
0.01916151745253649 -0.002710935870532845 -0.002748538046566131 -0.01147156395219011 -0.06463241638784469 -0.01202707115850483 -0.009635334930257812 
-0.297109037305366 -0.1557019013937663 -0.009523248616014916 -0.0956622439105799 -0.06890646695203358 -0.1258535528177821 0.9315732789491405 
-0.06106988391191618 -0.06765036601165961 -0.1146295297254112 0.8773255473048963 -0.1294329195053122 -0.0041911777920492 -0.07162950397171185 
-0.8558626770560986 -0.0009454237223301207 -0.00519650215827768 -0.0201587989781702 -0.01855674311253096 -0.005187000664138084 0.9035566484028412 
0.01148737676961297 -0.0004315241645078581 -0.001516807718700561 -0.001343712839612738 -0.003930043332606103 -0.003242020186593808 -0.005581835241821501 
0.00037687112112559 -0.00108052498094548 -0.0001521771899019782 -0.0004765877925319102 -0.0002945013733532401 -0.0002155920141843119 -0.0002054238093021886 
0.007577453227940043 -0.002080296402432578 -0.001658157363990618 -0.004103850605258953 -0.006721668755670648 -0.007909398839462968 -0.004874308486825355 
-0.2253674279289672 0.6288150162095061 -0.004712133436329108 -0.169198795780041 -0.07029570061499479 -0.2815491228429229 -0.0124567262637371 
-0.1373020803498496 -0.06469759525159921 0.6132700058296413 -0.006104026573160825 -0.1525324106412643 -0.01467055168365376 -0.2647753066505968 
0.03616697844458094 -0.005697676607667393 -0.00116881435372891 -0.00420780483199171 -0.009566764078109163 -0.004041045339743262 -0.003650895844876921 
0.004753738807232386 -0.005906170299781933 -0.002534302473857612 -0.003498972085337883 -0.008317930421394198 -0.003100579745425852 -0.003878040152109472 
0.0008066716845023873 -0.0006044227575608642 -0.001246987418479115 -0.0008842070795311326 -0.003059047795182186 -0.0008248561135150174 -0.0009506813852373056 
0.02724914648737249 -0.003574275428751715 -0.002248841817166814 -0.01886185595473835 -0.002300895388616208 -0.008881856973149495 -0.002878956840759294 
-0.01892791060641767 -0.01171598624354434 -0.001135959534971562 -0.01568397936628446 -0.004587673044217479 0.04278155536875138 -0.01143649665014644 
0.004624566545342475 -2.966344038178852e-05 -0.002165339539501915 -0.0001474180603726046 -0.005149481762340248 -4.764232758282416e-05 -0.002630653835311751 
0.009604823579685217 -0.0002974964587329673 -0.001140642058914172 -0.0002093344886305303 -0.00628152578707666 -3.309709441876106e-05 -0.003163932636984204 
0.002938957093037334 -0.0007435682046530662 -6.214736555711718e-05 -0.003992150318070629 -0.0006044970399909407 -0.006610231859999806 -0.0002743710528868081 
0.004994361420543977 -0.003058474045013849 -0.0008255596311621403 -0.0008554416323990755 -0.003236517219939159 -0.001508711394310642 -0.0008362208874944082 
0.00855210219244629 -0.0002260167032159402 -0.006398395437263622 -0.0001011250869017367 -0.003833542919266245 -2.784408891738546e-05 -0.002332506283088625 
-0.1912809714324022 0.3021466670423569 -0.007923756215556429 -0.04845677041418329 -0.02911369301848611 -0.02857609798983844 -0.00607638310722749 
-0.09222473103138802 -0.01098952944309635 0.3676267540236451 -0.002501228708492999 -0.096177851448583 -0.009434835227121231 -0.1248130285251642 
0.01820581388254235 -0.002022989840695366 -0.0003063064667630611 -0.003983152351872563 -0.007989840581637602 -0.001410073490762152 -0.002351474337780373 
-0.1569783810659152 0.2524331077114129 -0.007542707353631362 -0.05922617601032951 -0.01807898557424717 -0.07916001596977576 -0.006966096143661627 
-0.03781960115051813 -0.1758411517914847 0.3070016517519397 -0.003343958838193072 -0.08193590942903413 -0.001716992635604335 -0.05397335685259423 
0.002151341046053203 -0.001569656463450698 -0.0001669496316352657 -0.008712610429082166 -0.00184508220617658 -0.002691592961206154 -0.0003761635418350082 
0.02820466523950092 -0.003135100886164936 -0.003277978933164772 -0.01159765914364172 -0.006625705061382216 -0.003662870580960123 -0.006205358338446362 
0.004233258481795794 -0.00801045689867781 -0.002687961203104837 -0.004351634161664657 -0.003573876354952226 -0.002192725577423727 -0.002139705340015288 
0.009755660872665061 -0.001014627126479848 -0.0007064446535142277 -0.00789011345743424 -0.005485993886613468 -0.00380012028879808 -0.004472539612577506 
0.008424674997286967 -0.01490941211178342 -0.0043858242227116 -0.002117825859078886 -0.004544560952483303 -0.001124749183876428 -0.001521431961504382 
0.001126993159978092 -0.001469752390387411 -0.0007541980277615397 -0.001671499359869308 -0.002802494592210912 -0.003137360323495422 -0.002130491437689373 
0.003032320375571586 -0.005789811988796341 -0.001159049377821733 -0.004777760297264581 -0.002505502588990888 -0.004972442321054793 -0.001922987600733781 
0.002225842319346824 -0.002232411171202036 -0.001808935409580316 -0.002767255389696557 -0.001920481122600334 -0.002931649903728665 -0.001850014602653446 
0.0006039974751824781 -0.0003485078981173362 -0.001240065236261613 -0.0004794058519986995 -0.002041959437622085 -0.001388205782189412 -0.002490415691498658 
0.004054408548450733 -0.005712824390181463 -0.005887657295337054 -0.00293802964241026 -0.004107881116569644 -0.003733676703756651 -0.003516881265683903 
0.001338046854960037 -0.0005521984375387223 -0.0004333776707753268 -0.0009860934925719801 -0.0006152790298800688 -0.005104872317232283 -0.0004070885075262617 
0.001322467516209044 -0.0007119137501521436 -0.0008753722074463555 -0.001177100860681874 -0.001123683002017465 -0.000358246458961136 -0.001326390950864754 
0.01286602849457251 -0.002653585821805682 -0.0002231164188946568 -0.006146681070939432 -0.000450758496178699 -0.01193704907291491 -0.0004664421645994992 
-0.1133533412719898 -0.02046774912317502 -0.2321173246056525 -0.006291900788900194 -0.1214356648206698 -0.006232922477392968 0.5747018012582743 
0.0551386074393258 -0.0005207506385563532 -0.004279495610005045 -0.000294105163226042 -0.0547304597190839 -5.104697190695869e-05 -0.0110383218151321 
-0.1621205266418698 -0.1713440002598376 -0.002489322354485261 -0.07336524959704033 -0.1363234994361886 0.6339267917554512 -0.006846694764516238 
0.02094470568303877 -0.0006076852033944351 -0.00293879892504873 -0.01552923356140079 -0.01271436990802157 -0.002603755502875036 -0.002160988304062067 
0.04644063658309358 -0.001989451152880609 -0.001040144505459359 -0.002170378766683408 -0.04273938947016735 -0.0005335526857103674 -0.003448325819427975 
0.008388574292991627 -0.002757456427896725 -0.002213305740411247 -0.008249547464051257 -0.006611069128866407 -0.006849532477150078 -0.005823151998471392 
0.0006783305550273374 -0.0006380969915613581 -3.653349491214554e-05 -0.001252692662108272 -0.0001196482301581836 -0.00180666727543018 -0.0001171559789963551 
0.001021943904790587 -0.0006261246200866457 -0.0003429433425794435 -0.0005486761484632076 -0.0005163419081433313 -0.0002450775261676128 -0.0006164508867227296 
0.002251165092304742 -0.003278028882343707 -0.0005541774277468285 -0.001265292004624007 -0.0007638554503645049 -0.001265056476602691 -0.0003082591658305061 
0.002437838741810881 -0.0003355162219317899 -0.0003281624481947788 -0.00110405250960273 -0.001967899063863258 -0.002392032911643213 -0.002375851985391887 
0.0001763949276758457 -0.0003680223171916409 -0.0005860982204857998 -0.0006118377018537055 -0.001103983259109949 -0.0006353253522606644 -0.0008469425287648769 
0.01004302526416216 -0.000596730270805584 -0.000155434340936116 -0.002281850401071185 -0.0140724499484805 -0.003951168839595651 -0.001871188137362037 
-0.02798149158644922 -0.009482405137556384 0.1572912076093486 -0.00325244362587711 -0.1402178275670406 -0.02613199065564537 -0.08142546309837058 
0.03053021920658528 -0.0002490160725735531 -0.02342866596630925 -0.0003395589769169543 -0.02517030387349397 -0.0001901314848347572 -0.008441645633576246 
-0.05257018438553068 -0.07735176348320845 0.4922116862177056 -0.008856069378343224 -0.123889235349458 -0.003110239791783308 -0.0681438951702274 
0.06735123082070292 -0.008909028477648776 -0.006970317967825825 -0.01137507482780462 -0.01500380305023877 -0.01019411006017881 -0.02214986054664652 
0.01318729171366407 -0.007827053846879388 -0.0007639662717618052 -0.004362694587748773 -0.008625965155871419 -0.001300374810763431 -0.001405041276417388 
0.01477564686473097 -0.003697132635997922 -0.002915629594024717 -0.01552079284478023 -0.01481305826388925 -0.006828434871643206 -0.01385052011312443 
0.009502380521145506 -0.01425429202237254 -0.001505407930545393 -0.005433512952468534 -0.003795220721754325 -0.007349561250452123 -0.004924011342340336 
0.01288138484614309 -0.01456076612996307 -0.004530394310213277 -0.003060954225633044 -0.002633804555995689 -0.002765331191272104 -0.001155814392732859 
0.0125537127039109 -0.02084815729582382 -0.003405216920189368 -0.002062597595973413 -0.003805249261325078 -0.002787493856096648 -0.001414092790959584 
0.02681410777045381 -0.03822140293547933 -0.006903855105711841 -0.03386613705236495 -0.02115004537627714 -0.0275736294876817 -0.01641602061500636 
0.001187253220103726 -0.04143483230546438 -0.03679486964784079 -0.0334988557790703 -0.03989063980587276 0.04960111108037593 -0.06893611198114905 
0.01520586626265563 -0.02324469515486555 -0.01718698360913466 -0.01914993355796802 -0.03104078678048201 -0.02384383974354138 -0.02332793016267779 
0.1420167793055309 -0.04247832267120024 -0.0313682173836596 -0.03549923865978225 -0.01699900197109949 -0.02982556643641877 -0.003583226981182816 
0.28613373946956 -0.0004090955206440102 -0.01119403964733984 -0.0002213321481662495 -0.2468147811820196 -3.728943727294251e-05 -0.03339962544931196 
0.001058140223936611 -0.003166467154238225 -0.0007079710017983921 -0.001884669718458373 -0.003974884424416769 -0.0008240726639238942 -0.001859076997063155 
0.0006547662680221625 -0.0003923757374512616 -0.001401123469347117 -0.0003100992573699569 -0.0008508179810158441 -0.00117677367714394 -0.002213889442052304 
0.0007261805839175889 -0.0001555178447894458 -6.146849024063001e-05 -0.001213978167123773 -0.0009874560543037176 -0.00209009466764718 -0.0002997005736853405 
0.0001442118783817549 -0.0002426861950669208 -0.0005378260311511336 -0.0004580206239641639 -0.0009191182619644895 -0.0004436398710545876 -0.0007464200294736135 
0.004616269988762687 -0.006443009841788419 -0.006770719561008338 -0.0024661319530127 -0.007455278613509103 -0.0012939750330084 -0.002299159107658487 
0.0006350758552474235 -0.002388455961976762 -0.001441373842506034 -0.001905224553921876 -0.001427084559291089 -0.001642800556079887 -0.001093762914548016 
0.0151223742436289 -0.00291181239551807 -0.0005930117602028991 -0.01793503264690407 -0.000645142828478918 -0.02015356072516613 -0.001278925308191705 
-0.09749208832915078 -0.01722670424985786 -0.3217505877987047 -0.003256347367323629 -0.08153322013899666 -0.008094737098246612 0.5797423838591617 
0.009604823579685217 -0.0002974964587329673 -0.001140642058914172 -0.0002093344886305303 -0.00628152578707666 -3.309709441876106e-05 -0.003163932636984204 
-0.1419171981079142 -0.3511693715287582 -0.001394964571023128 -0.08583297585056968 -0.002657058277213213 0.5572327450653336 -0.002158173012952463 
0.001966348946672347 -0.001794416688580947 -0.001294530561262599 -0.0005850123730067316 -0.001003972597921954 -0.0005969766929254225 -0.001976367383831154 
0.0001168804882564394 -0.0002143677623353172 -8.900159435504693e-05 -0.0003330198559688313 -0.0001161485371836301 -0.0002677861566781076 -9.766182584430139e-05 
0.003185938739662039 -0.000349446141401836 -0.0001747658598589002 -0.001958790000216317 -0.001973084725475177 -0.00113309614837682 -0.0007926717180927232 
0.004115972262572341 -0.01224571397614313 -0.008196195469941391 -0.006479878621516337 -0.005190756943845116 -0.006401693433509519 -0.00599813122951815 
0.002241753927295614 -0.00380979397037262 -0.001521781814110461 -0.005142285069046871 -0.004080515440262233 -0.002282343549944661 -0.004037396061427874 
0.001609866004942891 -0.004364769773238168 -0.002031098220299861 -0.003499432827693914 -0.001934152173149766 -0.00354281676578351 -0.00217165293304795 
0.0006547662680221625 -0.0003923757374512616 -0.001401123469347117 -0.0003100992573699569 -0.0008508179810158441 -0.00117677367714394 -0.002213889442052304 
0.0007261805839175889 -0.0001555178447894458 -6.146849024063001e-05 -0.001213978167123773 -0.0009874560543037176 -0.00209009466764718 -0.0002997005736853405 
0.0001442118783817549 -0.0002426861950669208 -0.0005378260311511336 -0.0004580206239641639 -0.0009191182619644895 -0.0004436398710545876 -0.0007464200294736135 
-1.007122479969222 -0.3594449114982347 -0.04761786242970617 2.187511638129331 -0.02962637538076167 -0.6028096277025226 -0.02638323449787313 
0.1064016008621705 -0.001826061661650922 -0.09765052579840804 -0.001147958611166863 -0.0943398146044739 -0.0003813208265185617 -0.08822071593230597 
0.02291182726343099 -0.02440169789716761 -0.0002931508831828585 -0.01719815489944826 -0.003400321777117609 -0.002690100769729354 -0.001097702365372666 
0.009012613819860689 -0.006464483524707204 -0.002280432447516335 -0.00417958900630739 -0.007132721227927511 -0.006436021847539088 -0.005157436673496268 
0.002822570933089155 -0.005210004602622531 -0.002013104216276131 -0.004531535040724901 -0.003250957389922977 -0.004665147904933639 -0.003915936468860317 
0.008676087658956217 -0.001420411958264176 -0.001492514457199071 -0.003404308280110844 -0.01102693867908011 -0.003237458599457709 -0.004042119542077195 
0.003544411352592142 -0.003527352018206537 -0.002406903439242028 -0.003101019340644799 -0.002105914698418086 -0.005569846701242082 -0.003047168555921069 
0.001864904661128932 -0.001641147643834865 -0.0003893596434969094 -0.001250475132022372 -0.0007064031719716347 -0.001328399311911786 -0.000728965352858096 
0.02871860556916739 -0.00472090786434583 -0.0006119880055838543 -0.01542906072687372 -0.002574628920871125 -0.008930257298448104 -0.0005082758046194221 
0.02678915098115605 -0.006096722211941899 -0.005130203183091912 -0.008956215543266468 -0.008248262171373548 -0.004659291277352626 -0.01178767375098783 
0.005920170746768953 -0.006127420488753462 -0.003384804142447058 -0.004419092118050051 -0.008071657863163178 -0.002038665176005123 -0.00414234351754151 
0.004884440242938307 -0.005587263330824818 -0.003258030696537528 -0.00779312918511933 -0.0105447063050892 -0.007382829461141546 -0.0089657365868156 
0.008283710607327193 -0.0002067060942157886 -0.0005502256051580332 -0.005049589619593554 -0.001069599288997649 -0.002213449969509318 -0.001669662064573591 
0.01090093612960595 -0.004739743117313203 -0.0009110323808836896 -0.0007680628507201827 -0.005377252504832298 -0.0003330949624091926 -0.0005287172471861154 
0.0007256263572464274 -0.0009359080508579753 -0.0009742152525941595 -0.001129114350024907 -0.001134201185530534 -0.0005843614360256939 -0.001642493751748527 
0.001667297860424453 -0.001784691426977836 -0.001417709928733407 -0.002188367543681769 -0.001360261837169481 -0.002131296212366244 -0.002136960058271476 
0.001003792235823842 -0.0006143267704538525 -0.0006777719011069824 -0.0008631625728062724 -0.002031440439387858 -0.001151421768432073 -0.0008643601296138434 
0.00283079220186517 -0.003299192625497245 -0.001667018210239327 -0.00183105153403873 -0.001207355576143674 -0.004096174591800231 -0.001096423923103286 
0.01093111716274263 -0.004823173503122609 -0.002128733877660261 -0.0009921104828308034 -0.002128608782292655 -0.0001866386806739461 -0.0009562911361072123 
0.003219479806783469 -0.01438399572033573 -0.0002231826286896548 -0.002082509493527738 -0.001857520400124524 -0.000402213804156296 -0.0004975616185339976 
0.005492955065217354 -6.6162556020815e-05 -7.514559887110376e-05 -0.006187530878223782 -0.0004081963533718733 -0.001616210294862367 -0.0003816769746636492 
-0.07692641863017519 -0.02075158491970444 -0.2449868377823124 -0.006318168918932194 -0.1275031020632898 -0.006253728855182434 0.5536931678189909 
0.07300767034351234 -0.0003171900389522457 -0.004264812320379436 -0.0002518021320274452 -0.05268169843566704 -0.0001477072989927476 -0.01098588051624637 
-0.1228462757776787 -0.3247967074691278 -0.002774924063104707 -0.07308393055845633 -0.02126720984750072 0.5359656491634234 -0.003682597615085078 
0.002142589568435153 -0.001923964871632646 -0.002562275327951518 -0.005517820768922729 -0.002410970602285531 -0.002839578508501944 -0.003672126655587837 
0.002098290883797681 -0.001491032512050135 -0.001845391497752511 -0.003640151956411465 -0.002092684061284689 -0.0008183886429365851 -0.0006945799817355793 
0.009956175528888511 -0.007534628284175946 -0.009087093054412144 -0.006047264428097404 -0.02062339874417855 -0.006298151706137952 -0.01032182429871856 
0.009355046990411439 -0.001118614984701329 -5.408706035459644e-05 -0.002027108400207288 -0.0005793295484434189 -0.001903827381303448 -0.001089889168131407 
0.004640173482383207 -0.004426691695341965 -0.001611659850964842 -0.001588750151683806 -0.001904122073066472 -0.0004763438034027803 -0.002008321751472798 
0.0008414097688462275 -0.0001871725562657631 -3.878644540239532e-05 -0.001096264678997314 -0.0009855049963493855 -0.001875877164526689 -0.0004727616422652555 
0.01307297841669094 -0.008799624440356917 -0.01202127082383229 -0.01504491852148992 -0.01134160778172386 -0.0191057108701304 -0.01224132772294903 
0.009122136291117494 -0.007170230991358231 -0.00283247087045793 -0.00419376409875431 -0.01066753898678953 -0.004483658332416853 -0.004640807160079249 
0.02233138480775388 -0.01699761922248567 -0.03090863832412629 -0.009758650643281594 -0.01985844332530281 -0.01077303107782032 -0.01493331996462833 
0.001684865451385047 -0.00137818043063938 -0.0002093161108083837 -0.001193586929493992 -0.002130889615235377 -0.00148957234793628 -0.001268948642833704 
0.0002068151513676615 -0.0002282500625863618 -0.0004476087654326839 -0.0002542268764819067 -0.0005229115278025453 -0.0002035308105552854 -0.0002814971280352896 
0.003029416163646994 -0.0006958956715178944 -0.0003461503385710223 -0.001033991255860415 -0.003345212373575225 -0.0005897526199675038 -0.0009755044885278631 
0.04277508259931564 -0.002121711567783282 -0.0001745278703850341 -0.002353470527616759 -0.002148007146453147 -0.03669830562447812 -0.0007415969486543459 
-0.09414588718020754 -0.0124870828044128 -0.007209662825971224 -0.0233708006162942 -0.07805249786455623 0.1822454957341689 -0.02862001333549805 
0.002471394059651842 -0.0003087315734406037 -0.005831654668136436 -0.000374421004251935 -0.00568271849997294 -0.0002029202697709049 -0.004514866955479693 
0.006442490793910572 -0.002193199569510891 -0.001435159613556023 -0.001986602786243045 -0.002139299753738389 -0.0007963009784157569 -0.003247869976090056 
0.002785344153995748 -0.001009531543694143 -0.002680254412339359 -0.001070534264945535 -0.005218741332043755 -0.0008743766735566975 -0.001258779472917641 
0.001484414649616176 -0.002407287922436606 -0.0007963941701695325 -0.003599240288651816 -0.003649335528894073 -0.003958400429339069 -0.002356476490272912 
0.05256927339669806 -0.002810712348029388 -0.003451667735527557 -0.02019038814392479 -0.01144123490264103 -0.01319976892867803 -0.01172281368045939 
0.008940802266992894 -0.008271407581115209 -0.002812234514495228 -0.003690751699975282 -0.006410810950541654 -0.002760065359561576 -0.004815330306222543 
0.0221276249625538 -0.003952866308036525 -0.001234682724149889 -0.01354498287427879 -0.009247739696315468 -0.01229631681864305 -0.005514732219272119 
0.004014085627909933 -0.007177576521351976 -0.0002845274077835851 -0.01049719512041631 -0.0008079358096516305 -0.01864441774898108 -0.001296638232036385 
0.003688611178508992 -0.006643872990653165 -0.003757623624394085 -0.004597458564004018 -0.004425378340394528 -0.001674427991886321 -0.007030834964811247 
0.005260075050076384 -0.006671048290650204 -0.001877197224258027 -0.007023617895603921 -0.003310056351432318 -0.00605693339838822 -0.003058587272992962 
-0.1127041008938657 -0.006275331065484846 0.2385710381561064 -0.03785879613561373 -0.06487876359719544 -0.001157020754254914 -0.1256282899656367 
0.03331703956121106 -0.0007442089671413284 -0.03306672560868449 -0.0006054490161261523 -0.03165093911368817 -0.001090462837434209 -0.03749922914538326 
-0.1227271428779016 0.262834341023453 -0.006620110614764196 -0.1245490039615625 -0.04559539969939385 -0.1193438102479273 -0.01456789056578761 
0.01149256802288111 -0.0001836193534778018 -0.02783159651288641 -0.0001059846095916906 -0.01184895067082311 -0.0001205009324737027 -0.01915450532783002 
0.003389103820844194 -0.0003011841550059028 -0.001020723043280262 -0.001453686676025511 -0.0006195021113696031 -0.001730097772941055 -0.00626283562746365 
0.1997550223558453 -0.05903647726480742 -0.006375688692178036 -0.02948743444908227 -0.006133165129324934 -0.1115245683101287 -0.006851008099612681 
0.01000233372824163 -0.004941133899026298 -0.002969117132212276 -0.009362839526318008 -0.02477058577861109 -0.007651348312142507 -0.01002918239706325 
0.002805836083187386 -0.0061357274473877 -0.004053544946063008 -0.005415361725991923 -0.003668654914840118 -0.005468719506895006 -0.004575906608250299 
0.02757329949331762 -0.001378657965311307 -0.03765955265711148 -0.005878541125303664 -0.03408737190261492 -0.007151894269469123 -0.03635660585554637 
0.002732648623072755 -0.001413398429133967 -0.0007033256222004445 -0.001247169718261604 -0.0009975814376447468 -0.002025549694130355 -0.002370907881694269 
0.0001763949276758457 -0.0003680223171916409 -0.0005860982204857998 -0.0006118377018537055 -0.001103983259109949 -0.0006353253522606644 -0.0008469425287648769 
0.0001103361985885868 -0.0003518989158889787 -0.0003539032430000141 -0.0003745741604266731 -0.0007998746838570524 -0.0003385249293580257 -0.001083920224519643 
0.01293674373823506 -0.00665319060671295 -0.002537786831246778 -0.0146190654691586 -0.003844637083314088 -0.005996622371678697 -0.00515116416256392 
0.006987450854262673 -0.004413750281230033 -0.004954280712793412 -0.006214142973320648 -0.00830356907859576 -0.006098576630665094 -0.004342529423360243 
0.01246603302914703 -0.001818461956362855 -0.003149380153898179 -0.02128280617255086 -0.0038767595283992 -0.00650970156093673 -0.004994771952362928 
0.03259676732648148 -0.01040982521593706 -0.01076318884020146 -0.02067914827611897 -0.01754709127940469 -0.02499122522350438 -0.02305018439854123 
0.05715831396603269 -0.004288799567766542 -0.004870122560671053 -0.01406037403280863 -0.0407095991749605 -0.01357976310681541 -0.01310026355118752 
0.01340887984797745 -0.005384579539503096 -0.004652508110260613 -0.02096605788268035 -0.0425963196386689 -0.01352808545523819 -0.006431048390301316 
0.0048739969371985 -0.001812342507344819 -0.0008043691651696844 -0.0005592182122463667 -0.000634792860098212 -0.0005891625972585581 -0.0009702387066953437 
0.0006789717977679914 -0.0004489657243837281 -0.0003362954488087327 -0.0004246358795843808 -0.001413442916261423 -0.0002322839080021179 -0.0004107126047591436 
0.001186006928693037 -9.050376720365518e-05 -0.002140552389548021 -0.0001372424128353042 -0.00375981142008559 -4.170062334980711e-05 -0.005290097832173159 
0.02491169489392456 -0.005398165588121274 -0.00366475700111145 -0.008463364712614885 -0.01079922936898202 -0.004091442909316873 -0.01615137857369114 
0.004298774928264855 -0.001180926461792082 -0.0003773723517405361 -0.0009012779205629472 -0.001691729350675608 -0.0002180185991223578 -0.001668826109908735 
0.01316182975521943 -0.01455176630546249 -0.004722525335375128 -0.01297053597510327 -0.01127860534154471 -0.01363536120113112 -0.01262254398552695 
0.00637702938881091 -0.0003597871784499179 -0.0002562083962603956 -0.001727979236767904 -0.004195439615848898 -0.00135317861048568 -0.002779118626313792 
0.001835913338437694 -0.0008939538592068839 -0.0005537009773858511 -0.0004632657816172352 -0.001122169599065917 -0.0002131983665785782 -0.001560539862617852 
0.001690897700981887 -0.0006702072092046718 -0.0008360693352458648 -0.002466759489445788 -0.001777447741885514 -0.001751140070791509 -0.003309527765331733 
0.004315890594509096 -0.0002185815200633854 -0.0002215952498053768 -0.003863282589583538 -0.009963063983193165 -0.001296065753806792 -0.0008678156016089206 
0.004687179646548078 -0.0002498056232417532 -0.0005336471750402765 -0.002365147009933522 -0.002835576986732541 -0.001810787892477598 -0.003022737300822835 
0.02892274647977573 -0.0006926873860883532 -0.0002257518457288786 -0.03681562887175115 -0.0002625053170282609 -0.003352395494800346 -0.0003671173086071133 
-0.2354004690063276 0.7405079075832995 -0.1196308056963474 -0.05223597703475112 -0.1469848608110776 -0.03003100983473381 -0.07600078324952178 
-0.2217230792676276 -0.03585426461218551 0.5768342594719987 -0.008652822765656832 -0.1552613085508811 -0.01166437661270868 -0.2003887138319112 
0.445497457994266 -0.2433822934749469 -0.01962564482462075 -0.03162680985454618 -0.02594295435030071 -0.02529604360940422 -0.004214971796053227 
-0.2041204295740594 -0.000601277598492161 -0.006702921457935435 -0.0007565084311999358 -0.3416760681882312 -0.00189141039862165 0.3447119914469612 
0.005402505599180492 -0.002741494846506588 -0.0007257241824228231 -0.002474433317319063 -0.01475959274211198 -0.0009114009914414005 -0.002849604654279691 
-0.05240720428900531 -0.01528095470685023 -0.007828205808985736 -0.2653330686666995 -0.02789809856923458 0.2329193620275944 -0.003579546321080202 
0.02938201383754999 -0.006893163576649436 -0.02758035012772026 -0.01573163492152901 -0.03697448955080667 -0.02151539071631858 -0.01806693328148395 
0.02238685412550998 -0.006256450098767191 -0.006320957464803479 -0.006420513467599781 -0.01501177165598951 -0.007519750933801074 -0.005623192651418749 
-0.05312217525333364 -0.01537020982796332 -0.03955356050994916 -0.1038713462076565 -0.0348659182742987 0.06761657181203896 -0.04452539528006975 
0.0008848481715351447 -9.652912605831751e-05 -0.0007422925518725102 -0.003108488047972332 -0.001063671727377466 -0.001415934195283179 -0.0005617050280282938 
0.002213612765919722 -0.009130975252504649 -0.00116375065276978 -0.003164838739388411 -0.002682420133837531 -0.001376262139220397 -0.00138075090534987 
0.001076795987032558 -0.0008003181143750423 -0.0001579454136769155 -0.001104380991011655 -0.0005568933330881848 -0.0004984299145676165 -0.0004733847388467188 
0.003258833357754966 -0.001786183459285966 -0.001287722009754058 -0.003219264235047599 -0.00468315367586535 -0.003511501596465804 -0.003632209669860877 
0.01144965793265097 -0.0004312136117337494 -0.001513577853555552 -0.001335738371708195 -0.00390770222179651 -0.003239818573870596 -0.005546914979700828 
0.003568056249248804 -0.002323853985577277 -0.0009975628063406635 -0.003593553397662134 -0.00270309571874045 -0.003724383927986415 -0.001236729993738896 
0.006930848510000725 -0.002417339899224442 -0.002106766463396186 -0.005036754772579753 -0.004130874642473013 -0.006001939275382728 -0.005072557017426262 
0.004245423892107416 -0.007225180315662333 -0.002514447130223273 -0.002225633292994531 -0.002714435590584562 -0.001042490459178121 -0.001877650742270273 
0.0152648719610426 -0.00729245714403109 -0.02028424956192859 -0.006800468235060932 -0.0128476982444941 -0.005531021861494359 -0.0183411579325662 
-0.1419171981079142 -0.3511693715287582 -0.001394964571023128 -0.08583297585056968 -0.002657058277213213 0.5572327450653336 -0.002158173012952463 
-0.09749208832915078 -0.01722670424985786 -0.3217505877987047 -0.003256347367323629 -0.08153322013899666 -0.008094737098246612 0.5797423838591617 
0 0 0 0 0 0 0 
0.003452743161353998 -0.0004302123903933732 -0.001296307471883969 -0.007447828096686525 -0.004863481087473131 -0.002507750183962884 -0.006442020390317064 
0.003182926856451264 -0.000368978655827416 -0.00094754078181351 -0.000897971970813343 -0.002826606061077611 -0.004348668439677539 -0.002889805397581159 
0.02384867928523649 -0.0003185121015496976 -0.005870661997146661 -0.0005925542407598623 -0.03573722952012613 -0.0002660784312648117 -0.01066776037809362 
-0.2676131793922321 -0.0181321327522036 -0.001388570024481747 -0.0102748484496639 -0.003663278527412535 0.3463043032554238 -0.002289556641214799 
-0.7973466636155406 -0.0001041423859630223 -0.008268544422586054 -0.0001489920024853413 -0.01090839915718965 -2.323147794309085e-05 0.7862745054558956 
0.002315231572692488 -0.003375897330773377 -0.000159621420415759 -0.0009059393637041342 -0.001074411476649993 -0.0006331016840627276 -0.0004069498056191049 
0.0024037950951295 -0.002400929328909129 -5.39238956418179e-05 -0.00393530237719582 -0.000450966228853771 -0.007169015557658464 -0.0007024089069920363 
0.005661349361133145 -0.00194378273616427 -0.0005888116128749688 -0.003198116476966346 -0.002695295603069782 -0.0004923584679079271 -0.003356080322105081 
0.001166883813271372 -0.001862721384847178 -0.0002227445178892301 -0.0009425921508294406 -0.0006669982304302628 -0.0004073523387393618 -0.0003864148604443722 
0.01178221764409333 -0.02177519857531034 -0.01320919735179351 -0.01214991264728638 -0.01705118312150714 -0.007835868330208282 -0.01115487252897902 
-0.4778521612002076 0.3430574221326044 -0.02842709057367274 -0.0617595388712164 -0.02978193987354365 0.2195901850024825 -0.02659638003623176 
-0.05291635455354515 -0.01393178140941463 -0.3290840301504001 -0.0267999739671906 0.452279746078828 -0.04414540592859003 -0.0725864580502612 
0.023411839102138 -0.02780725154533378 -0.004723080798131517 -0.005051788161264853 -0.002766707548860956 -0.03809425709640477 -0.004380234431969756 
0.0009444248939430883 -3.385654517331792e-05 -0.01273619139598043 -0.0001021644918173327 -0.007270627111223311 -7.114608115892111e-05 -0.01264876466758955 
0.0005293462757022149 -0.001585745647128894 -0.0003541126839145478 -0.0009432261921917097 -0.00199137343231775 -0.0004122083006273045 -0.000930401141088693 
0.01321135217232449 -0.009388547299275671 -0.009331294348845614 -0.009333793903617842 -0.009693130726299085 -0.008278762880666798 -0.01924560829952767 
0.002591259948242233 -0.005383471085691635 -0.004009811853434238 -0.005097780507289752 -0.003630710017669581 -0.003953677828528151 -0.004728920448446831 
0.002727635470886855 -0.00770078913139974 -0.004696016928605413 -0.009221236121151815 -0.007190521383558735 -0.006876865170621892 -0.006542036828838758 
0.6024905709733985 -0.08118397049829174 -0.00140935074788091 -0.02256949312472991 -0.007854622318102444 -0.333459648408957 -0.0018115588208414 
0.533393412909752 -0.006319308999409924 -0.3892478159195608 -0.002175027768811731 -0.0335401927673212 -0.0032828914486241 -0.04438986329820136 
0.007804186760214456 -0.0001965673676486906 -0.003701751183920619 -0.0001146952721798655 -0.01059379085558771 -1.933554731380899e-05 -0.005270446734999916 
0.0108844359570094 -0.003197056619755925 -0.001471774681620138 -0.004103802935986163 -0.01375174334201548 -0.005424212674610168 -0.004834191921697432 
0.0008555751757120712 -0.001870357401311841 -0.00168917233665457 -0.001338155822758956 -0.001091038001035157 -0.002047783648991117 -0.001613014707575511 
0.01259428969341462 -0.002621620085628365 -0.003479477576129754 -0.005160087659240368 -0.01185081340112942 -0.004396119190161754 -0.006429912747975713 
-0.3625436580471638 -0.009526028401568333 -0.00164187968279718 0.6283867561394654 -0.003573714790931339 -0.1537285406180299 -0.001773053641803301 
-0.8046785878101083 -9.255167157401205e-05 -0.007870754732630169 -0.000330445090597454 0.8810743305471047 -1.981067947246586e-05 -0.02271066616895283 
0.003915627281607656 -0.001389029785932969 -9.727186733951698e-05 -0.002041925767427784 -0.002636947623682931 -0.0004047083418187329 -0.0001899564552526206 
-0.2330777446676533 -0.0995328621468648 -0.001564267598187222 -0.02092754766908919 -0.07487321269542177 0.6373727803606331 -0.01577113844152607 
0.007478462897548462 -0.0001961167687371463 -0.003700963766892208 -0.0001146135413839285 -0.01030903416769981 -1.933152105501567e-05 -0.005264393175664092 
0.0551386074393258 -0.0005207506385563532 -0.004279495610005045 -0.000294105163226042 -0.0547304597190839 -5.104697190695869e-05 -0.0110383218151321 
0.07777418825658466 -0.04257604368830847 -0.09046825274579817 -0.06427897079021387 -0.1644503837624126 -0.08476213364548169 -0.1451126835694493 
-0.1060478926676982 -0.0734975260661986 -0.0148718644607575 0.2812891590648455 -0.04760638270723697 -0.171392647237213 -0.02599113508365529 
0.2033799965061042 -0.1849374038268727 -0.1189219719969746 -0.1731034223599973 -0.2161020620763903 -0.2212212685702843 -0.1712362720594862 
0.008583267208828772 -0.0001463703198688752 -0.01671364010351199 -0.0006638423210535494 -0.01720811474821033 -6.561678082992142e-05 -0.00993604936736826 
0.02961146057304349 -0.00291612445459097 -0.002220943386928276 -0.001412349559075558 -0.02015992879701131 -0.0013412058797178 -0.004247736584752685 
-0.00786823750859144 -0.1000514621672751 -0.02063216652534225 -0.05012156291952424 -0.07873489320326003 0.1441394224596093 -0.06006313153734574 
-0.01781244113647174 -0.01238936051790849 -0.0007140651595418298 -0.01754001489731271 -0.007598272454495073 0.05870268810630272 -0.006714410938147139 
0.002023520276857627 -5.726407321056567e-05 -0.01068973208192543 -8.504000541558954e-05 -0.003309279241225958 -2.186715174242178e-05 -0.003882869556440801 
0.005757884811531821 -0.002819362292778767 -3.169432245064592e-05 -0.002009711277836991 -0.001068858022138021 -0.001913046136035197 -0.0003380163964895978 
-0.1691985686312825 0.5266984057097766 -0.002294133129875374 -0.07556378122667491 -0.1154667430457587 -0.1190895611707434 -0.006425001845554858 
-0.03093964148071638 -0.163557738475414 0.5098630284306334 -0.006798034159636394 -0.1057208244861999 -0.002418964689607944 -0.06377860450782893 
0.04421099118655707 -0.002263304733006658 -0.0002527412818772163 -0.0006888516353802525 -0.02851843702738488 -0.0001786982379152108 -0.001179183442476907 
0.001034225557293126 -0.002851139243603498 -0.001937223913172441 -0.001263329882766016 -0.000880786757482496 -0.000720615001456013 -0.001134245462536428 
0.00114873973991758 -0.0005940164288765884 -0.001354337848612561 -0.001308887231733914 -0.001126679814841361 -0.000401165571245899 -0.0008413191084801875 
0.002880753921905754 -0.006933396524460379 -0.004068572094250283 -0.006715203818579278 -0.008343982686849835 -0.006049324084646914 -0.005674236889153239 
0.003107802937813544 -0.0001422122164728443 -0.0001832493356755818 -0.003332762021016207 -0.000559715701166386 -0.001194554881766771 -0.0007467589937402933 
0.002769204242293025 -0.0007994485022107346 -0.000588874742672909 -0.0004004038138322029 -0.001349073253003255 -0.0002335009530533488 -0.0007910623145121154 
0.001230635681057438 -0.000671542340189179 -7.229721951015448e-05 -0.001263109837861522 -0.0002983106874191493 -0.001047752224157731 -0.000539142771885293 
0.05950173743396747 -0.003653472327032782 -0.0005184581433117808 -0.017647914041124 -0.001079482177551859 -0.02741796881456783 -0.001123113901115136 
0.006582390377204621 -0.003357135462041216 -0.001432888695078202 -0.006471555640017092 -0.004707894295703135 -0.005721539806092828 -0.002215895506253971 
0 0 0 0 0 0 0 
-0.6540275647423565 -0.6333051907140954 -0.06709527631383723 2.289360584276837 -0.03629253732695112 -0.4240497478834787 -0.02844693954098305 
0.01894958653640167 -0.0006158532020868052 -0.03432956823699596 -0.0007826019013835457 -0.02631352273071355 -0.0002446020880482045 -0.03063769893562067 
0.02326347323753762 -0.01143640084061434 -0.001109875683314181 -0.00741498209824431 -0.01390791086743001 -0.002432330104766715 -0.003797815260730752 
0.0341257584077439 -0.0005495996822158683 -0.0007661135811076182 -0.04631243569236631 -0.003819435850974466 -0.02915327954986373 -0.002419251539238321 
0.07502416140234845 -0.00341450172893494 -0.007595379608124938 -0.01185432721263016 -0.03191190125568303 -0.01478231556432303 -0.01924223045160159 
0.007426570256052269 -0.002050124317720678 -0.004096163197826346 -0.006101327952184404 -0.009713316613826538 -0.004007308336520479 -0.003042587897912538 
-0.02294500756353799 -0.01418463699576262 -0.001334425376510693 -0.01302355458815723 -0.001092793892682813 0.04591295383157715 -0.006132863197502174 
0.003089624193067134 -5.294822632003721e-05 -0.001119343673046412 -8.959973165906994e-05 -0.002912155237637865 -3.130518916836436e-05 -0.003978500955883995 
0 0 0 0 0 0 0 
0.03864711915209555 -0.001290640711593115 -0.04017974468702067 -0.005902836215065797 -0.01395007278001202 -0.04076531117836119 -0.00956904601793381 
0.02543867936440919 -0.002552391191128993 -0.002613069280705036 -0.0118093753558954 -0.02578894911005617 -0.03047709222712613 -0.003004607510001543 
0.01337875851661969 -0.0005982180071988701 -0.02256894821355415 -0.0005911035133205217 -0.03452111720401871 -0.0001397078178276673 -0.0254557287021221 
0.01112752787209518 -0.007850985760113043 -0.0004541347857324856 -0.003246557850473659 -0.001796604410592849 -0.003646570108275077 -0.0006422801684249046 
0.0008587091213081446 -0.001317613539099082 -0.0008769603355471376 -0.001906675831081044 -0.002138172964338634 -0.002350131969127638 -0.001215104017483421 
0.001514843702272658 -0.0003522307218844069 -0.0001527139142626922 -0.002478405638529221 -0.001320390248666181 -0.003488758706123102 -0.0005811426865443639 
0.01355105328225879 -0.001026548655586683 -0.000882689090979181 -0.002009871254627935 -0.001152939250370351 -0.005744950520088124 -0.0005957306516961465 
0.04413480452687265 -0.002921293146154532 -0.001143646817845079 -0.00159795099987974 -0.02862507866568967 -0.0007125312262042911 -0.001715485834011959 
0.007713733815901686 -0.0005809662735704737 -0.006939772998209337 -0.0005051804372605849 -0.006551259817106451 -0.0002382124355962331 -0.0547235288371813 
0.002429713714773054 -0.001475665572493782 -0.001645780873733768 -0.003937728597566261 -0.001804156503284981 -0.0008843670521524066 -0.0006161763072878815 
0.009303687154126683 -0.0003092959568897961 -0.000394476609955933 -0.0003628352509911672 -0.01026132411423747 -0.0003955522652626356 -0.001952603598180145 
0.001239660431481866 -0.001175866708901024 -0.002490003467854143 -0.0032249526378428 -0.003636902241830152 -0.002625083981250004 -0.003501725001114122 
0.005478332691417721 -0.00039580615280203 -0.0003687562655835528 -0.0008164616008491938 -0.007992058043846695 -0.004295922471590358 -0.001824973260926678 
0.004543607443621517 -0.00057499594287105 -0.000933018895669987 -0.000851188991560999 -0.0005196604658922499 -0.001388100039223061 -0.003790143870065462 
0.007414133164787932 -0.000205042316346957 -0.0006974456398231803 -0.0004792510141871271 -0.007649499327581287 -0.0005228083606219516 -0.00201215506475987 
-0.02766962164508521 -0.03642661465784944 -0.004655453500449243 -0.02263518750143582 -0.03946652629615077 0.1306355054174985 -0.01342650496676191 
0.0632149939471152 -0.0006124316542974053 -0.02539797935245026 -0.0003998498894434125 -0.06221584082085061 -0.0002108294580400043 -0.02494441349646242 
0.05605610407364656 -0.002666112080372223 -0.004437423407472963 -0.0009936100250635726 -0.05592539861216773 -0.0002333172027375123 -0.01134700674561626 
0.01126075385051085 -0.01077574141288109 -0.005126038307459964 -0.0149480510947028 -0.02195678841576032 -0.007920830592989444 -0.009628337495900391 
0.02671903955300418 -0.00806378313361099 -0.01811892505532567 -0.007904064950640041 -0.02483768905525148 -0.02240380416182486 -0.02552971027994612 
0.017114605733563 -0.01140113000836376 -0.004888278540668592 -0.01952891002406866 -0.007610498035964642 -0.02986790636403048 -0.005131406955797074 
0.006551587488373663 -0.001400701396861803 -0.001273395886074308 -0.003109600646874899 -0.004205813055503721 -0.002904500547130509 -0.003548947658292209 
0.001861593846917494 -0.00325996437468936 -0.001193087026991125 -0.001699621565463491 -0.002913762688384416 -0.0006711030665907429 -0.002599937646180995 
0.002984658974319035 -0.0002181214459737348 -0.0002470774864051662 -0.004653540357485839 -0.0007457735410561267 -0.003442562894763818 -0.0007420656840282216 
0.003224674394048737 -0.001306472079903307 -0.0007107003634555685 -0.002639096929688254 -0.01094990165357808 -0.00877321958277958 -0.004110910155233411 
0.001797880197058172 -0.003674994378385488 -0.0008031732117373685 -0.002987957959024824 -0.002796360641454456 -0.0039229277517398 -0.001647107480246441 
0.0146833518890887 -0.0003920641320796918 -0.0006603180116744433 -0.02511959068701219 -0.001260108328223404 -0.01245751081993005 -0.0009555602695744312 
0.01245528813905788 -0.007713673568167192 -0.005192095899185226 -0.01187893641312538 -0.007127388385306081 -0.01315460909118735 -0.008099741075956048 
0.006765913758320009 -0.004868962593521309 -0.002611058885142623 -0.006218593856130957 -0.008328652005089388 -0.00489268092994299 -0.003968952809794333 
0.01944887581652628 -0.03004677543172906 -0.002424596490563524 -0.01270315930464861 -0.005134672446889504 -0.01173584207009544 -0.005433570269069879 
1.394275074471222 -0.251097800208611 -0.1501731078277162 -0.1636403198548744 -0.5040414994390986 -0.09715090455287591 -0.1414166944301284 
-0.2267764350786689 1.684432094770483 -0.3554687107350407 -0.02856293362220594 -0.3467698915550186 -0.01142614148100169 -0.2446955201258262 
0.5401606552181821 -0.3109998500322078 -0.05130002016361398 -0.1923423965657101 -0.1118112190161802 0.4727551973578473 -0.03015429265393776 
0.8559951027676298 -0.04610417236325358 -0.1684940076204764 -0.2254176574494304 -0.1153835627395422 -0.2457574390437554 -0.09327428133231928 
0.0691838568628604 -0.000529632816074157 -0.05596880566973297 -0.0007365577394442196 -0.04739880103226606 -0.0001198422725399522 -0.06049410612269755 
0.545876975044864 -0.3433831110327463 -0.002834239168113299 -0.119734714972592 -0.02350467979736611 -0.1131500370323598 -0.00413128750538542 
-0.1892051916817784 -0.05908277512568168 -0.01217930209651888 -0.03273462645612516 -0.08422111459236556 0.5589639104807989 -0.01619585433679394 
0.009604823579685217 -0.0002974964587329673 -0.001140642058914172 -0.0002093344886305303 -0.00628152578707666 -3.309709441876106e-05 -0.003163932636984204 
0.04421099118655707 -0.002263304733006658 -0.0002527412818772163 -0.0006888516353802525 -0.02851843702738488 -0.0001786982379152108 -0.001179183442476907 
0.002225630031581741 -0.004547204696841827 -0.003106812423329756 -0.002681852047631432 -0.002307696349188161 -0.002301254579004876 -0.003352225347655088 
0.01105031537964007 -0.003069590257379477 -0.002341441903441381 -0.003050285438386811 -0.004309594747119876 -0.001881137415079203 -0.007596411144117283 
0.003299048851292796 -0.004047018034998007 -0.0003233621077986532 -0.01307056878868813 -0.0005665136563407159 -0.01124575358845408 -0.0006842193298559855 
-0.05063232048385731 -0.02888114117279696 0.1673412413552907 -0.007736181293842098 -0.05461170785988471 -0.004746644765724149 -0.06909549061034205 
0.02334255144345029 -0.001760480960319163 -0.03737739056089946 -0.0002652602904004077 -0.009816614421849444 -1.810244906649242e-05 -0.00286798197671345 
-0.02969255848227569 0.5619425272407528 -0.1713084404191589 -0.006757755205549101 -0.1343654985513369 -0.002434096155283786 -0.06347834841334545 
-0.08394061967916958 -0.01679026499483664 0.266275346392607 -0.00321536355215772 -0.07081308648367204 -0.008014062417840088 -0.1301733909617145 
0.002977549955690948 -5.279718653859422e-05 -0.001111962296798646 -8.792178106510376e-05 -0.002811616394314864 -3.093740268433079e-05 -0.003886394691745957 
-0.1157641008585693 0.2633242953073423 -0.001374486614445 -0.07993236064175042 -0.002541320586155624 -0.1507977857233764 -0.00213219295412931 
1.322750193024623 -0.1286645555975459 -0.03829368328735456 -0.07217835153648458 -0.03911835015589957 -0.9054410388296537 -0.03029141459419743 
0.1156787812842715 -0.002669172462933389 -0.01081627583543482 -0.001568281491685306 -0.08927213755321109 -0.0003574452940766846 -0.02903712916416269 
0.01292063499376775 -0.01248774700112876 -0.001361352901437265 -0.006723089604856389 -0.01237304725093097 -0.002877834943877561 -0.00322580032704688 
-0.03253033662006136 -0.3181783544004302 -0.2946279575135927 -0.1755875249532721 -0.1590303591762454 -0.2974823613724132 0.5501475016490541 
0.0551386074393258 -0.0005207506385563532 -0.004279495610005045 -0.000294105163226042 -0.0547304597190839 -5.104697190695869e-05 -0.0110383218151321 
-0.4240191241504554 -0.007373701883194355 -0.1196997028254932 -0.004151580616459602 -0.07657159112200539 -0.0003630906335912778 0.5979029567149232 
0.09821493451158955 -0.01021761997851914 -0.007997434927385857 -0.05028315989945423 -0.01882050752780516 -0.01763539349992917 -0.008447540681602354 
0.02038171399692602 -0.02587524201025859 -0.006495646234051025 -0.01654230779219758 -0.01536301998371916 -0.007814347930768285 -0.008677674568399771 
0.05260480239013692 -0.006283576628313296 -0.002291987252450047 -0.04577726102482087 -0.02020971517734471 -0.007738644227532279 -0.007713574031645997 
0.001831699679143788 -0.00204443976081006 -0.0001671385668448906 -0.0008484652560651359 -0.004454386761335188 -0.001267336962135177 -0.001623306814608477 
0.0006704654008583321 -0.0004924394537550704 -0.0006188118740653411 -0.001070708804749022 -0.0007375275256791675 -0.000821362558945678 -0.001074189995050116 
0.008775262531764121 -0.001110182693994337 -0.001282290470106261 -0.002684404394735355 -0.005167233570597617 -0.001476971636332636 -0.004052109475492486 
0.01299253548497798 -0.003077233535525439 -0.008392573712559607 -0.00986014376046996 -0.008217423550549462 -0.001271887796946526 -0.003189910880238407 
0.0148535882918998 -0.0004126458735300184 -0.0002426997504216423 -0.0002962990370198354 -0.01336730600866318 -0.0001688304484099947 -0.001457451292669375 
0.006127179334730874 -0.0006489865923017405 -0.0005725128878344984 -0.02219892494634053 -0.001511186819000627 -0.0139138428418621 -0.001504836786901369 
0.7186380778677384 -0.05385889908368616 -0.2486093970267823 -0.003096460568685659 -0.1430021824243156 -0.0025863740519079 -0.08220146715067006 
0.002173032296540927 -0.0001702484655319426 -0.01016429101184433 -0.0001190513617033246 -0.003247350867322846 -3.088609020591217e-05 -0.005623256275890055 
0.589321879647366 -0.04681227513445717 -0.001672377639344045 -0.3124893756010074 -0.006806545741496686 -0.1444806013949842 -0.001349874067813567 
0.005992323501265064 -0.00147202879795491 -0.0009946653294458311 -0.004790688769174062 -0.005498443705915849 -0.004377527289765613 -0.004268904951327599 
0.03355255180272328 -0.001534739329441645 -0.002785416676218748 -0.004856650050488986 -0.01107948800662159 -0.007851327165988672 -0.01255518409461164 
0.002209777582345745 -0.0006064940027800052 -0.0007137850389655845 -0.004998154952684615 -0.00371652786873174 -0.002521458418824285 -0.0007387904820369117 
0.001869024072650537 -0.0007003891793847163 -0.002236102547186431 -0.003053388773018897 -0.002150790582329861 -0.0007424107936408252 -0.001994702309858718 
0.003713145955086877 -0.002517278049819755 -0.003240978109027009 -0.01770289678838854 -0.004283260408241482 -0.0245648298160606 -0.001973437927064841 
0.0002130365114934944 -0.0004281754028041937 -0.001009007545564154 -0.0006322263756072664 -0.0006499456778624984 -0.0004408993137816021 -0.001148337769526886 
0.003259984540377621 -0.0001430624822153048 -0.0001835814420257399 -0.003398199799637952 -0.0005686118893733419 -0.001210488208846271 -0.0007563761719950313 
0.00490153602479758 -0.003030839449299886 -0.00219180340409631 -0.001724289357144032 -0.002785979195124029 -0.0007300207242411108 -0.002853040427768562 
0.001230635681057438 -0.000671542340189179 -7.229721951015448e-05 -0.001263109837861522 -0.0002983106874191493 -0.001047752224157731 -0.000539142771885293 
0.3712457219934813 -0.006590719122664622 -0.2013967736751112 -0.002218816871371603 -0.06048358470152453 -0.003761391575115595 -0.1202513257230565 
0.003359561198332382 -0.0001115429026692147 -0.01607735506963056 -0.0001032121836939844 -0.007176622994864141 -6.251073129261136e-05 -0.02002105493809551 
0.127967700904407 -0.2873234644961374 -0.006587438069774241 -0.01114661661107778 -0.01272760657320897 -0.008812453343503919 -0.004223033743401858 
0.5482228980665982 -0.02349426124417847 -0.01711611283872756 -0.05964073247927343 -0.06197039659832482 -0.1298414904451309 -0.00763257429366815 
0.001222364095667296 -4.857294561532264e-05 -0.001220491595354714 -5.631464133829407e-05 -0.001519782962799398 -5.800204941632408e-05 -0.003194238022190347 
0.004821898866597061 -0.0007465557870161227 -0.000473597133534287 -0.01334417550821943 -0.002478236841697985 -0.0002917254779585923 -0.0009243875368156549 
0.01076807441510501 -7.857010523274987e-05 -0.0003915716583013764 -0.00483315745579907 -0.0004279761954626084 -0.003889006736500597 -0.0007238455959061272 
0.0002275034203225822 -0.0005355521906890304 -5.248341649249691e-05 -0.0003477547980623117 -0.0002274999020093573 -0.0005246443801042468 -0.0002098606485999147 
0.0009809723334400812 -0.0006136188247301696 -0.0003404027825999902 -0.000545448401360029 -0.0005084481505370015 -0.0002420834524388326 -0.0006115151897571589 
1.314287561620089 -0.6994525782092684 -0.0574688607167908 -0.2128105583938715 -0.07653207333799399 -0.3125593739166478 -0.009431311886393177 
-0.2398636444908656 1.753335265459864 -0.3663890471268756 -0.02598350556134143 -0.3523072499829276 -0.01118605684583159 -0.2493235046116427 
0.03723093368365171 -0.03043110329965874 -0.001068372520804282 -0.01173189963418604 -0.007540498864141413 -0.006240433125508962 -0.00262634481999122 
0.0260420470084637 -0.01815537394176539 -0.01390645064362103 -0.01382294366836408 -0.02404276844058261 -0.03792954173961875 -0.02418827091151412 
0.0367131106041559 -0.01709610035109334 -0.007526548305415579 -0.01456739623345357 -0.01433366404266957 -0.016775437188544 -0.01826620827137503 
0.0282146558367649 -0.00847527380881101 -0.03845045680496296 -0.02493121645293486 -0.02986644030032384 -0.0145448816702019 -0.03586047589129001 
0.3494106605259474 -0.2197883190695056 -0.03190543204809245 -0.03769989744318428 -0.02121189224667345 -0.03648490500466936 -0.01112845093328233 
0.002120785474305522 -0.0001006354154881859 -0.0168773951575549 -0.0001552490164417188 -0.008243645420609621 -0.0001113885075821136 -0.02291700263218335 
0.01305199133555595 -0.006306847092451848 -0.0003849520325412726 -0.002044864533291651 -0.003637129663355355 -0.0002261213550002557 -0.001318672392528574 
1.553022325682948 -0.6466648246728837 -0.2205686083069918 -0.2258155153510409 -0.1302557018613924 -0.5004310498029125 -0.08247276680229573 
0.2637945630451177 -0.003234043519746492 -0.207785052166951 -0.002098976600416102 -0.1673496140535472 -0.001760212576837217 -0.121879198456274 
0.1632802253248452 -0.06998056528896116 -0.01626549234172912 -0.02622623169611137 -0.07715306562354748 -0.004921592546617336 -0.03951222562430903 
0.01841215409591713 -0.00043347505190628 -0.0005507161548420961 -0.00563679486512917 -0.0201350308672568 -0.001675635415242709 -0.002275944672883354 
0.009065473545850047 -0.0005753157690404554 -0.0008210962621173074 -0.0004710553477200315 -0.01137722687952648 -0.0004086137921359973 -0.002901574627227461 
0.01536297633812668 -0.0006118337875166044 -0.000604747663956378 -0.0005945478517131071 -0.01418963066767307 -0.0003057979573327338 -0.002294404223424994 
0.01444280697262862 -9.622020247319832e-05 -0.0002301313618259112 -0.009376003596101568 -0.0007726507397828048 -0.002993257869390526 -0.0008477953216189337 
0.003048243988391026 -0.0006964076832191641 -0.0003463197217997706 -0.00103446359941837 -0.003346846742107207 -0.0005883807263876433 -0.0009781388100744677 
0.001401452678761353 -4.284588793451524e-05 -5.538237759284406e-05 -0.0001735449678230413 -0.0001926878932210481 -0.0021807569118511 -0.0001548383564731642 
-0.0181650356635551 -0.02359265560969899 -0.003381231330646283 -0.04676074285981956 -0.01799927590560973 0.07360042402177032 -0.01628585322911068 
0.1123377296541613 -0.0005660400868521401 -0.01700141178755491 -0.0004009601182767232 -0.08484316337017025 -0.0001181479668576741 -0.05034302751840666 
0.00481912938136551 -0.005737939822106282 -0.0004389000854002456 -0.00173962852220162 -0.005988442659281852 -0.0004284571461187352 -0.001016772605026814 
0.002931741102970847 -0.0002362211591059432 -0.000503529949259602 -0.001181620572809071 -0.00229363750909293 -0.001198892386637472 -0.003060551246961821 
0.0007050893518554077 -0.0004699845735893642 -0.0003430979971208885 -0.0004370493262528398 -0.001466968306360711 -0.0002389845825995807 -0.0004180784905290574 
0.002531340537859568 -0.001327407865683067 -0.0008014686034989053 -0.001546820658790229 -0.001725444110418437 -0.001462984234984969 -0.002199404845535022 
0.3037366046866445 -0.1771025883497699 -0.01327168044580118 -0.08566072419613747 -0.02647186854971633 -0.06807455421555869 -0.01294104675083527 
0.5399861638826278 -0.01844778691612057 -0.1001047389211455 -0.006876514258505254 -0.0594944684088874 -0.003696123913882831 -0.08457930008350288 
0.005944594680417605 -0.02776062427823791 -0.0005620210791856524 -0.004757058332393391 -0.003971511747256819 -0.001785377507087029 -0.001369034058262205 
0.0400387651393328 -0.003220428355452983 -0.04147277525998729 -0.008234638557513347 -0.02823232656513402 -0.002166152670809253 -0.00946100079796512 
0.06915992982223311 -0.001478294893480525 -0.002550993263661988 -0.003191404969713091 -0.09417417678517799 -0.007150203607231747 -0.009694661126865194 
-0.03763996293992349 -0.002300156330273086 -0.002821626106068304 -0.006093219764935463 -0.01576919644832424 0.02440380109405816 -0.007399152175284408 
0.3946978893603532 -0.410227758045955 -0.1364702269233616 -0.7135983361530671 -0.6361947208635115 1.39976326825568 0.5345521498846579 
-0.0303429733384903 0.5327981501743869 -0.2516159519156309 -0.0247703080859115 -0.8110236175882722 -0.008753898834907554 1.392257968021235 
-0.04242335819280089 -0.1158232391803908 -0.07648060077992155 -0.2309968461182362 -0.3803789050676485 0.1679501471476241 0.6520852011917687 
0.01207749011380303 -0.00544196021146258 -0.0009660587041340639 -0.003238447216328894 -0.002916689429308823 -0.004330191531515885 -0.00375268913897145 
0.01595338096593859 -0.0005046081545501631 -0.002232368455972137 -0.00779009431479749 -0.01177961877461566 -0.001794117661850414 -0.001898116479312202 
0.005352946657226939 -0.00488550006537287 -0.001656090984483421 -0.006972345655981723 -0.004580856158625629 -0.007910486100729822 -0.003424444015404073 
0.03826115335765263 -0.003795524152670032 -0.003946909538209115 -0.03970348566230657 -0.01952929421941261 -0.01029984082106035 -0.007771452336206188 
0.07167357777643735 -0.004018170097630033 -0.002269590962119086 -0.002875629834206405 -0.0531190897003174 -0.001186043674144354 -0.004800931681872368 
0.0236965485116671 -0.00731168738661811 -0.004390665681543451 -0.01183514981237366 -0.01890553323420095 -0.01274468044403958 -0.006786437053809443 
0.007500898679292304 -0.00350637926760066 -0.001371836386281908 -0.004181193140345958 -0.004520010425890777 -0.002936935313549157 -0.005054168733168754 
0.002437838741810881 -0.0003355162219317899 -0.0003281624481947788 -0.00110405250960273 -0.001967899063863258 -0.002392032911643213 -0.002375851985391887 
0.006818267065538177 -0.006868143048041805 -0.003812655617771731 -0.005529280404078268 -0.006444423555001458 -0.004735485530152333 -0.005286269342928907 
0.09731704959322812 -0.03531709131063756 -0.02118008332021919 -0.006141753271714782 -0.005526515603606977 -0.05046589952003318 -0.01026825429651363 
0.001222364095667296 -4.857294561532264e-05 -0.001220491595354714 -5.631464133829407e-05 -0.001519782962799398 -5.800204941632408e-05 -0.003194238022190347 
0.0005293462757022149 -0.001585745647128894 -0.0003541126839145478 -0.0009432261921917097 -0.00199137343231775 -0.0004122083006273045 -0.000930401141088693 
0.00264404082715491 -0.0005743565275837831 -0.001013305934411164 -0.001099640590064404 -0.002067795173302955 -0.003394224218638992 -0.003351271534512497 
0.001295156895738901 -0.003287395868768743 -7.994084934997251e-05 -0.001409479279191405 -0.0007212907464420082 -0.0006007053745434852 -0.0002761897284357178 
0.00670759656556653 -0.0009931178790884591 -0.0003960497562444436 -0.002690203891466858 -0.003563761837089994 -0.005146170303851096 -0.002285070881670387 
0.000994285736314181 -0.001275988688851593 -0.001362933839415242 -0.002998154822716012 -0.002278768032750249 -0.0009016779856774893 -0.002220314282713554 
0.006318637033436738 -0.00209577866081822 -0.002206288036364509 -0.004631417899620751 -0.002438802606868078 -0.004174947903225834 -0.004205541699492786 
0.0008365929027822883 -0.003234624984242567 -0.0009176614083321158 -0.00275288192053652 -0.001327401115556377 -0.003519056985892411 -0.001225829384675431 
0.03595368788245328 -0.06493729165447652 -0.0301890120305591 -0.05004408474982327 -0.03834396640288525 -0.04340113461418741 -0.03888307320933033 
0.0487468029274001 -0.04822546674968319 -0.043230537166105 -0.04331587449617159 -0.05173222715121244 -0.03967446499691488 -0.05872005251894774 
0.1044609851757324 -0.05203177660820497 -0.024852055269042 -0.06886093396976037 -0.03609504336425667 -0.05283214674196295 -0.04030762414419115 
-0.1959806156419816 0.3486668536707883 0.1772457927876262 -0.05209368229465264 -0.07623782203017312 -0.1443464209044869 -0.09361172831686722 
0.02059659425206195 -0.0004891532570074188 -0.01206455365280236 -0.0004211156614550382 -0.04676950107733227 -0.0001058673084666158 -0.01783663723424384 
-0.08315383500735336 0.1054671449141225 -0.0006555509743610666 -0.06178181367367953 -0.006083783183777314 -0.1023938835854063 -0.002813198631518514 
0.05428550859124337 -0.00165489874220228 -0.003685828723708474 -0.07995313412190927 -0.01704384145949831 -0.01295212529634047 -0.006312912934264009 
0.01315834203108797 -0.03015500583213988 -0.004443153908837445 -0.01683350353243229 -0.009400702346008627 -0.008326183576961384 -0.005991992307540593 
0.04342570981869584 -0.003720435273164794 -0.001194453490567251 -0.03885790536593971 -0.01204385987807173 -0.008322823769872577 -0.005962710328890898 
0.587428865603055 -0.01651711748814293 -0.1687917583130988 -0.00319980497194004 -0.09815634864844537 -0.004725755931326886 -0.1248825932598402 
0.003132397585374582 -0.0001004017959479218 -0.009232229543262596 -0.000158195500091939 -0.008119781405393999 -4.903537936419631e-05 -0.01336336645157678 
0.6339409293490945 -0.06553913476786802 -0.1037721246137924 -0.009493808859386893 -0.1197168223725362 -0.003545054390196053 -0.06489347148491191 
-0.02571640459166095 -0.06853385889223276 -0.05553134734395782 -0.01474848381495123 0.2723341211716558 -0.02698903041296383 -0.0986557725699088 
-0.02870052259210228 -0.1102277923578402 -0.353266926118908 -0.004694688010000832 0.592277576051874 -0.000789766682425852 -0.04262374508928794 
-0.1841760147360893 -0.04846196665387321 -0.002736998663012447 0.450862851448714 -0.1010453333990738 -0.03480328462234437 -0.01150207100492503 
-0.07444946013900511 -0.01423090298994171 0.2131709498417849 -0.003160372179327312 -0.05822688870912103 -0.007827399575334817 -0.1454387542596061 
0.00543227740520311 -0.0002094299002806475 -0.001139051516322212 -0.0001919404312873855 -0.006265097640530741 -2.797522893081868e-05 -0.003157211327111835 
-0.03302144714501942 -0.02832160163645749 0.08940156845665329 -0.004474204872340213 -0.04479098601509737 -0.005020397769061819 -0.01169620793385338 
0.5018133324589894 -0.1073795501557046 -0.01111514040626494 -0.01489770399381188 -0.01089372534935292 -0.2451918450559951 -0.006324466479792309 
0.03698582762609629 -6.934178631520383e-05 -0.01293390329474348 -0.0001152509203982444 -0.004550333968690261 -6.775305525008531e-05 -0.04055088834788027 
0.002662839312754752 -0.003149984557435521 -0.0002303182879944786 -0.0008980757889078565 -0.003649506136748569 -0.0002174878687979181 -0.0005443134733713597 
-0.01415143207496976 -0.01419286981325667 -0.0006671935423741127 -0.02981930352555752 -0.008220991064783223 0.05437365814320776 -0.01334556251942541 
0.01042563779390125 -7.099261352830414e-05 -0.006367699589396481 -0.000131663001743027 -0.02662178030801804 -4.489430739067313e-05 -0.008657479500369603 
0.02431986461672764 -0.0002828363137178488 -0.0007862976766256036 -0.000206416010130452 -0.007552816685519321 -3.228345851125852e-05 -0.008753738017614173 
0.5104145809857958 -0.3208303079322584 -0.1448484608954031 -0.1464041765674566 -0.04419164472889744 -0.2129626686373199 -0.05220599381159169 
0.002594786614009296 -6.308935191345932e-05 -0.01327643217559261 -0.000110784047705711 -0.005398187138187147 -9.851319634158212e-05 -0.01596060879509631 
0.1224621818217295 -0.02135899910437277 -0.004824078294321204 -0.1223778414325929 -0.07988414493401139 -0.01980635602674291 -0.02736626314709239 
0.008194638028451067 -0.001361616518558617 -0.0002111050639045425 -0.003228087873974162 -0.01858103083051371 -0.000898988699810971 -0.001786742382980435 
-0.1378596508500938 0.1459319925326091 -0.009633646639739419 -0.03950885375542463 -0.01963285702960478 -0.02297043904100419 -0.004905464360322489 
0.05312640778947286 -0.001565393369423642 -8.770260635025228e-05 -0.02872710097036958 -0.0003121712796599403 -0.009786592347602218 -0.000702098814633072 
0.02155906621492791 -0.004201116117198558 -0.006531134923671625 -0.007224821974225072 -0.01678282393971036 -0.01476387546720828 -0.01061789115371154 
0.006135516125645219 -0.001386737383068214 -0.001030179740702946 -0.004277944654205456 -0.006601121363031962 -0.008596608263127142 -0.006165038202089182 
0.01500379799242281 -0.00229221643347127 -0.001350799167360856 -0.003879392940816523 -0.01777021827100995 -0.001439698870784226 -0.002788133799928211 
0.02604577116695267 -0.001591421650039502 -0.0006664568142987277 -0.001743831590853803 -0.01348626415366754 -0.001128764516842382 -0.001084423860190147 
0.000804139492355868 -0.001339020670230144 -0.0002185465723076996 -0.001012676031320002 -0.0009493972067540133 -0.0004732141475694601 -0.0006222764741764681 
0.01496501113573626 -0.0004154135549218457 -0.0002444832906592114 -0.0002993704928746237 -0.01346784789696695 -0.0001702120953695025 -0.001482017480768312 
0.01273068137798607 -0.0003491142264480124 -0.00144824476213976 -0.001698925401967212 -0.002895868201262149 -0.004482222648225505 -0.005171435074093994 
0.001674217034099954 -0.003226143481965673 -4.900158013666462e-05 -0.001269000977766797 -0.0009431577480705041 -0.0003057523598938701 -0.0002082885246646131 
0.00367271695174092 -0.0006261221804633104 -0.0007131319397569616 -0.005042796060236441 -0.005997345300276334 -0.001782610929961848 -0.006073576795916898 
0.01218154557689341 -0.001230984224093795 -0.0002415147906811889 -0.01100259374237628 -0.004038195617685636 -0.007963145648149093 -0.001126270951807683 
0.01164479093787024 -0.0006712520019261112 -0.002688994525098547 -0.002813484167137577 -0.01052291078914782 -0.004682560246363516 -0.007490150102091036 
0.004788324084601874 -0.0007924158697657467 -0.0006999116649160055 -0.001815109373032365 -0.006871543981796721 -0.001515566275782925 -0.0008726084933961429 
0.09731704959322812 -0.03531709131063756 -0.02118008332021919 -0.006141753271714782 -0.005526515603606977 -0.05046589952003318 -0.01026825429651363 
0.001222364095667296 -4.857294561532264e-05 -0.001220491595354714 -5.631464133829407e-05 -0.001519782962799398 -5.800204941632408e-05 -0.003194238022190347 
0.0005293462757022149 -0.001585745647128894 -0.0003541126839145478 -0.0009432261921917097 -0.00199137343231775 -0.0004122083006273045 -0.000930401141088693 
0.002762458547664203 -0.0001851209585155208 -0.0003093410180220942 -0.005817434532481176 -0.0003625556795334329 -0.006743629117263735 -0.0003799249512640726 
0.0007735113244123495 -0.001180967373300368 -0.0004657649549806266 -0.001199973637970874 -0.000490105795971921 -0.0006579148208021073 -0.0003293491260026513 
0.0008200322059751099 -1.914686509600404e-05 -0.0001628260625592978 -9.848863414003356e-05 -0.000150550967844841 -0.003153282401730258 -0.0002605067570056678 
0.003494078483030107 -0.006662034356066961 -0.002111978278332895 -0.007174352776742767 -0.00275089191973509 -0.009071156626317547 -0.002785369060258946 
0.004469704232461652 -0.006612835783748505 -0.004456269552554966 -0.005021580895323105 -0.005194553282637363 -0.002516700025556555 -0.007805990089440755 
0.001668018913519071 -0.003687012413480211 -0.00100153947229545 -0.0009605030709579027 -0.001422179047159971 -0.001642381169322522 -0.001043616687469389 
-0.1734609761022272 0.8600870892847039 -0.1152921142602097 -0.104295522585157 -0.1374805797738361 -0.1669190675650458 -0.07467444124486874 
-0.1667236053998689 -0.07932754069324667 0.5968322729636398 -0.01415610781717735 -0.1673526608850234 -0.005940476692227603 -0.1128996436526663 
0.5891441945539763 -0.3512959854423098 -0.002530845980643157 -0.08586366413661602 -0.008901831870715955 -0.1593032596954574 -0.005304032960324129 
0.002163305382254585 -0.005478252514781492 -0.004514746229718831 -0.006347455461954168 -0.005729265268763129 -0.006904415671322932 -0.004447953218879256 
0.007598140130230313 -0.01080649364951175 -0.003457629691550046 -0.003282240354556242 -0.003934250632253299 -0.008949274099819403 -0.004865772600496932 
0.004346479982113407 -0.006009756074667898 -0.006059336383463533 -0.002226368356979047 -0.006629346013266298 -0.001133292415075697 -0.001950008521715356 
0.006351901990687331 -0.01992134615579489 -0.01353928766114348 -0.0215471211734371 -0.01017906754409833 -0.02506009106669637 -0.01126746633625043 
0.002449361814082662 -0.002039653119602876 -0.007290500218329252 -0.001549614742003208 -0.003575769575239873 -0.004470470429896274 -0.007302798708864059 
0.03218439792581435 -0.003236617245168374 -0.03153117672037225 -0.001762727904120162 -0.03613887024117582 -0.000533764066527491 -0.03534396566941748 
0.001977671322466282 -0.0007491305440732515 -0.0006272966426697086 -0.0005995455759210826 -0.001016620627823428 -0.0001900547150354838 -0.001692492905607339 
0.0002792101665711282 -0.0002706014646771911 -0.0002473864910189804 -0.0001924028577840244 -0.0005150634815042993 -8.019816375732933e-05 -0.0001839909972474494 
0.003322909364836811 -0.0002434590779088174 -0.0002792593013514114 -0.003201252410418381 -0.001429406941745537 -0.001123008990673437 -0.001173272017972518 
-0.266044726188884 0.3995450310887486 -0.01486369776585349 -0.07980886495682898 -0.04991127613043752 -0.05039515720810183 -0.01166527702000908 
-0.1273750058336759 -0.08839832778825135 0.5659127288014763 -0.008600891119877276 -0.1664153291039957 -0.01198097868914441 -0.1676560903932026 
0.06070086107467776 -0.004683678222722942 -0.007861455030080879 -0.003135309224875018 -0.02072345316713811 -0.001421012069901995 -0.01699002158666256 
-0.08695677634729496 -0.01360695246579994 0.2635374413274174 -0.003217848977400747 -0.06857406756494974 -0.008023013513213075 -0.1295207668669028 
0.003114984128070937 -4.356931346269591e-05 -0.001838685082858989 -0.0001701270428553589 -0.0009789731096705777 -2.14414287176797e-05 -0.001909287391493026 
-0.09621958682347327 0.4605086799368873 -0.002460759177755757 -0.0734835144147909 -0.1332890048842106 -0.1152743431123621 -0.00677612202858101 
0.01835157699650295 -0.0009186892237141846 -0.004763660672214365 -0.00502787847593333 -0.005062265796093253 -0.007838211660694762 -0.006184809040426589 
0.01467185669339744 -0.001533744595579162 -0.001183337528658141 -0.001404366319767085 -0.001365177655308435 -0.001227875966460841 -0.005706798855625988 
0.005769120446520598 -0.0009362638517957134 -0.0009282956488343143 -0.001688264727313705 -0.001781520286262732 -0.01530598128616234 -0.001864542528071952 
0.009514834154142985 -0.004167749761971652 -0.02913624867614568 -0.002819277059880124 -0.01495507461634516 -0.007049438266262812 -0.01951552327302489 
0.003274567071096599 -0.008006034899572186 -0.009373089438127183 -0.005149214962844475 -0.005628856102107601 -0.00205530839700307 -0.008098628228441554 
-0.06546643552728096 -0.04999163043538326 -0.2202492453267683 -0.01734980856960568 -0.08927413130599091 -0.01543889958023537 0.4322770596673178 
0.001039798085439181 -0.001175399247527276 -6.288935240893867e-05 -0.002064198785003601 -0.000211586700582759 -0.00319871781778947 -0.0002043392695540116 
0.000573010568094548 -0.0003248279802337281 -0.001967022170648153 -0.0006216389343778005 -0.000791744089097333 -0.0002708713788710876 -0.002014945550493995 
0.0007277527340838805 -0.001414893241860063 -0.0003577663410574843 -0.00114784514283301 -0.0005109984324295685 -0.0009296631472769208 -0.000517091856898099 
0.0511596374688366 -0.001168103459906961 -0.005411965598410877 -0.003334661074371014 -0.03439184063117841 -0.0003627521768687434 -0.01142595905485731 
0.3202961236274512 -0.1676642072490451 -0.02767675458460374 -0.04989078872619272 -0.01856809958548032 -0.08570958937514576 -0.01520390757055808 
-0.080752603660817 0.05141770191680285 -0.003636264032434496 -0.02940587298153815 -0.0009678078765982282 -0.07832695372471142 -0.002209622378243387 
-0.1973214866223849 -0.1416466589075704 -0.005840269938056757 -0.0413203913626561 -0.005355380637959711 0.4864559601161513 -0.009587761997959488 
0.009604823579685217 -0.0002974964587329673 -0.001140642058914172 -0.0002093344886305303 -0.00628152578707666 -3.309709441876106e-05 -0.003163932636984204 
0.02788556090464097 -0.0002964113763537147 -0.001094222545703852 -0.0002086992650730099 -0.02106967332811701 -3.305461541876554e-05 -0.002802610191645228 
-0.2425355380710532 0.3503968391360986 0.3555947846639924 -0.077546223776765 -0.07697337986368537 -0.1940325818427955 -0.09873259344438978 
0.03488074806903172 -0.0005798527499043199 -0.009058377236960711 -0.0006786932408019452 -0.04635411375662402 -0.0003819538884102361 -0.04201047106877096 
-0.1915401630323705 0.3017843877341324 -0.007922617901382848 -0.04847533701055773 -0.02902665121571029 -0.0285717053926098 -0.006072032259965309 
0.01786767032217593 -0.01297686243289086 -0.02986483946838762 -0.006930365772432792 -0.01961752726521768 -0.04139368877767792 -0.03201758148740676 
0.006426125384850464 -0.006320170264933594 -0.002929316309525707 -0.01243188086983388 -0.005339269068062296 -0.01630816386104537 -0.009400017107420356 
0.004713710618000994 -0.003037523172406364 -0.007975165977354684 -0.02020806021377299 -0.00852242627121085 -0.01356070628992026 -0.008349415746317172 
0.01054613949305581 -0.01667250464501879 -0.008597251226689317 -0.009848635530695388 -0.01987433410371006 -0.009487978480167129 -0.01706312559952745 
-0.03088129207594788 -0.02213778762894529 -0.01025328770427172 -0.02262794075754689 -0.02234098702756587 0.06514624077739228 -0.02841229937648894 
0.01472212908945729 -0.01808045479289566 -0.02306264719477589 -0.01764261140921705 -0.02869556548585974 -0.01275580543142142 -0.02732963140423842 
0.0252616820962915 -0.0014093138278291 -0.004328363091626528 -0.002179889971020729 -0.007152554758596447 -0.006910874471582731 -0.008879964859907052 
0.01467185669339744 -0.001533744595579162 -0.001183337528658141 -0.001404366319767085 -0.001365177655308435 -0.001227875966460841 -0.005706798855625988 
0.01188450258814091 -0.003470618463989278 -0.0007797918301142829 -0.004470899657472625 -0.006244255301187451 -0.007565706912131564 -0.003840653479988215 
-0.2259829338159233 -0.1641222390488147 -0.006844542924558735 -0.03459547642550432 -0.001277220613380056 0.501875019204721 -0.005132698790817898 
0.009515338272480326 -0.0002974094937566142 -0.001139338337530983 -0.0002092920702852689 -0.006243276117721416 -3.309456559983107e-05 -0.00315405707130248 
0 0 0 0 0 0 0 
0.002869476536399595 -0.002071583374141468 -0.0003001267916521516 -0.0008403547444995431 -0.001558610058529974 -0.001817141732894504 -0.0009432250172712745 
0.0004142789056457197 -0.0003354183129864623 -0.000533260076251174 -0.0005119741324820855 -0.001069083561968537 -0.000523721662743801 -0.0005447027065711606 
0.00178927295451118 -0.00051421415121871 -0.0005378981954918434 -0.001224301549445328 -0.002412598162371345 -0.001307178662713102 -0.001276567541279143 
0.01235446910676929 -0.002986504255084013 -0.002923847782690867 -0.006508936346002562 -0.005957383733606783 -0.003403725738582094 -0.008230840086099743 
0.005489168942967103 -0.0003283733498597432 -0.0001518595741297087 -0.00150906446215819 -0.009702272717331846 -0.002744352727794055 -0.001682874400767977 
0.001046271724486143 -0.001633242212928311 -0.001422946046587298 -0.002187313976039682 -0.001631274337427294 -0.001966203384780668 -0.001342618692599898 
-0.1932120129276347 0.2860570408049344 -0.001085118195864936 -0.07753375630691625 -0.002319163890013622 -0.1540870063364288 -0.002027538977890642 
-0.06872721899744592 -0.09356053332294713 0.4454648488197948 -0.007530265172871476 -0.1038595328221188 -0.002860637011049546 -0.06123701258300928 
0 0 0 0 0 0 0 
0.00355431762723878 -0.000289340509844056 -0.0009627423192807258 -0.005206627735431137 -0.003590380870657879 -0.0008487256255202616 -0.00636722859810311 
0.001526008484598963 -0.001115112252088757 -0.0009698455804274095 -0.001785796624602562 -0.001582253822683582 -0.0001675762901878642 -0.0003439491754387995 
0.02213997704396251 -0.0003868185662536175 -0.004716256768635377 -0.0005337000193539101 -0.01721467807267763 -0.000239849909878272 -0.01663018153455267 
-0.2259829338159233 -0.1641222390488147 -0.006844542924558735 -0.03459547642550432 -0.001277220613380056 0.501875019204721 -0.005132698790817898 
0.008203046468908773 -0.0002903864630375486 -0.001134912419922668 -0.0002050311370878549 -0.006079167194498307 -3.00225062823813e-05 -0.003119561493933406 
0 0 0 0 0 0 0 
1.056620858276333 -0.165659975933104 -0.7475371946855279 -0.172248675336132 -0.2703399488101029 -0.1004692286985287 0.2843230893909763 
0.566393941221639 -0.03428205707944817 -0.3010846156326991 -0.008127667527872013 -0.1148538238010646 -0.008203893895178813 -0.1481529948298363 
0.2169669946406505 -0.5110122806141369 -0.02071026934301872 -0.1355820301495129 -0.06612715957846799 0.4059282182754509 -0.02266378038252134 
0.01581306284351714 -0.000620161477934569 -0.0004152445448904476 -0.007317854800236869 -0.007853948614768569 -0.002331839546810855 -0.002600910256399938 
0.02266182827427788 -0.0122933221362202 -0.007107156798945015 -0.008861653086126414 -0.01070546763973912 -0.002494475110005767 -0.009200513562313594 
0.06327404236167004 -0.003330422812404564 -0.005120999376363797 -0.08928657432734738 -0.02413464552027433 -0.01704081500220656 -0.02128059916270033 
0.009996198434258783 -0.0165968746392203 -0.006957579622926213 -0.01680215686960205 -0.009947282448192332 -0.01940057869290598 -0.01640513335447723 
0.009176565536234806 -0.01127102263105841 -0.007894648261015396 -0.02094619968561717 -0.003897430686701828 -0.004881363794672835 -0.00687319808479151 
0.003438721547803514 -0.006241739421029399 -0.002331773390455239 -0.002069413533797439 -0.005298014965328932 -0.0006516668618836912 -0.002256829052504351 
0.003773006932248653 -0.002324827350674363 -0.0008025643409735031 -0.003254144806488309 -0.006367152806294339 -0.005003648598888794 -0.002296963829757758 
0.006231114598330344 -0.00210416689299626 -0.002215136646061665 -0.00454360181951876 -0.002431513542576722 -0.00414862523433971 -0.004244923360483097 
0.01000572285948383 -0.003755891490433742 -0.0001192837539215631 -0.00314611529048313 -0.001763426501659089 -0.008377173982476701 -0.000759098613495182 
0.6673053000747557 -0.01722670424985786 -0.3217505877987047 -0.003256347367323629 -0.08153322013899666 -0.008094737098246612 -0.145314803752427 
0.006247886399743398 -0.0004593668417925334 -0.0009699196330011566 -0.0001278480477237255 -0.004406690100138422 -1.753602902622485e-05 -0.002743478045794165 
0.5331541228457054 -0.3230605361006025 -0.002477762824817571 -0.1052901427538977 -0.01663410176606922 -0.09557260975551053 -0.003259769294173827 
0.3507867543463898 -0.05159969468241361 -0.08073019331108443 -0.04202500333630142 -0.1856442874985252 -0.01280341636466852 -0.1544229488657267 
-1.078604211012953 1.40361114178255 -0.1169689575316279 -0.3898316127454731 -0.2992894997490573 -0.2420888769115535 -0.07138073722086406 
-1.121728520910885 -0.5892230832041834 -0.06954278305012832 1.470592812083082 1.56784305951257 -0.4776619439732945 -0.1299053250010086 
0.003333130137247765 -0.002507492782653492 -0.0002924422554555229 -0.001177924516247686 -0.005272340594248269 -0.002872576894514528 -0.003573502862804067 
0.000250756625143874 -0.0002988300857913003 -0.000178640431666901 -0.0001964177856519169 -0.0001728736989313453 -0.0002425850438540047 -0.0001438742416856375 
0.002927147271535346 -0.006966996304903207 -0.008625322389597838 -0.00283613468247417 -0.003434412998074131 -0.001925036840413549 -0.002525477835618139 
0.006973625728501854 -0.02617429548075056 -0.001193913173671366 -0.003204691633839209 -0.005995151659231996 -0.0005690502808477044 -0.002021025990609165 
-0.1207358789352309 0.2083607689586134 -0.04255895710866412 -0.03655641073725205 -0.01624742124572036 -0.07789583312175581 -0.01307062570665465 
0.0221529730479115 -0.0004096658328670447 -0.02879673823767816 -0.0002691171855866933 -0.0115718120158181 -5.292487335239618e-05 -0.02639992225966308 
0.004314933073788983 -0.003016443759686858 -0.0002666031682977381 -0.0008969889227414436 -0.003075337724191675 -0.002269761574144405 -0.002258908010885443 
0.0002236160512350922 -0.0002531351414839918 -0.000357481511028902 -0.0003125446152298666 -0.0003469423896688716 -0.0003492963486902085 -0.0002487726981117445 
0.002590558524005744 -0.002818224872699112 -0.0001166485300721015 -0.002235320225709979 -0.0003616279508906018 -0.006619755069464357 -0.0003360942400634765 
0.005081515995635458 -0.002177588134808787 -0.02095040417995859 -0.003541023689654355 -0.00908721576415525 -0.0007767591670143471 -0.02554807649205645 
0.00220017175694988 -0.004300844953167273 -0.002691459731588123 -0.004895258032815993 -0.002426203836244351 -0.002093215295901917 -0.003252776946473366 
-0.1691846952219069 0.4124897728477567 -0.008268487479568189 -0.0719819159016131 -0.01306906854605213 -0.189959159309363 -0.00475371018205225 
0.008832097328346547 -0.0003057802477729532 -0.0001339863560176377 -0.0008489612159164839 -0.00969622656080628 -0.001926738490192837 -0.004390463665780526 
0.0001603997014633618 -0.0001883399363197239 -0.0001788990400638444 -0.0001478046420176402 -0.0002622306077574351 -6.504065152120552e-05 -0.0001231702823795262 
0.003118503677911451 -0.0002191375005000966 -0.0002478520339400692 -0.004811232439186259 -0.0007675200718363276 -0.003556108844088223 -0.0007528223927093701 
-0.1750221386998774 -0.006319308999409924 0.2881337226212654 -0.002175027768811731 -0.0335401927673212 -0.0032828914486241 -0.04438986329820136 
0 0 0 0 0 0 0 
-0.03505231704808108 0.07169023951918629 -0.002512785574544166 -0.0537971846657824 -0.01370058570659186 -0.04000959460892891 -0.003327170826943596 
0.01487181056376491 -0.002386432845977322 -0.001252940111186785 -0.004023770910437053 -0.001415884495467143 -0.003074838357461454 -0.002091562306130326 
0.001433546521576675 -0.001801709705776154 -0.0009112899501270301 -0.001004961772421091 -0.003407634219655862 -0.0004512732060801378 -0.001275508377052479 
0.001103802508126537 -0.001313641740002166 -0.0004243850203332854 -0.001021384070249473 -0.001419005864658595 -0.0005035841043786696 -0.0009123052441387665 
-0.1718309019769855 -0.1983347795821638 -0.04635583256878516 -0.1915408724317385 -0.1229808799707197 0.4403651006437432 -0.1176481255162492 
0.1183284306460086 -0.002955966634064146 -0.1840109700867675 -0.003253019560818044 -0.1077561901589558 -0.001197203045828078 -0.19606345628732 
0.06905336164530936 -0.04159976840242723 -0.002988326088825849 -0.02690271372123611 -0.08679220628489465 -0.01354080486883685 -0.01190808394202548 
0.001360527305249635 -0.007595881409484214 -0.005853620301348087 -0.00535736818031296 -0.004236466354849004 -0.004731697687928899 -0.005033652783506693 
0.004739761380579162 -0.004451163728504921 -0.01162795912645163 -0.01234514569976273 -0.009227540651265376 -0.002011427786732885 -0.002598361529418959 
0.009116849980724265 -0.003580544452305142 -0.0007388013889345786 -0.01072392591653118 -0.0007461630097339631 -0.01368840836796974 -0.001373236587470772 
-0.1658250907047019 0.2728709611885405 0.2019656489953502 -0.05941251647120598 -0.08650334970616899 -0.1479413170000553 -0.02297513567848449 
0.00639566812132644 -0.0003497118510947433 -0.02446838159585079 -0.000404415055636742 -0.01038598960427349 -0.0001692965901301189 -0.01526625873724126 
-0.04463167976383151 -0.02213072725910199 0.1556241497728557 -0.00672896979705425 -0.06441442332642176 -0.003415050998054809 -0.01940819071102744 
0.03821387300978746 -7.78685778203475e-05 -0.03496213150722685 -8.677048572502052e-05 -0.01273306276422418 -6.772538317705346e-05 -0.03444112819975843 
0.007389065907670672 -0.0007674584701385359 -0.0005920088104119516 -0.0007026703424691334 -0.0006830334660397542 -0.0006143061419982088 -0.002861515888995617 
-0.1222237824107781 -0.01280188176719345 -0.05856754652664529 -0.003952474100213168 -0.08147767244081684 -0.003055739730165983 0.4155001869328955 
0.004724681086962335 -0.0003281912310674528 -0.000225714442108141 -0.002442354879648338 -0.004703115687791857 -0.000888019525954343 -0.002613021439713309 
0.002479255040918377 -0.0003477125643622438 -0.0003345629847078841 -0.0004833238596899093 -0.003252322515785856 -0.000260261128161517 -0.0005823696994142856 
0.005370684123557156 -0.0001018468694290632 -0.0001027043915986934 -0.008809465962430995 -0.0005500364821502639 -0.004733220152736807 -0.0003811379771949486 
-0.8087680090536797 -0.0001133014476688146 -0.02880586330701067 -0.0001094199423840763 0.9008755083494964 -5.752126279755372e-05 -0.03151955433496126 
0.001182961060183347 -0.001865624374538594 -0.0002239650809315689 -0.0009466613318781537 -0.0006731128225951512 -0.0004081204984422442 -0.0003887216092653744 
-0.09450582162290326 -0.009795761969629484 -0.0393404161264038 -0.0342248489612578 0.7013401947088556 -0.002283573264226913 -0.3058547176390105 
0.009004127674913074 -0.001975638507305149 -0.005447451496580754 -0.002013311867674482 -0.00510332715915687 -0.006879088933117673 -0.006860981139978271 
0.002153854188439516 -0.0002634387114571602 -0.0001179325170443634 -0.001633438107143997 -0.00184968604606037 -0.003436593348292414 -0.001044026234256615 
0.003261074270149386 -0.003426350227588118 -0.001095131402758017 -0.002600184611105912 -0.00697709558046798 -0.002406135754152919 -0.00256385537824155 
0.008589971510058152 -0.0002551352176950163 -0.001127841386411949 -0.004015285800158379 -0.006093245214494519 -0.0009082071046620082 -0.0009725033163654417 
0.02768576967307729 -0.001296911227410231 -0.0002237254269136969 -0.0006053942791018338 -0.0230570943061396 -0.0001721642740573164 -0.002151064354192113 
0.00546591255347975 -0.0001020808974181376 -0.0001027849662589304 -0.008901040011920122 -0.0005543991543485238 -0.004797276450435513 -0.0003820362653379778 
0.002920831686610227 -0.0002165563488974665 -0.0002465979796049787 -0.004572844964808766 -0.0007451000985032246 -0.003505587848845223 -0.000741474493807229 
0.007974630462960555 -0.0009131415506360082 -0.001237219433604508 -0.001788952166114485 -0.004297904053750594 -0.002276264788801105 -0.002610359396926511 
0.001062874156955782 -0.0005585301414487321 -0.0001144239340993185 -0.001397632922853462 -0.0002986721939621043 -0.001164768072903338 -0.0003417306759516147 
-0.3100612414096989 -0.1081797240994107 -0.3244355841336027 0.767334103247136 0.6875691665625129 -0.1427368100311149 -0.1466191412440073 
-0.5092235494063937 -0.0005308914100462272 -0.01295606611882354 -0.0005344761393819118 0.5862249828770635 -0.0001780638852803407 -0.05015311173617553 
-0.05390143612827784 -0.06876562515559441 -0.1144773521101282 -0.01278007686133248 0.5023924358803888 -0.006868961798951757 -0.07147657494684534 
-0.1076997269197387 -0.0101543501639049 0.3169230808090646 -0.009560105733960465 -0.1032349082437819 -0.002257213067653179 -0.02770283666445536 
0.1943834777365755 -0.0001842966166155717 -0.005482373230837922 -0.0002130158366547473 -0.1153012246386109 -1.713392146867408e-05 -0.01618237005929967 
-0.1501607651244667 0.2148268815216077 -0.007800047273551432 -0.04194880770268182 -0.02791431670904158 -0.02305891253945541 -0.005993048869246235 
0.3284491671728428 -0.0453259581602685 -0.02334130809210415 -0.04481359350170936 -0.04361336249534518 -0.1192788263189715 -0.02876057066968893 
0.1290571911256879 -0.001960943512097872 -0.03160797544834862 -0.01559195164846791 -0.02255450762051552 -0.002768994604926992 -0.02943140209797905 
0.07017671886494965 0.1017393359524371 -0.005065089340425734 -0.07033748358937657 -0.005391763293245961 -0.1375044070299143 -0.0049914419311405 
0.006478468936718502 -0.0002860314277999853 -0.0003670370747011002 -0.006751365883266365 -0.001135979116928166 -0.002415216867826258 -0.001510477376824003 
0.01205421825734429 -0.00368610981248304 -0.002964049847063745 -0.002974339019840001 -0.004723493952155517 -0.000511882603323101 -0.002033414988628536 
0.001063778467479325 -0.0006137256870333833 -0.0002511241323046984 -0.001901044093222121 -0.002648494620198273 -0.000948575071171774 -0.0007500245307593251 
0.01088315864016663 -0.009623309481458397 -0.009295452068764731 -0.01420490338714209 -0.0340737494934364 -0.02328595890846959 -0.01501410939402112 
0.01152342713488494 -0.006961425955561018 -0.01333866969098554 -0.01017398052134724 -0.01274919163152171 -0.01037220674764344 -0.01647185461214826 
0.03993267443294689 -0.01303620137130329 -0.008943880579889107 -0.01233085388111842 -0.038388741515715 -0.008641020776101458 -0.01092644057634038 
0.008095229806172896 -0.01040613158553623 -0.006344034770966183 -0.009782213402234601 -0.007581075765569016 -0.008372964231633806 -0.008883570747254016 
0.006650382706417325 -0.005881329038445495 -0.004005227123251886 -0.004943146511696816 -0.007436593732731867 -0.005183447501637335 -0.005724145851664557 
0.01794052914150513 -0.01718067319520468 -0.0260699188249209 -0.009041762406044297 -0.02170576426850877 -0.007412944596738233 -0.01527068841295521 
0.007457781126796337 -0.001245869606883238 -0.0003417686970445069 -0.002241472390031262 -0.004875254723393084 -0.00466208496148974 -0.001454777898674652 
0.004845484629262071 -0.0005316677267471747 -0.0003966797654539126 -0.002182864452102191 -0.004486072814571044 -0.003566525931220563 -0.00277465029148871 
