solver_type L2R_LR
nr_class 7
label 0 1 2 5 6 3 4
nr_feature 19890
bias -1
w
0.3253862628677108 -0.9558544964164514 0.9621741085385361 -0.4847879274025519 -0.3503979918577843 -0.09926759811833993 -1.092128519642286 
-2.405239091404471 -0.01848977415330315 0.190714104246936 1.622219121098541 0.8943749529565442 1.258043934480377 0.3716255088531702 
-2.72302910275099 -2.763309406590068 -1.646741808428892 -1.020843539429695 -0.1562159250043592 3.497112154235358 0.1802322218411043 
0 0 0 0 0 0 0 
0 0 0 0 0 0 0 
0 0 0 0 0 0 0 
0 0 0 0 0 0 0 
0 0 0 0 0 0 0 
0 0 0 0 0 0 0 
0 0 0 0 0 0 0 
0 0 0 0 0 0 0 
0 0 0 0 0 0 0 
0 0 0 0 0 0 0 
0 0 0 0 0 0 0 
0 0 0 0 0 0 0 
0 0 0 0 0 0 0 
0 0 0 0 0 0 0 
0 0 0 0 0 0 0 
0 0 0 0 0 0 0 
0 0 0 0 0 0 0 
0 0 0 0 0 0 0 
-0.3899363418602307 -0.003014617179057934 -0.1402999059691681 -0.005996474813395988 0.647433827388063 -0.008367226895708426 -0.339369300401291 
-0.02203982637201838 -0.1509116172223994 -0.03945413881553706 -0.09898299412202798 0.2296518307871133 -0.1688528294265917 -0.1157637168232628 
-0.1736956777616509 -0.2765917533587742 -0.03878022375056164 -0.002934931038140501 0.7745147691539868 -0.5757792308959968 -0.04333596924750329 
0.004222626142465995 -0.002196677539702802 -0.00103430285798442 -0.001469869332923138 -0.001036367204383428 -0.0009591538302030465 -0.004034227643126057 
0.0003576237872468065 -0.0004484970856776406 -7.832364169937616e-05 -0.0006753459087757281 -0.000332997732286195 -0.0006808422886615318 -0.000349994028711667 
0.0006238453778306516 -0.000665639019547107 -0.0007611414224278799 -0.002846381933964031 -0.001031680740583629 -0.002555759622423416 -0.001088750856835015 
0.003212810816601777 -0.001525051546980602 -0.0004696484814198189 -0.001056912084073369 -0.001316930495501754 -0.00597327587488688 -0.0008077790679027858 
0.003389103823473187 -0.0003012488553535295 -0.001020735687568776 -0.001453687411918367 -0.0006195778971007577 -0.001730095696089874 -0.006262048106012795 
0.0008032479017422099 -0.0003793630873026721 -0.001249129798602658 -0.0004982602976820199 -0.002036238545606948 -0.001628968384045346 -0.002488921451446829 
0.05139744753724192 -0.004309881957215117 -0.0101988302421236 -0.0290561138928481 -0.02175423016607672 -0.007835437619018172 -0.01100802535449044 
0.06259459334543693 -0.004726408850863839 -0.002395219379271176 -0.002386699451747216 -0.05342268252827114 -0.001577576132885587 -0.008861489758477243 
0.01666671947724289 -0.002163666948412584 -0.005213813384907343 -0.02443752428989185 -0.01244120730807081 -0.01487600738813304 -0.01419405288373458 
0.09731704951739883 -0.03531508157894261 -0.02118143636560267 -0.006141752779790906 -0.005525972651261425 -0.05046591309700987 -0.01026661674461078 
0.001222364088511986 -4.851592517452447e-05 -0.001220187729313352 -5.631417131408831e-05 -0.001520198920549638 -5.800326983105917e-05 -0.003197394151629373 
0.000529346283895741 -0.001585848970890311 -0.0003540392437204592 -0.0009432262707121729 -0.001991179361375572 -0.0004122080091423282 -0.0009302172334735624 
-0.2192458971614379 -0.01756150112783209 0.2881287353047704 -0.002700117479102022 -0.03838814368266011 -0.002341714836637315 -0.04402737159882973 
0.00438901399080201 -0.0002210730123706183 -0.01762840470454858 -0.0002524777558582818 -0.007923061240536922 -6.973773113120827e-05 -0.009248549445607341 
-0.1104928269814573 0.3450033032694307 -0.006218048692966554 -0.06573734075002653 -0.05545341605008457 -0.09161389267788923 -0.01048610570692023 
0.02061259727950381 -0.004838473574566652 -0.01052767611912329 -0.006332643686655721 -0.008656993612510966 -0.002466355979797809 -0.01355361082446494 
0.002547190153081874 -0.005984157256011672 -0.0006805832455349785 -0.002045454694262299 -0.00179891508179816 -0.0009414211559320486 -0.0006288698818957929 
0.02888486709675318 -0.01190872827269683 -0.006150588245520118 -0.002824699623789752 -0.02038912764000588 -0.0007991083264725368 -0.02127006148345683 
0.002205992206840674 -0.002255688864293261 -0.001085967509450055 -0.00132579186373281 -0.00273610925857639 -0.0008435776286663647 -0.002271704761166039 
0.001206152338210515 -0.001169891107130793 -0.001461800955503006 -0.002810743728325693 -0.001422452840959897 -0.003249415275174722 -0.001903456918951207 
0.008775818848196126 -0.0009276384609204619 -0.001246054015781536 -0.001825459677457528 -0.004477909936069746 -0.002305171176666782 -0.002668585950628754 
0.007807697022787569 -0.003235982658757709 -0.0008789747758495195 -0.004963124738864982 -0.0116487828335398 -0.006087833302821191 -0.002813146470613546 
0.002460131855352283 -0.007206338789742339 -0.004862180695382646 -0.004697285821027563 -0.009566107845835684 -0.004726619187352968 -0.004473010975051718 
0.008909059330127424 -0.0006008982526423463 -0.0005659533016809068 -0.003231900793228172 -0.01204967822468568 -0.004682244239388304 -0.00194122632601641 
0.003987726953133248 -0.0006363006096606059 -0.001633040736693326 -0.006153203761587283 -0.002405898402083653 -0.003734818194018278 -0.002140049083909901 
0.004923796002290682 -0.009599950587772245 -0.00575864155495698 -0.002442001345167181 -0.004658843666701809 -0.0008992628634953665 -0.001977516741539564 
0.01618546369970385 -0.001315204333262141 -0.0001551311658459497 -0.009464519553600857 -0.0003192966810605944 -0.005462090180905577 -0.0006675666456115454 
0.003194204191348001 -0.001160749918574658 -0.0009170530299827486 -0.001703069699694388 -0.001695657916780768 -0.0008601652191836918 -0.001718332995828739 
0.002264033742619014 -0.0004199178828743075 -9.21750672519833e-05 -0.0007401125625211982 -0.005697305690397583 -0.002217056647440509 -0.002814317050543846 
0.00468161088868844 -0.0003011311694184738 -0.0004510701320786183 -0.001922469604883346 -0.003656030757531416 -0.001490503371612641 -0.001842256358114171 
0.0004137121672414686 -0.000445478847445362 -0.003887723674635637 -0.001134252189356131 -0.0004793034479271308 -0.001025045130752564 -0.0008140157137199234 
0 0 0 0 0 0 0 
0.003359561199691737 -0.0001116193162068298 -0.01608005745667132 -0.00010321214400043 -0.00717633769593133 -6.251077336353479e-05 -0.02001945478672899 
1.129817972950374 -0.07139494248313001 -0.2653268406411148 -0.2798283957112156 -0.09678792145117973 -0.4038829117531544 -0.1088542801774448 
0.0208721490863144 -0.0006320743722882992 -0.04640444090008603 -0.002736300093655127 -0.02965878639146617 -0.001915977645977726 -0.02868873907130682 
0.6468582412090192 -0.07092991459861626 -0.1117392499636735 -0.0152597210176879 -0.1381817907962724 -0.005876605499230777 -0.07151061524652426 
0.02364640292289344 -0.004587018525719767 -0.004842908475097114 -0.009434939702553885 -0.03006822955285153 -0.0288328524147549 -0.01952992503765498 
0.004719939210459729 -0.006177824020378108 -0.005128658903986203 -0.005701145912975682 -0.003435149041825009 -0.006913669594719824 -0.003865886415847406 
0.02482082877516522 -0.007334242357892626 -0.002543144398797261 -0.01539675231474974 -0.02285332088301046 -0.01618767415722668 -0.004877249822748126 
0.001229800167510413 -0.0004102186084555235 -0.001077418994664969 -0.0003457166604592886 -0.0006186276410827222 -0.0003486726923090204 -0.0004469082898039057 
0.0001763949341117819 -0.0003680608643082165 -0.0005858618264649819 -0.000611837850124913 -0.001104245342995645 -0.0006353242547844257 -0.0008480685339061505 
0.00571319080724362 -6.585124307741718e-05 -7.590637144676301e-05 -0.006310155648197118 -0.0004095481519825167 -0.001637710636447095 -0.0003827407260445359 
-0.3704302610424906 0.5072141146196133 0.2369526795438264 0.1760464892875668 0.6960573131869767 -0.654101496620406 0.1307753060191632 
0.1051169469295321 -0.09143895821871652 -0.6042630710990267 -0.03406412872013845 -0.06209548168635928 -0.01769400154201576 0.6079803999256611 
-0.2809305197086025 -0.4283459983714495 -0.04257645239266176 0.3028684407505443 0.09474748072176688 0.2110412559489126 -0.09430046045261614 
0.004713083611736286 -0.0002231189095964366 -0.0002380825909357034 -0.0002606165873185074 -0.0004547297148206163 -0.03075671075324012 -0.000391742805623282 
0.003389103823473187 -0.0003012488553535295 -0.001020735687568776 -0.001453687411918367 -0.0006195778971007577 -0.001730095696089874 -0.006262048106012795 
0.0007951775244212478 -1.457249220164322e-05 -0.007366182575536231 -2.766838318232362e-05 -0.003502020441436367 -2.80951668142806e-05 -0.009646608933207325 
0.09731704951739883 -0.03531508157894261 -0.02118143636560267 -0.006141752779790906 -0.005525972651261425 -0.05046591309700987 -0.01026661674461078 
0.001222364088511986 -4.851592517452447e-05 -0.001220187729313352 -5.631417131408831e-05 -0.001520198920549638 -5.800326983105917e-05 -0.003197394151629373 
0.000529346283895741 -0.001585848970890311 -0.0003540392437204592 -0.0009432262707121729 -0.001991179361375572 -0.0004122080091423282 -0.0009302172334735624 
-0.2094289453562151 0.1218176096167199 0.6438583266965315 -0.1967277935886627 -0.2344998033813011 -0.143939911831095 -0.1286583418919944 
-0.6261457264607024 -0.0577088420057862 1.046086077047686 -0.01654752278278625 -0.2237598424273916 -0.01927025696985583 -0.2090714312868099 
0.02531967210646191 0.1085308057308457 -0.005197891725843909 -0.1177947460010996 -0.02969785644402572 -0.09088400809998758 -0.007797426188111111 
0.004109507449675494 -8.417429078241563e-05 -9.901676374003416e-05 -0.008162087037090258 -0.0005312672018907675 -0.004147876654673336 -0.0003666984048806034 
0.005618030924526711 -0.0003694267348832466 -0.0002924270063163442 -0.001717145270109464 -0.003689166229471724 -0.001353723678648405 -0.002872412823927681 
0.00110900115961569 -0.0003539572502408472 -0.0004812591709727833 -0.0009252243912625766 -0.0004770522772264449 -0.0005962084184203036 -0.0003415165923829804 
0.01163713744993253 -0.01059813954026483 -0.004903414764534136 -0.01115833638498277 -0.004330620132573693 -0.00936043743186255 -0.005592933339060593 
0.01340894317139141 -0.01523767874987982 -0.002007110561342789 -0.01173269568345959 -0.01046614380807417 -0.01485502859333719 -0.004697875242421491 
0.006371504367426345 -0.01344526129326976 -0.003969946271169015 -0.01017525169499766 -0.007574537346365898 -0.008958223464992105 -0.006267863513933809 
0.02420060450970126 -0.001718243155077773 -0.007516804208626662 -0.01285707594528396 -0.01005518430290733 -0.001656315818556477 -0.004816435544269936 
0.00544087898660801 -0.0001978849691690267 -0.0002798903663252193 -0.0001432329761520396 -0.004949808539981072 -6.108108563939136e-05 -0.0004065846852438045 
0.006026365855588371 -0.001244430954042685 -0.001159510292421338 -0.01430011597221161 -0.002673341454540409 -0.01938850228511272 -0.002836960796787593 
0.6382683594050507 -0.1416469007883702 -0.005839850636176557 -0.04132038704148711 -0.005353821690284677 -0.3202681728157182 -0.009584503736119049 
0.003102465567214918 -5.313546857128683e-05 -0.001122062112894011 -8.984272268837343e-05 -0.002919028659520729 -3.137887314682133e-05 -0.003997040048433201 
0.00960482348906686 -0.0002974088555992757 -0.001140538322399259 -0.0002093335030446306 -0.006280532581237328 -3.309865782475155e-05 -0.003165423116995415 
-0.2563296833798892 0.6053349231366488 -0.0150869195890712 -0.2253555114369003 -0.0870471887048736 -0.09818963237571336 -0.03034929011651011 
-0.1636233177859073 -0.03732018237455927 0.685247316924893 -0.009534126133561508 -0.194857969427612 -0.0142501786806549 -0.2791208262708136 
0.07287628662545508 -0.01132113772536839 -0.005636442343032651 -0.00528965198527982 -0.03922896439441839 -0.0005919251655402684 -0.01615101638127426 
-0.8682278928287045 -0.1011022468747153 2.000836759261718 -0.02590500718867323 -0.3476776231777229 -0.01264824833294708 -0.1128660564662679 
-0.818117303809879 -0.5155045022787033 2.124884216042101 -0.0864890704986208 -0.3477973995412312 -0.111707310963694 -0.2226943154386686 
-0.5122526249233796 1.492808760529997 -0.2628696116972543 -0.2001815070302941 -0.3566738388605774 -0.3164320043039131 -0.204065572783716 
0.004458879931521581 -0.002105080199487194 -0.002889299757730126 -0.001277341856168054 -0.001823360496590753 -0.003527208917371779 -0.004046014032744369 
0.004543607442746738 -0.0005750236678817723 -0.0009330677905862934 -0.0008511892600866116 -0.000519771761919865 -0.001388099150580199 -0.003789051637390522 
0.003638623720137803 -0.0007359718452077081 -0.0006668703052215794 -0.004042515840933383 -0.01370478427740406 -0.005363349896149692 -0.003043951546733999 
0.008589971519701397 -0.0002549416594908415 -0.001128052962557585 -0.00401528530607529 -0.006093662491753755 -0.0009082086119644225 -0.0009720419126829285 
0.01220602954835551 -0.0002775637992676407 -0.0004517664709334287 -0.0004033988135364974 -0.01048192681916987 -0.0002319246492286632 -0.001538888222010366 
0.003118503681564642 -0.0002190579885684324 -0.0002481900538193471 -0.004811232610308939 -0.0007675864719658138 -0.003556108586759621 -0.0007532144509488929 
-0.4112630496462987 0.2807302130107681 0.3808627909418094 0.5816330016264089 -0.1286851312814757 -0.3124644712383947 -0.03971167735960068 
0.04971346020572937 -0.005403074422533275 -0.1501959372574006 -0.002720007782952172 0.2192046381783308 -0.004160825990746877 -0.05489096699261149 
-0.05282259621883459 0.450722344778419 -0.09464628470348571 -0.009361099590373725 -0.1098050666523808 -0.003520498323468709 -0.06157958012295609 
0.1548743522602822 -0.8723482507415258 -0.1347017306140388 0.7769236145096774 -0.2048840243766387 0.0730493087397389 0.5656294315587805 
0.2887193502763636 -0.1370341421041013 -0.60848693081713 -0.03470227666965552 0.07474205747700724 -0.01768009286466383 0.6701817917278429 
0.02909999442248373 -0.08771522367611066 -0.1718171584389311 -0.04576714435610465 -0.1374424534486271 -0.01638578397556894 0.6558659405479557 
0.02151305159316015 -0.01698150336615215 -0.001340868527032953 -0.009041304037167306 -0.009312304758027292 -0.002969734810993923 -0.003874280492348133 
-0.1419287013554474 0.4431476126382638 -0.006288471570254197 -0.07936021804821104 -0.05764719135504946 -0.1193482087400923 -0.01064453881202491 
0.01225296894572891 -0.01257714989762291 -0.0006567552514341682 -0.004255963304643355 -0.001485364656875963 -0.001038633639482287 -0.001982059204737644 
0.004928979675323521 -0.00453921608436978 -0.005133005824358772 -0.01045449485936816 -0.005519655173466987 -0.00683744734907104 -0.009982974119504492 
0.007084323113248196 -0.01354472333275456 -0.00345819862361636 -0.007644665072177337 -0.008608608873583355 -0.003889068086241806 -0.004346408722756785 
0.009138264360427467 -0.01056226178816363 -0.002039765445697167 -0.0115194587352859 -0.01141096283266799 -0.01008434358159402 -0.005523802864721063 
0.04756459886492694 -0.0008356625144140024 -0.04922022339400678 -0.0008628459416801254 -0.05204658071375513 -0.0001922075733080153 -0.05371963690537755 
0.002502011413735265 -0.004184458891482684 -0.004375280214483571 -0.005757022743591507 -0.004800134443154078 -0.005936117537949217 -0.003279039825807002 
0.294306081932498 -0.1110908368431813 -0.03681343248321615 -0.1216771448373069 0.2970307247461763 -0.1458340579173897 -0.03976348346089332 
0.004660612361646083 -0.0006090850592991807 -0.0004502640237899497 -0.01351030227071242 -0.0005569671317070117 -0.005641531390239571 -0.0001482136758476772 
0.002857216980535034 -0.002953428687539549 -0.002295533382472631 -0.002136172262893994 -0.001338606855774118 -0.004162653981081298 -0.002798005592822288 
0.006916746062331904 -0.004314571781035617 -0.006579606462716456 -0.003721852846104936 -0.004620687236234046 -0.00103724506560338 -0.005035896095249882 
0.00117312927249424 -0.0007856759898003688 -0.00151305252714464 -0.0008233384799983509 -0.0031510340825535 -0.0002568853232292452 -0.001242750144495153 
0.00992499295963797 -0.02541750771976723 -0.0003841192557925774 -0.008246563495281675 -0.007850823174697879 -0.001959863091554365 -0.001391502534446552 
0.001968370261404356 -0.0004623940565130442 -0.0006544372701489477 -0.001832238787436604 -0.001524651663062608 -0.000612206914611389 -0.003632031177657012 
0.005315702230186375 -0.0001606640177544716 -0.02189853363680457 -9.847865567130088e-05 -0.005376980055279232 -6.750756296304836e-05 -0.02442240868517167 
0.0003926557254283722 -0.0006606835552097001 -0.0002079932296347174 -0.0004087727285274708 -0.0002369928958266177 -0.0007098031519538892 -0.0002201517580988748 
-0.175247781670231 -0.03868951107874062 -0.005873736232337124 -0.04059395029211904 -0.02084088124664638 0.2682634929862092 -0.01054426395099144 
0.03471993867504002 -0.02720243621734496 -0.06021357749355538 -0.02348223479035495 -0.03525297726488447 -0.02427714390982278 -0.02343334420881624 
0.2481459417600252 -0.1165444370399223 -0.02143739082480237 -0.03126362418077215 -0.04239912651506776 -0.1371072362826266 -0.02928731431424849 
-0.2332583854723374 0.5361932918480506 -0.0386693769328614 -0.1005182058484905 -0.01675362172164282 -0.2883998403599782 -0.01211203638745403 
0.08628857885471755 -0.1211947520905489 -0.1601136339466441 -0.04530996756958518 -0.07842400560404227 -0.03260812910078881 -0.100042065276627 
-0.3852859917873755 0.4069999749574552 -0.08747668518886798 -0.2956973561267783 -0.1204583604546397 -0.2162657913471734 -0.07925833830976221 
-0.3252812643375328 0.0892750537261172 0.489930015591706 -0.1478310953719718 -0.313405241078384 -0.09426038367306408 -0.1857357998071733 
0.0004137121672414686 -0.000445478847445362 -0.003887723674635637 -0.001134252189356131 -0.0004793034479271308 -0.001025045130752564 -0.0008140157137199234 
0 0 0 0 0 0 0 
0.003359561199691737 -0.0001116193162068298 -0.01608005745667132 -0.00010321214400043 -0.00717633769593133 -6.251077336353479e-05 -0.02001945478672899 
0.01720911984788219 -0.0005239483287307338 -9.773915923944851e-05 -0.01941301652775698 -0.001543639141066512 -0.004931772565475472 -0.0002833083707872085 
-0.1786370914746442 -0.1242033668390539 -0.004339139345820489 0.5689624695978011 -0.1715314493475011 -0.09532368261578207 -0.008389926092260785 
0.001414038231625337 -0.0001108315063198719 -0.0001677242646521854 -0.0008395272768400595 -0.004985224450115448 -0.0004892019728418939 -0.0003734960146980764 
0.01114932120567812 -0.007123133541593692 -0.008710438346483457 -0.0061436900964156 -0.02629787037097803 -0.01568606170066823 -0.01754237213708051 
0.002545929672513273 -0.004551166749510255 -0.002151553981716583 -0.004271289808390195 -0.006787592905964703 -0.00547578894337473 -0.004149263722518596 
0.01860356198424461 -0.01379794971098327 -0.01610765196881468 -0.0196666904264002 -0.01687488459123235 -0.01158014674050649 -0.01500919845987329 
0.0002206724152357499 -0.000704094229781747 -0.000707499295538428 -0.0007491485900571668 -0.001600598939908601 -0.0006770491153575992 -0.002168145948539786 
0.005465297253440984 -0.002827584071903399 -0.001406302209775299 -0.002494339498710633 -0.001995882738600662 -0.004051099679565157 -0.004741325074125556 
0.0003139409687438202 -0.0009681965738195781 -0.001351072254704048 -0.0009813299295243906 -0.001597557028531103 -0.001042140207174595 -0.002170166628964802 
0.05459099299348469 -0.003758768854735187 -0.005679108119418299 -0.02649787856830108 -0.02107818450294037 -0.01588141594533934 -0.01115306111325884 
0.02016739897862153 -0.02535624929057481 -0.005259916244071422 -0.01488263201447574 -0.01734345846312552 -0.009101753318098158 -0.01031021411985707 
0.03784450732599601 -0.006860947593354365 -0.001199802349286904 -0.01156654395376624 -0.02830877522655227 -0.009634191694863911 -0.00561772562651833 
0.003714363850152761 -0.001460391430684733 -0.0002852435182425975 -0.001460273454634969 -0.00119918650113969 -0.0002340992472046856 -0.0015180591451022 
0.003210551764866556 -0.001487413910710947 -0.0008505718815233667 -0.001211172611577927 -0.0008991116193359901 -0.0002251536293042308 -0.001165468182712032 
0.00571319080724362 -6.585124307741718e-05 -7.590637144676301e-05 -0.006310155648197118 -0.0004095481519825167 -0.001637710636447095 -0.0003827407260445359 
-0.2808466964471304 -0.1763052711583141 -0.0176113075239173 -0.04638568799650867 -0.03863284120673485 0.6073967825437369 -0.0140249861429948 
0.01311354784395294 -0.0009717232773878282 -0.0511456361635232 -0.0005211293399904031 -0.01756931869221321 -0.000203982783831168 -0.02943008098978579 
0.05321902886611583 -0.0005206255915086996 -0.004145605146515748 -0.000293980589384262 -0.05393309089941965 -5.104250595481491e-05 -0.01070517008475215 
0.0212940652204901 -0.003649201969865029 -0.001296447475555473 -0.003393912042529051 -0.007870480549519675 -0.00254151267701135 -0.004902069369645411 
0.003802117710295652 -0.007758337246063689 -0.002096203006724602 -0.003740309058564133 -0.003854081155790731 -0.002044307497284018 -0.002598534243777151 
0.003841389388679408 -0.001046608586469789 -0.000190344478786887 -0.0007705836438989043 -0.004391770305114284 -0.0004440385031526575 -0.0009423291303760112 
0.00318292686231475 -0.0003690493485931468 -0.000947395603840098 -0.0008979720073476554 -0.002826574787905625 -0.004348668126843057 -0.002889913721949786 
0.004543607442746738 -0.0005750236678817723 -0.0009330677905862934 -0.0008511892600866116 -0.000519771761919865 -0.001388099150580199 -0.003789051637390522 
0.006875662267358427 -0.0001317878998870464 -0.0001597216196524891 -0.0007079876481459785 -0.0004280746026599591 -0.02449749059803542 -0.000507864080305092 
-1.596836545616355 -1.028912180220083 -0.4278232191884216 -0.3838391733896103 1.211856896816349 2.602074815446424 -0.2183633349192023 
-0.04837550627655196 -0.03809544947871058 -0.5390099104077219 -0.01141580074229076 0.7719448668870915 -0.01734597760966431 -0.33620944984423 
-0.6905774826342022 -0.2143074130666552 -0.006542662445423684 1.489893569488808 -0.1821340293643453 -0.1739194750685533 -0.01806974247633718 
0.006819095871793732 -0.0009548100891196705 -0.001735223001049812 -0.00335405157289714 -0.006120604927553454 -0.004473320815881628 -0.005016047706380251 
0.00386398335331334 -0.007336837182096798 -0.006408499229600239 -0.003887834343016516 -0.005790626675535309 -0.0008273510708339886 -0.005877440294881399 
0.003085661971044857 -0.0002185357692635272 -0.0002480555043264978 -0.004762773296250689 -0.0007661136626222316 -0.003532613058850932 -0.0007516168073673675 
0.01706679904766854 -0.008180370487183793 -0.002391016545880383 -0.01224697383513774 -0.01381198882811234 -0.006952584437556236 -0.009779108383938934 
0.02208110192328243 -0.001192545474542996 -0.002112679215061178 -0.004119846290338834 -0.04083912561769004 -0.009530019451024642 -0.005135925729488008 
0.00942087046910159 -0.004832415092915435 -0.01080266465606869 -0.00895372534972916 -0.02162725973872994 -0.00564065702824602 -0.01764069589459185 
0.003198394294923722 -0.000986921659971655 -0.001666516888665979 -0.002977584224279169 -0.002804608785578924 -0.003246859874600442 -0.003119355422070556 
0.002173989806126659 -0.0003499880517022278 -0.000769365735681044 -0.003469268842510258 -0.003533717999554323 -0.001031426220880491 -0.0006154205350668093 
0.0031006674609153 -0.001243337472625607 -0.0001070721556187182 -0.002751895588186845 -0.001091039464698065 -0.004116832874855667 -0.0005964537530404367 
0.008283710609789524 -0.0002067044858749374 -0.0005502435215653224 -0.005049589599498321 -0.001069786037041279 -0.002213449666288075 -0.001670386974252432 
0.003689752662870772 -0.001037575821015769 -0.0001885440569888687 -0.0007551915389358499 -0.004235608878635441 -0.000438502105313047 -0.0009137504917532748 
0.001230635679648169 -0.0006712605843678161 -7.278314479678323e-05 -0.001263109448149748 -0.0002981024279020252 -0.001047752484039486 -0.0005385919354259166 
-0.05282259621883459 0.450722344778419 -0.09464628470348571 -0.009361099590373725 -0.1098050666523808 -0.003520498323468709 -0.06157958012295609 
-0.09630008447130077 -0.01392686459927169 0.4044697306935011 -0.01710678995427173 -0.1134690938057696 -0.001684273768492143 -0.03499140467151115 
0.3380893146486763 -0.2950508850290994 -0.009156146252026074 -0.03433059773092884 -0.006815029804987121 -0.02241596207531434 -0.001337750486088984 
0.01444280698058432 -9.613374967823291e-05 -0.0002304315095614471 -0.009376004336743352 -0.0007723598037682909 -0.002993256354903464 -0.0008476057901319337 
0.002997022473370874 -0.0006912879043629402 -0.0003406384516133073 -0.001007582836263494 -0.003300380249462566 -0.0005814649283706439 -0.0009595211396004489 
0.001019241853019534 -0.001244786780778759 -0.0001650121528713909 -0.000534116885459091 -0.0002539628867325508 -7.901041896590897e-05 -0.0003445166357446419 
0.001832755460489927 -0.002732006635451857 -0.0009940371799941404 -0.001799961683019704 -0.0009978369847745451 -0.0006744746038236537 -0.0007991671954957636 
0.001835144629474771 -0.003750169932249776 -0.0006485832307626772 -0.002610308797995791 -0.0007499475773580159 -0.003111124459565185 -0.00074203519966051 
0.02659937793020747 -0.001640862566010974 -0.0006740452159711367 -0.001758914796762765 -0.01326135544263638 -0.001137282856195178 -0.001078591484762773 
-0.09222473103711801 -0.01098946251848088 0.3676267441176279 -0.00250122922809285 -0.09617636954000811 -0.00943483380572202 -0.1248169917963906 
0.03698582769488169 -6.922285123485089e-05 -0.01293423283271787 -0.0001152502921652998 -0.004551315198395579 -6.775428673692811e-05 -0.04054933584867477 
-0.04679596861835203 -0.04547766956739516 0.4023844758987917 -0.009309328409974128 -0.09933160042290219 -0.003458349200875132 -0.05374444605223051 
1.01033859105425 -0.1492598539793631 -0.002713111415441444 -0.2987121314689495 -0.03738978283358862 -0.2431012849425256 -0.01436961866254011 
-1.753721836478942 2.764782570322415 -0.1212990777452028 -0.5139216811516519 -0.5352293077551665 -1.560767123631793 -0.1337997408235515 
0 0 0 0 0 0 0 
-0.2458256471173274 -0.1578873201021953 0.9992722383870888 -0.02564148702481328 -0.3252130500356976 -0.01345906168470174 -0.09959310241508791 
-0.275160120260442 -0.2844536355817952 0.9842958828191356 -0.01753932217126295 -0.301038146082305 -0.02429652096072706 -0.4215132733276601 
-0.4226272171899146 0.7774344705410293 -0.01444561168042608 -0.2882723900947885 -0.04562310090777693 -0.4118304444084748 -0.019125582806671 
0.003459750476157555 -0.002440889940120528 -0.0008391406295764399 -0.004197475589158601 -0.002698483253305077 -0.003184482114919066 -0.001015680516967525 
0.002494774437889652 -0.00566092782594973 -0.001267031261800828 -0.01175375002410664 -0.002747621499737952 -0.0005422791750552935 -0.001868414134925002 
0.003496615329543648 -0.00196225699045838 -0.0007904720345315415 -0.0006499008642337524 -0.004913732511265197 -0.0004282539023073481 -0.0006881995032870651 
0.002291229152573798 -0.003740379774778097 -0.004039415508910306 -0.003151427837574151 -0.00874824032703431 -0.00422210886645323 -0.003854158262509409 
0.0005618633720449719 -0.0007599356691612215 -0.00130193507828164 -0.001774562278850258 -0.004075806490444484 -0.001801724260796103 -0.003873701463195824 
0.004677258729421306 -0.0050669943313013 -0.003867700181094023 -0.005925764006675486 -0.007015664700289444 -0.004463469012408356 -0.004103477588365829 
0.009463715991697246 -0.001473051882330903 -0.002037132873441576 -0.01589452623455772 -0.00735542672540664 -0.005654344480059129 -0.007937716238125151 
0.0146739597357711 -0.006529973528586339 -0.003225802753707882 -0.005939412026829265 -0.007470159044906865 -0.001705526249015199 -0.009349803651575041 
0.00806208167257757 -0.005315765390747025 -0.0008715866917438474 -0.01108597204835933 -0.00239670026069698 -0.009055813156989547 -0.002600451668251482 
-0.1281334397467875 -0.05020002117890517 -0.02366773840765917 0.6222547156616899 -0.2691918398774583 -0.3469254735738429 -0.01156670696947197 
-0.1750035584093928 -0.005928178517356165 -0.03504512941446192 -0.003132684958839397 0.4590336778413234 -0.006041015907156153 -0.1706527091159943 
0.0924954211935935 -0.005038450494162231 -0.002274637651116458 -0.05897802308946279 -0.0135637350799197 -0.006441252634238375 -0.004683816500797577 
0.01147588197309776 -0.000224676643487977 -0.0003005265146651775 -0.003741581345584483 -0.000871937072945936 -0.01050506337196899 -0.001251916151443191 
0.009459098737410708 -0.003383447530027982 -0.002539625233644386 -0.002484043557793533 -0.003481945582844907 -0.001118801797519341 -0.003550724310424846 
0.001142235207555742 -0.001225122036740768 -0.001127837067156275 -0.001595179607097997 -0.001545809092238657 -0.001030583099269462 -0.002051300720310341 
0.008999536317368466 -0.009003881421205825 -0.001890808396446679 -0.007525391946677729 -0.003844152719484112 -0.01551087251787395 -0.005482194085638982 
0.005752367293758687 -0.00131582812072639 -0.00533068422211837 -0.01158176088327944 -0.005279867332308799 -0.002217365454180139 -0.003609177224074359 
0.006267589552321236 -0.001208115995500461 -0.01725106780363165 -0.00221053119914258 -0.01271573004365823 -0.007744923527283699 -0.02390464387015755 
0.01074873340492991 -0.0007318343765489861 -0.0005946053929258247 -0.003395431580106744 -0.006870995466006587 -0.002582662506690639 -0.005557421922545201 
0.005996541070067832 -0.00194104801648869 -0.00109598076971497 -0.001265341359149404 -0.002396973045784114 -0.0003749279449521428 -0.003333150215317645 
0.009801555123778742 -0.0002011414083007306 -0.0002050469261227622 -0.01641946777487094 -0.001050290381630262 -0.008925440969799728 -0.0007431985057990833 
0.5331541228188256 -0.323061500923733 -0.002476903317401055 -0.1052901411929462 -0.01663269240656461 -0.09557261177040115 -0.003261566725660288 
0.6673052998794765 -0.0172269071100166 -0.3217510190346022 -0.003256347456515485 -0.08153219635957781 -0.008094734565775284 -0.1453220167697312 
0.01273412718061679 -0.0002838252727956015 -0.004505033622761728 -0.0001424447831965352 -0.01935699161471423 -2.23630165344432e-05 -0.007274628093533541 
-0.1689202117197046 -0.05592952144471864 0.5173223878550803 -0.01403935037158391 -0.1284988265595284 -0.01311922829163457 -0.1989749467232438 
0.03379955889238297 -0.001104255876980487 -0.03321377525806298 -0.001092562863208028 -0.04290011441831856 -0.0004720148702219447 -0.035200177098949 
-0.1638633572366768 0.7558540933376916 -0.1155431120500546 -0.07340630622634746 -0.1309392727018103 -0.1200510050862635 -0.07321424542805019 
0.2406822913389081 -0.0002321828743361706 -0.06741830234918689 -0.001510481558467178 -0.05557170954759996 -0.0003599515929954946 -0.07555449517880905 
0.009058129241890504 -0.003538989720482991 -0.002407171522459841 -0.002261792213190793 -0.002196313988675429 -0.001630141399303803 -0.00458096016193746 
0.3862586536038993 -0.1029402521456059 -0.01865052222353579 -0.03473999952471757 -0.02045424581803676 -0.2329819348562717 -0.02314449042518376 
-0.1179219095910921 0.5260048218251729 -0.00249920123879347 -0.08189094378838853 -0.1372231462708815 -0.1309254441139109 -0.006866563822425857 
-0.04875170727751477 -0.09066834737328028 0.5352741845637359 -0.008021281304835395 -0.124904612941556 -0.00295672742036018 -0.07016769890182471 
0.04205171852189484 -0.002239649540801232 -0.0002509876073268544 -0.0006832421211757069 -0.02794149146788207 -0.0001779916279923208 -0.00115300531606119 
0.007878991151837406 -0.0001222735865836252 -0.002517615304844391 -6.25313839546488e-05 -0.01612004048735739 -3.970668647702356e-05 -0.02167564734229323 
0.0002379728951678166 -0.0002452787256112892 -0.0003916824921653104 -0.0004080104899505849 -0.0005456585411084938 -0.0004409648667095806 -0.0003640746967680912 
-0.2563661540611123 -0.07707434048224321 -0.006232697370446268 -0.05180949958056455 -0.02355244285814553 0.5137832174724927 -0.01104126185704309 
0.002865054312681518 -0.0002476884864650492 -0.0001345255291217922 -0.0003471275850195247 -0.0002978512812476874 -0.02226136123759307 -0.0001914823556659257 
0.0001446563842106548 -0.0001178507038123292 -0.0004628208207870918 -0.0004270760090584641 -0.000575511510032176 -0.0002397994082620267 -0.0004318137874617726 
0.0002757802641587771 -0.0001732022832267885 -0.0004356495450730971 -0.0001731694462420719 -0.0005856673077441687 -0.0002576505540244016 -0.0007425235824559145 
0.02991564809336804 -0.0008101560776470297 -0.0008704801247086991 -0.01265247659166266 -0.001020391178684093 -0.002381274296868779 -0.0004380807168208937 
0.001775645734239015 -0.003702488438085128 -0.001056770466691671 -0.003004121113768994 -0.001802957298683709 -0.00181318652975379 -0.001251109825138303 
0.006307325155159905 -0.002331913374848231 -0.003418204885826265 -0.004736693060691337 -0.00626304861412034 -0.001697977889996353 -0.006782649229651223 
0.003884333953357121 -0.005302021930312984 -0.002364549993616812 -0.004763012636270348 -0.001925396302358398 -0.002346392858558222 -0.003231679987316967 
0.001253533529869999 -0.002240352239511521 -0.002178706948631651 -0.000947463733808397 -0.002115719080626204 -0.001145504977665118 -0.001377617622678803 
0.003505675172566385 -0.001884011650105647 -0.0009456394815509168 -0.003999578595316686 -0.004890097202135563 -0.006016097261688223 -0.003769576031610014 
0.06860601127406032 -0.005698607847830462 -0.005458293582220408 -0.01663521656954495 -0.00772972867822663 -0.008735463987106789 -0.006961780667381365 
0.01836186814419899 -0.02380055403294654 -0.006038489251192544 -0.01230885253379553 -0.01397906252138687 -0.006887989903957141 -0.01469400724542261 
0.01615387965497246 -0.002648725875671862 -0.002385721770925402 -0.008601406812770385 -0.01712076889636638 -0.004541291188334176 -0.007737583867792452 
0.0009732534418485068 -0.001564878187864266 -0.001222036217807569 -0.001542107080151905 -0.002744821644253067 -0.004012322073599504 -0.001120803396821811 
0.001617990863690874 -0.001845534414018309 -0.001156784915852365 -0.0008472459650047034 -0.001726996275462175 -0.001081739630618615 -0.0009862969385962105 
0.007979127463428617 -0.01195105557074911 -0.004943301525990252 -0.004702947471799189 -0.009179139846438734 -0.002587036448737756 -0.007997645483103421 
0.006583906016782182 -0.001124800997985274 -0.003211599699844834 -0.008235796121228805 -0.003535848186315669 -0.004483521368341782 -0.001458035109176996 
0.0164173970187486 -0.0003670139529675106 -0.0003614798289757883 -0.001136671708820103 -0.02040315016400571 -0.002356393538767231 -0.005128541166194501 
0.00283333743238189 -0.001417917493580907 -0.0002255079993246804 -0.003213014946691613 -0.001819725488903967 -0.002689928875833889 -0.0006483957902085594 
0.09731704951739883 -0.03531508157894261 -0.02118143636560267 -0.006141752779790906 -0.005525972651261425 -0.05046591309700987 -0.01026661674461078 
0.001222364088511986 -4.851592517452447e-05 -0.001220187729313352 -5.631417131408831e-05 -0.001520198920549638 -5.800326983105917e-05 -0.003197394151629373 
0.000529346283895741 -0.001585848970890311 -0.0003540392437204592 -0.0009432262707121729 -0.001991179361375572 -0.0004122080091423282 -0.0009302172334735624 
0.005646119306638196 -0.006922551571802494 -0.001139038339103469 -0.005756036501254202 -0.002759912362606221 -0.004616581686815795 -0.002680919430424096 
0.1909465991508988 -0.2436866857620128 -0.008004497258781038 -0.047642739294036 -0.03048686899116124 -0.04333297021273299 -0.008847473617946373 
0.0016519975707014 -0.003712644560741971 -0.002106805741409315 -0.00265662924578159 -0.002150450994338813 -0.002125604775450326 -0.001949183239565987 
0.01409988378957439 -0.01450911409437327 -0.003590100335449472 -0.009076578285647863 -0.01184959987991341 -0.01238949348970867 -0.01093046702510113 
0.207755833274785 -0.03644830097607055 -0.08696414106679383 -0.02503694336134616 -0.01257124695405822 -0.1054223721480875 -0.01086779522409149 
0.004121959950670843 -0.009042308281620269 -0.003698609733121232 -0.006595293257053828 -0.004684659171291471 -0.009032027044196365 -0.00423921764495567 
0.004578264696912907 -9.806856286597504e-05 -0.0006940838408671341 -0.007725112007774005 -0.0009244085152770889 -0.0008037785197069808 -0.0002439424273208933 
0.01223473034875537 -0.0002784886487190609 -0.0004546053881190189 -0.0004054104939786248 -0.01051864550140027 -0.0002326806749657494 -0.001548871059383708 
0.001662676322202829 -0.0003423952314428363 -0.0001684901901229257 -0.0008481713358405487 -0.0006034009650025808 -0.002509850610321997 -0.0004886730080525798 
-0.1180960483139829 -0.05509208464514104 0.5677543588947124 -0.01170437941301328 -0.1770112230010958 -0.00635008755274298 -0.04932861087608048 
-0.2512696872156491 -0.02333935574165728 0.559613816010771 -0.005417376768599637 -0.1107233769359778 -0.01132589732992925 -0.1806125284124737 
-0.142528346611028 0.3112715525788178 -0.005822633128293357 -0.13900697550172 -0.02052165117817063 -0.1950957201467856 -0.006686171476093301 
0.02195229345428406 -0.01455042327865469 -0.008525757686582133 -0.05081798160965739 -0.01234938927978887 -0.02541057999375215 -0.01146395053691652 
0.03516462265142795 -0.02225846930173856 -0.02758324394085848 -0.01681063611215001 -0.04165229451019946 -0.01303672911018176 -0.02615992245082948 
0.02124202433029215 -0.007951698535246899 -0.01607788648086911 -0.02756918169338174 -0.0177217813030252 -0.01530199279036124 -0.02124398427891524 
0.021711127897209 -0.002472087538599229 -0.001646444480732337 -0.003937034514599322 -0.01064243945991409 -0.003483597286030219 -0.008709579656880023 
0.002970803694206544 -0.004607339868067314 -0.0008571094890428543 -0.002231558411791835 -0.003170147864783993 -0.001617240095278062 -0.001290495629319814 
0.01287923007393938 -0.0003868051383331505 -0.01383978989319925 -0.004562448036882842 -0.02379989572285797 -0.001548586384370585 -0.02231881144108711 
0.004298774924471142 -0.001179685442088927 -0.0003782025707505624 -0.0009012773696095036 -0.001689454502949222 -0.0002180208811422348 -0.001668980795952851 
0.00170108835091215 -0.00106907059794543 -0.0004124804443684182 -0.0005627251078212713 -0.000879696050168356 -0.0003857029363373952 -0.001330989419266841 
0.004298774924471142 -0.001179685442088927 -0.0003782025707505624 -0.0009012773696095036 -0.001689454502949222 -0.0002180208811422348 -0.001668980795952851 
-0.1231846644086294 0.3541925399442374 -0.00118809165579094 -0.09959284692021374 -0.01095634051824247 -0.1676270306452947 -0.004043015532173606 
-0.09749208833254855 -0.0172269071100166 0.3533067848189576 -0.003256347456515485 -0.08153219635957781 -0.008094734565775284 -0.1453220167697312 
0.009588408431818898 -0.0002974036793487588 -0.001137273121278696 -0.0002093223095400275 -0.006267089675379583 -3.309550524778796e-05 -0.003145802271424362 
0.00606048215317116 -0.0003700029120155928 -0.0003014852252445494 -0.001756463737703559 -0.003737067774911865 -0.001363937213997326 -0.002962015639073049 
0.009369826588667113 -0.005147251565419081 -0.0003838466144020881 -0.001894584712095702 -0.003529834935401829 -0.000205863403524502 -0.001308073383734562 
0.005421577335107075 -0.0001018875158977183 -0.0001031534994364145 -0.008839815104270985 -0.0005511617871258645 -0.004763617334801875 -0.0003804789291016653 
0.03864711930883723 -0.001291551357955345 -0.04017799542573256 -0.005902837420616328 -0.01395079569275637 -0.0407653302613293 -0.009570241499377068 
0.02543867935018101 -0.002552813106555459 -0.002612241147023925 -0.0118093769082454 -0.02578951359063554 -0.03047709420652867 -0.003006125795864201 
0.01337875850966021 -0.0005983257613643899 -0.02257005426365129 -0.0005911032928700494 -0.03452038914532198 -0.0001397081213016098 -0.025459456176728 
0 0 0 0 0 0 0 
0.7700512866135975 -0.7900714405037547 -2.099822671717878 -0.9289328302957111 -2.327828368398791 -0.5225169553506109 -1.799637549883217 
0 0 0 0 0 0 0 
0.00673161476502295 -0.004270121535304031 -0.004492173272771475 -0.008112289371291511 -0.01566381421703372 -0.005914049609721301 -0.006102756076272986 
0.01745070838906842 -0.006245861491359721 -0.001815112743734059 -0.005590070587006842 -0.02562195881114811 -0.003088601720392329 -0.00464951077760743 
0.01493049288090856 -0.01145348294976998 -0.0149876890278861 -0.02203705502304943 -0.01112959256131802 -0.01211082159894042 -0.01318745381691406 
0.004904418600115844 -0.006918841147608301 -0.001355617528443963 -0.003618104933513063 -0.001629060986509596 -0.005432276195947357 -0.002476404470121533 
0.00552069161746629 -0.002594662380099023 -0.003790935449059041 -0.003105000535302238 -0.002722186377949413 -0.003051885592728304 -0.005957982259821522 
0.005202417928966862 -0.0006480591928678279 -0.0006340061767296326 -0.003065261742640926 -0.003178900241402001 -0.002198640770591029 -0.00333843722697731 
0.004824618092284909 -0.00305402897774008 -0.0002198295501835295 -0.001892203725087857 -0.0005177157867953051 -0.007949774296350756 -0.001089872572947365 
0.0006831706119019878 -0.0003298110014310769 -0.0002562279743284646 -0.001717938143789809 -0.0007460083802551963 -0.00155718713109229 -0.001285075796122814 
0.001791711567405977 -2.358576855758363e-05 -0.002918918186896731 -5.141321102218102e-05 -0.002253258676450789 -4.786836540930674e-05 -0.006540375429390242 
0.004745569104531229 -0.004364468526592366 -0.001601598416279452 -0.00160319135626521 -0.001905950697296448 -0.0004779531686935323 -0.002021719772590964 
0.002692209986889265 -0.00786792387296586 -0.004854611103929902 -0.00174196666170816 -0.003447772499591671 -0.001131083008338273 -0.00234108778123426 
0.00557530993013747 -6.574170008438145e-05 -7.581970792633856e-05 -0.006245061359601399 -0.0004077315337415492 -0.00162672541070123 -0.0003808986110172184 
0.09158465778989963 -0.02650848591255718 -0.02054256163412062 -0.02763042663935556 -0.03716407539358678 -0.02980123785113049 -0.04887010692624631 
0.01175820810291758 -0.001316489246564151 -0.000930935074109331 -0.005495290925228958 -0.02558187613232929 -0.01228538305296089 -0.005318175281405675 
0.0166985515547254 -0.02306473669843379 -0.01598109416076262 -0.02546351181817517 -0.03241729469939913 -0.02593517336391523 -0.01892753413517056 
0.06322077228026618 -0.0338840782930794 -0.006871641886761094 -0.006029831139676759 -0.006984518435192996 -0.03037680594793364 -0.008305553271247821 
0.01765948444671645 -0.0006556071528750158 -0.009368518640409513 -0.0003930709667260481 -0.01951976972618441 -5.810044174170816e-05 -0.01070861564408359 
0.000529346283895741 -0.001585848970890311 -0.0003540392437204592 -0.0009432262707121729 -0.001991179361375572 -0.0004122080091423282 -0.0009302172334735624 
0.04761113947669993 -0.05462288508558271 -0.0732162207721276 -0.05444555053225023 -0.04620035546840617 -0.05765834931219783 -0.05979683853818751 
0.04079468786324635 -0.04999406229007904 -0.03028572561189438 -0.04740647345943828 -0.03547435662369042 -0.03105511692101138 -0.04440624271201868 
-0.1197644606211058 0.01507688977796248 0.2973494497117857 -0.09420919778503166 -0.2088300470293598 -0.1294143876483071 -0.1244600111271921 
0.0111662442602796 -0.001687737813177492 -0.0003546003777368727 -0.001687840456027968 -0.006624183394368145 -0.006102401746020817 -0.003526190290895343 
0.001491298919579097 -0.0006828487217172021 -0.0006537965161675959 -0.002379552232918358 -0.002761289094905458 -0.004045963462861105 -0.00150631807608523 
0.0033219939433009 -0.0008656274244897906 -0.0002950281527274679 -0.0008525088004004067 -0.004399367656532142 -0.0004946619330260806 -0.0005979017692856913 
0.006679869903773099 -9.525166788525899e-05 -0.0001027968088852245 -0.008566785579549287 -0.0005458642075692929 -0.006927978277585207 -0.0003776909991898919 
0.01091918631627664 -0.0004299648985746917 -0.001501004480942486 -0.001306540308425636 -0.003870865309825201 -0.00320209419476715 -0.00542095880995782 
0.002982970381739108 -0.00139446936698001 -0.0002813083262541975 -0.0008649382362783098 -0.0003731064737415504 -7.342738062277574e-05 -0.0004826163187258738 
-0.1923245132370946 0.3038524672125122 -0.007912514385506695 -0.04816651911265916 -0.02898956136530316 -0.02846068706871958 -0.006066209888658932 
-0.1805326629491394 -0.015938597597201 0.5457259500461322 -0.001808972625619431 -0.06582591640341638 -0.003064043030546968 -0.04935592560663309 
0.03159249471609392 -0.008609767954484043 -0.0001118648149715917 -0.008180707331296243 -0.001753299227599288 -0.0007213756740638274 -0.000662734599190881 
0.01048745239494151 -0.0003933782467090701 -0.0001154196688560134 -0.001606743734230437 -0.01056235840864912 -0.001345759438906229 -0.001879530894400581 
0.006026216540326586 -0.0008140114345463154 -0.001418343245724063 -0.002056457096455699 -0.002743413630751045 -0.0001435464674313683 -0.0005413444935372554 
0.009517337462280548 -0.0003121730412533268 -0.0003958121885181705 -0.0003656539066424927 -0.01047862088969959 -0.0003988865463729475 -0.001977904227550073 
0.01208524525404536 -0.004114703813480185 -0.005276264063995624 -0.01335945182746047 -0.0040071049483937 -0.003379801321091587 -0.005946126742890589 
0.01073325469148447 -0.007583869693931563 -0.00357282458727341 -0.006050056705846569 -0.006160627301793829 -0.002667882225692601 -0.003732930017488614 
0.005204122674085584 -0.001027241551924943 -0.0006158632590044107 -0.004253485283882665 -0.004644274427129477 -0.004803182528457193 -0.003258362207153525 
0.03166383978515956 -0.01408433816622577 -0.02139819712635476 -0.01312441600320906 -0.04032692929624478 -0.008745280893249241 -0.03200071358021039 
-0.07639051047732361 0.1847845764405489 -0.01165075625857021 -0.08267607559282074 -0.03761047600928325 -0.1045992851207152 -0.01434382493565976 
0.08170776854311777 -0.05835052902521201 -0.01640948992281148 -0.02043652693311365 -0.0316601516979367 -0.04216739061341163 -0.02055615818978023 
0.03935324445138067 -0.00460454264636113 -0.004369430329788897 -0.01116261718464981 -0.01214667896657241 -0.008951685182075021 -0.01692195803004153 
0.01785759489729201 -0.005116884216978455 -0.003048533459205822 -0.003993652561033297 -0.006978106237126584 -0.002088254817325075 -0.007345070712484014 
0.01904358257428799 -0.005668136252338253 -0.004189888018634775 -0.008633462659923133 -0.02464726502372352 -0.006924904590048171 -0.01822885697275213 
0.009881712738341937 -0.0006603071048057713 -0.002119649632928179 -0.00820404208084418 -0.001533599048152615 -0.008086771876754339 -0.001727645513144183 
0.008140567832007683 -0.009487653225873168 -0.006325136696654391 -0.006086854608712157 -0.004896984735800421 -0.002242068564811296 -0.004692379193224105 
0.0009949177468621991 -0.0004475117411397756 -0.0001374855556297498 -0.001162797498334226 -0.001334198535433428 -0.0006493626189321965 -0.0003705123533515548 
0.01387379210414679 -0.01298566886621291 -0.01123461285779781 -0.01438056772893665 -0.02526399480500745 -0.002687085425664787 -0.003526117115264582 
0.02705125818629875 -0.004776070763542859 -0.005053399819618509 -0.005266331201294713 -0.04488961291978422 -0.006710660658046051 -0.00679173488361487 
0.01590887890751446 -0.006390010903095395 -0.003663254686629033 -0.02425797107168803 -0.005346168569462705 -0.01679702488464928 -0.0038932654685078 
0.02506640862835607 -0.000805772502315866 -0.002425035571051892 -0.007486132260117742 -0.006727384287018741 -0.00858048590333595 -0.008750853343371648 
0.01201787473931694 -0.005157814432046074 -0.001418524740148778 -0.004161721893495925 -0.003882738558808621 -0.002503581455719863 -0.005108256146425913 
0.008853714822275628 -0.001077088253119449 -0.006561117127155092 -0.003526539400843784 -0.01565255966848785 -0.002278538946801296 -0.01548870627521176 
-0.1135635091680414 0.3047016608962362 -0.001183916352777277 -0.09399681274948603 -0.01034107309082857 -0.1540787592245237 -0.004009562205292983 
-0.09087113457630887 -0.01695144314904597 0.3063835026981276 -0.003245916940820532 -0.07666244912744075 -0.008031378855784567 -0.1325318901148641 
0.0008385249512752764 -0.001270115304485734 -8.756432640566071e-05 -0.002589761237688838 -0.0008589160702668755 -0.0008699319704468448 -0.0004559660584348445 
0.00385631704595376 -0.001417519874771909 -0.001785777397573182 -0.005820930878910222 -0.002412542878684412 -0.002458975620042452 -0.003850364585346334 
0.002957154913075335 -0.0005877440330267073 -0.001035730538299239 -0.001170490875950886 -0.002290663878343117 -0.003719412557145945 -0.003575750577356266 
0.002656294194471446 -0.003021552772250964 -0.001830090888725343 -0.003851712336690901 -0.003138455163191021 -0.004448739254430252 -0.00215893276874522 
0.0007285248804956344 -0.0008072498641981284 -0.0001377841916421625 -0.002160615977568724 -0.001670569601297456 -0.001759281711844578 -0.0004179883357272508 
0.0009937192772612343 -0.0004603354008550088 -0.001963974192137382 -0.0009433083718405313 -0.00113327835032934 -0.001975827047168485 -0.003513511104443852 
0.008325618981032413 -2.043482765840103e-05 -0.01105749597529405 -3.385145895126988e-05 -0.0209369940936412 -3.226298929059446e-05 -0.01386377096501641 
-0.09541635013712747 0.2812284196615492 -0.001892465375118068 -0.08676061385735409 -0.009213488175967507 -0.1404807629088975 -0.003751744512144411 
-0.06128248864184548 -0.0425337579650487 0.2473010132126557 -0.003072197089823561 -0.06251953708303747 -0.005673012655805102 -0.1138548564662756 
0.001799865615677407 -0.003195829585943442 -4.931917969618323e-05 -0.00126507740518068 -0.0009401200870108091 -0.0003056993692290471 -0.0002056896612008395 
0.005276340001177889 -0.00101602976324118 -0.000523861669211578 -0.0008080699204893209 -0.002805672102560421 -0.004823559807618707 -0.002263676534834881 
0.004543607442746738 -0.0005750236678817723 -0.0009330677905862934 -0.0008511892600866116 -0.000519771761919865 -0.001388099150580199 -0.003789051637390522 
0.003051569988424222 -0.0006964173731759397 -0.000346227188274106 -0.001034701682788135 -0.003348010719758653 -0.0005900988681330435 -0.00097935735345182 
0.005300126292155766 -0.0001004050718774734 -0.0001029581735413487 -0.008655187102178417 -0.0005426977485325393 -0.004653625942968966 -0.0003760649867387566 
0.008207842717263799 -0.0002536707113059404 -0.001121582188756305 -0.003957613809339563 -0.005992879424364768 -0.0008889423243174762 -0.0009494795617383609 
0.0007051613414743088 -0.0003107507866253695 -0.0007325342807898938 -0.0007444137963897834 -0.0006793351037285203 -0.0003281205715759994 -0.0004630520409622425 
0.005887622054442332 -0.000252995893781382 -0.001253302893065256 -0.003676571281627042 -0.0007992240355785843 -0.008406983702262685 -0.001420299251015564 
0.0007207281618456913 -0.0001550082516850728 -6.146415002771002e-05 -0.001210023236101073 -0.000985434192216137 -0.002075059630306964 -0.0002993423979802256 
0.0009679421911189988 -0.0003935436697338891 -0.0002724794016277316 -0.001002737144090405 -0.0006229588630459693 -0.001078005520002394 -0.0003068001901158424 
0.1546405738301956 -0.01698682881024468 -0.007633238578369127 -0.1092361017175591 -0.007632254095874562 -0.06697086182361828 -0.009638385301193968 
0.01275980240499502 -0.01038458780007617 -0.01080515897670448 -0.01995390270765065 -0.01481218864875191 -0.005633688412467621 -0.01955482008141202 
0.00106676625126983 -0.002394286805673885 -0.006539885668228341 -0.002751223889527781 -0.005178942484215319 -0.002939546704213177 -0.007155845710345868 
0.002225842315950184 -0.002232386569631087 -0.001808997992497239 -0.002767255358321314 -0.00192059762610186 -0.002931649313284181 -0.001850392518746946 
0.0006039974764673961 -0.0003486857865714354 -0.001239469753544265 -0.0004794063194775658 -0.002042200266182534 -0.001388202714693654 -0.002492182464157743 
0.004054408556540476 -0.005712677740403011 -0.005888203357568384 -0.002938029423243529 -0.004107901238291278 -0.003733677457818855 -0.00351557923224644 
0.001043142377428361 -0.001489886522396701 -0.00214724265081206 -0.001880329360940061 -0.003165277674398431 -0.002669958726381177 -0.003134019953013024 
0.0004091353421881223 -0.0003754381171780672 -0.0005021916517205022 -0.0004045724496557218 -0.0007855701065938247 -0.0004177807269956008 -0.0003898943568864909 
0.002710981681712965 -0.004231583287325481 -0.004023406144892136 -0.002351230403653925 -0.007662937489622394 -0.003177096091270508 -0.002753251572944451 
0.02131406536820911 -0.0001568607446261679 -0.0007841088530616165 -0.009620657354390551 -0.0008547853940714621 -0.007747992463930049 -0.001444972146915844 
0.002626981984008832 -0.003920397766544923 -0.0002242727889772705 -0.001722438202955301 -0.002393799384050996 -0.0008607081104435938 -0.0004784422742874535 
0.002223942435773448 -0.001241531747314971 -0.001558824606995101 -0.002054596220613979 -0.002159173901512227 -0.0007127429102265843 -0.002391917396242659 
0.004347358261359965 -0.002820039547112464 -0.0005226158071821195 -0.002972844574097642 -0.006303978471605099 -0.004550485115027735 -0.003577735045640673 
0.00659572797461509 -0.001424367575043471 -0.001666614075857071 -0.003329643530254789 -0.001835870445389023 -0.001456406686134044 -0.004264169453145397 
0.004325225318676829 -0.003902463020339623 -0.0008134390002072676 -0.001379044069724341 -0.005040815719394858 -0.0009682284051055748 -0.001153956073109835 
0.2891374068016422 -0.05551249732312707 -0.00393274062351166 -0.05484690928394018 -0.01634776317661474 -0.1183861324573307 -0.003632852639571076 
0.06378923175184337 -0.0005718158246116937 -0.00601967760614085 -0.001320020860019561 -0.0219303545575224 -9.46046463791666e-05 -0.01487526138171043 
0.04179918097737858 -0.0002599273342476145 -0.004138553248000633 -0.0001362363958939354 -0.04764195619178711 -2.159515383171617e-05 -0.006582664049993091 
0.004218167584892806 -0.00282959890347693 -0.001121353756129561 -0.004986408836842073 -0.007125763395872619 -0.002943549699457991 -0.005322025780838811 
0.002746420572617629 -0.001121669977067811 -0.0009942795147199195 -0.001875478481175213 -0.005578380963009622 -0.002128940920170617 -0.002046736017902086 
0.0376376687288965 -0.000724177781875259 -0.0006629811197137373 -0.02098697616957466 -0.009744618900139756 -0.01221682272123998 -0.0207289912845944 
-0.1430982383818999 -0.2620968295647911 -0.002248739170346734 0.6758444997256813 -0.04435867862160196 -0.1206100367966279 -0.002805747599104953 
-0.06149314520400313 -0.06571148553014934 -0.1144684352955111 -0.00951366314565521 0.5030037263987734 -0.003547246890543897 -0.07138957905171207 
0.02780595144795302 -0.01137174588158018 -0.0001662390960986875 -0.0005606908545312723 -0.00695015040325632 -0.0001580141645471749 -0.0004149816670289624 
0.002699714811794679 -0.004304467776839451 -0.005702336191749991 -0.007332291521439967 -0.004373744801027511 -0.003992140876414431 -0.008143486978430802 
0.002512679383603859 -0.003201668887114055 -0.001002524898893341 -0.001628261328492218 -0.001849930376567996 -0.00174655739207363 -0.00404332220875088 
0.002015976452084857 -0.01044887906950434 -0.005569586697505109 -0.004802812508430071 -0.00274348791801026 -0.005213816916175995 -0.003579815794361492 
0.04987254915729356 -7.188533060530444e-05 -0.0342242805290571 -8.38755843807107e-05 -0.03088769972242343 -6.636441015822955e-05 -0.02724488455587969 
0.007389065898224019 -0.0007674293309554836 -0.0005923695212920367 -0.0007026700938035504 -0.0006809442998871564 -0.0006143079100088221 -0.002864141811227592 
-0.05277173881629108 -0.001009179511177149 -0.0003173708820453744 -0.1483369273014708 -0.005867309385255451 0.3049108638451315 -0.002087951091992136 
0.007837760554714801 -0.00168810475712062 -0.0008194572271310995 -0.004280691769150793 -0.00258178822823974 -0.009302603903544333 -0.003178717789957539 
0.004706433167763946 -0.0009133563079073519 -0.001050164061725003 -0.001199548384937952 -0.0007575984140957572 -0.002057774211264946 -0.004123012666161856 
0.004156381691807006 -0.00072559513975019 -0.0004566812149531515 -0.001268600181469889 -0.003493486273432412 -0.003478653425550755 -0.001137854332802506 
0.03924257821273919 -0.002032732450987575 -0.004112468919443034 -0.01916299501760015 -0.0110922408853024 -0.01632920400023213 -0.00733128892843216 
0.09979050662526717 -0.01808312773619698 -0.01003518515669869 -0.009419217668698261 -0.04365777949546813 -0.003623794657760804 -0.01656320590044876 
0.004130458523944659 -0.00142130276068484 -0.001252591123964702 -0.007205350875817884 -0.003380239768117705 -0.002060400180875828 -0.002790950971824497 
0.03151142680702121 -0.001772693701563022 -0.0006785155620719893 -0.005108020544709678 -0.005944701038276434 -0.003853976967579687 -0.00511976030305277 
0.01442310849228801 -0.001645650884989507 -0.001990050008455516 -0.001207520660583336 -0.01965595342026362 -0.001030524827380446 -0.0030700028011608 
0.01070275695257716 -0.002537445279445472 -0.0005401706234849035 -0.003725530083489974 -0.003355315495642257 -0.006684343215984953 -0.002589396738320635 
0.04645496526985934 -0.009785263407780326 -0.004972043525694982 -0.03048963934426762 -0.02596024356782718 -0.03207863237410782 -0.0208600149420181 
0.05812825551469756 -0.00520686227835736 -0.007070571733323872 -0.01726571487150418 -0.03036753103106768 -0.01897184992774 -0.02915594697147516 
0.04502111698359701 -0.008061984729601866 -0.002425103824028019 -0.03103818607486141 -0.03203322656601845 -0.03453734796064595 -0.006482925126672084 
-0.240017903677547 -0.1252677217723079 0.7313897264005529 -0.02504254237633833 -0.07788813938487056 -0.06303777564026947 -0.09280950845136941 
0.02062070826799697 -0.0007633336193311035 -0.04505841912562674 -0.0005355575883079509 -0.0134563299497527 -0.0001742089704560488 -0.01307646540744238 
-0.710523046232947 0.4714609321608032 0.4076828306205804 -0.01606394727495438 -0.02509081168253808 -0.01919974076600569 -0.01239484149969473 
0.01236982844375494 -0.00108043847685906 -0.001548604835195199 -0.002704622557965742 -0.005956900712594173 -0.003186673613933581 -0.00426237138925688 
0.001569572255323754 -0.0008970366564058037 -0.0007704366385552985 -0.001282538459357119 -0.001969294842617096 -0.0004431917347272281 -0.001050657391213727 
0.006198966648048967 -0.0004379292832053603 -0.0004961439669724554 -0.009532447056981599 -0.00153282316430274 -0.007062711523581236 -0.00150415886401386 
0.003968132038283659 -0.006413545214256566 -0.003846806726831001 -0.01061679103214621 -0.01150880563278476 -0.01091774025930834 -0.004520776452472825 
0.02531815531503312 -0.06069271781231494 -0.004914756652950697 -0.01831954955989569 -0.01558540070901938 -0.007090894095744505 -0.01048809833508385 
0.005899801104742496 -0.006723122547851261 -0.00183194270408211 -0.004018944647488356 -0.004722070561258535 -0.005491677223716394 -0.002191291450079834 
0.0001220340247478283 -0.0005177075410133887 -0.0009279791964153886 -0.0002269493531795791 -0.0005697098349865862 -0.0003532018374121147 -0.0006866522656462894 
0.001258323546839232 -0.0008358595271599138 -0.0009485822317196057 -0.001004206031002755 -0.0009603100509063642 -0.0009690498010120229 -0.0009942650490384031 
0.0001569934288059073 -0.0004843382023163217 -0.0006759986965636087 -0.0004909102011834162 -0.0007994222652934161 -0.0005213450475721925 -0.001086261132520827 
0.02458938237298378 -0.01504033910663984 -0.004020120162575109 -0.02020997847273792 -0.009773681553876905 -0.01974253436540617 -0.0110110171425203 
0.03932955144851966 -0.09083630960352249 -0.03172778763302266 -0.03818014183644453 -0.01272366710333439 -0.04012458734846433 -0.01922381075452548 
0.03674685708861332 -0.006630881379330535 -0.009982646011514038 -0.009998786189740445 -0.02805206937374274 -0.008830296130505297 -0.02007889508942832 
0.008129420844228267 -0.001515622215424577 -0.002964551161811642 -0.005506719782873648 -0.009296490483994571 -0.006290643311504661 -0.004940790531075627 
0.00318292686231475 -0.0003690493485931468 -0.000947395603840098 -0.0008979720073476554 -0.002826574787905625 -0.004348668126843057 -0.002889913721949786 
0.01357465536919647 -0.001404100143439637 -0.0009663669405947509 -0.004408091460838957 -0.05569398485021003 -0.004878021288666265 -0.002674721196509861 
0.01155568352159338 -4.887496824771498e-05 -0.0003588480616697251 -0.003711389421924124 -0.0005277693145802643 -0.004545273565725588 -0.0005827025689300634 
0.007389065898224019 -0.0007674293309554836 -0.0005923695212920367 -0.0007026700938035504 -0.0006809442998871564 -0.0006143079100088221 -0.002864141811227592 
0.001067985267284864 -0.0005266226205499166 -0.0006119943616156196 -0.0009444391697986581 -0.0008908071581788053 -0.0003785064687616054 -0.0009513969255606522 
0.003316621800868925 -0.001417582498272406 -0.000666398287118975 -0.003346743821624932 -0.007167526837294829 -0.004847954710519888 -0.002221051559078171 
0.007503687335497581 -0.00341496623115226 -0.003451236586680913 -0.004966927360275732 -0.0143865924011038 -0.004625275496701718 -0.005924615433893724 
0.003745082685942462 -0.001256322903254244 -0.0008676319561462856 -0.0006472865977586486 -0.005853150956487049 -0.0004161676530285399 -0.0007788572083260172 
0.002355476939753913 -0.002916252836195209 -0.00383703801280021 -0.002208310310882968 -0.003077966880419733 -0.002831802158652371 -0.002053216083620578 
0.002245215831305155 -0.002805140206798745 -0.003304165447121218 -0.00269073147374082 -0.004044827443959148 -0.003266474025612389 -0.003357882895688382 
0.003440587776318581 -0.004612714674333028 -0.002212542898816559 -0.001315462951841783 -0.004700906169395637 -0.001472021227853409 -0.001495788427447582 
0.0111000253495607 -0.001546261970451334 -0.000915694146085636 -0.001358519877430043 -0.004092677077183061 -0.001116628669092355 -0.002540848871905086 
0.0009457742162678208 -0.0005751405513999418 -0.0002932808212610852 -0.001342734700847076 -0.001289657506460549 -0.0005686428691362244 -0.0003118789800760699 
0.009420688449796783 -0.007424448968735781 -0.0006648560660143705 -0.002568056497484277 -0.004128327856481743 -0.002041620177883567 -0.003787479119487741 
0.006722305935705512 -0.008469771771812275 -0.00269025208138826 -0.009926457522635193 -0.005564229233671666 -0.008635232304228068 -0.004217310531061675 
0.01486548538830476 -0.0108195763610895 -0.003308176262382209 -0.005365899451764898 -0.004609492704376572 -0.006017523864231005 -0.006204105140399707 
0.05427321619182267 -0.02992638290006468 -0.005692154013447585 -0.02116512181804685 -0.008598699762206063 -0.01529248618742164 -0.004911070476062959 
0.05818402031194262 -0.0005992198756605286 -0.03715061980595739 -0.003679349550046331 -0.05186910200584238 -0.002789783269028335 -0.05158782810489523 
0.0162827948188624 -0.001970844818763715 -0.003189599715746018 -0.001570428767235628 -0.003987419997388035 -0.001622217704653569 -0.006811176814636955 
-0.1554542428132487 -0.01299248740756408 -0.05924371987378536 -0.140173018269211 0.4716220233475341 0.05418098353169057 -0.08263087923489112 
0.005447864158432502 -0.0005603237996763969 -0.0008942417078990715 -0.02528986008641588 -0.001622645215701512 -0.0156007322999637 -0.0009893622353129468 
0.008969426733424905 -0.004468214674120684 -0.003135728091503959 -0.005828730158002231 -0.007256070078014837 -0.009923434924761811 -0.009731839907150996 
0.007786879087638132 -0.0007523970192162433 -0.001349549473548365 -0.004952593196089004 -0.001451663632452055 -0.007788862323211054 -0.001127092315951433 
0.0193247473759093 -0.02668116359293691 -0.02617283550081687 -0.02495267574119527 -0.03181902396907098 -0.02490919803382817 -0.04086760475087534 
0.02322649097816492 -0.02185831759855488 -0.01199147932481115 -0.01755157158881628 -0.01700454681651068 -0.01203653426686801 -0.02203646866618274 
0.5035303077230044 -0.05625714420616288 -0.0252489572755995 -0.2007095027738532 -0.04640297348236935 -0.1955061393263792 -0.0381408992149098 
0.009514834174610048 -0.004168163403617857 -0.02913997388820488 -0.002819277691802723 -0.01495448123732213 -0.007049436305885389 -0.01951283518246728 
0.00327456706060754 -0.008005764087672564 -0.0093731768798169 -0.005149215679771581 -0.005628494362977509 -0.002055305061567619 -0.0080985437332864 
-0.06546643551990904 -0.04999301688929374 -0.2202522444975461 -0.01734981012823938 -0.08927928171380634 -0.01543889979286626 0.4323017132587151 
-0.09299301771970424 -0.01623513229508685 0.4339902636074505 -0.00315829756758269 -0.1660847207704576 -0.007999442775483036 -0.1285113161691071 
0.003114984205802561 -4.342529983703634e-05 -0.001839268416945847 -0.0001701254411707171 -0.0009786071110250425 -2.14434690477119e-05 -0.001899935588340562 
-0.01551739873248919 0.6389372426392267 -0.0007249010364301032 -0.07052749580572805 -0.01665957204297733 -0.1774965271319852 -0.004647413787613726 
0.04795266079053918 -0.07585874601259653 -0.02390633661319032 -0.01034620362572492 -0.006383590785892084 -0.03124545367626726 -0.007197841174620404 
0.01720450230783026 -0.0003545671375244344 -0.03169836348340573 -0.0006783726863845871 -0.01794604995103615 -0.0002975314059888205 -0.02399477609382328 
0.0227555596484352 -0.02746794152244005 -0.002299582149092803 -0.01089663808435784 -0.01715416589602801 -0.003134985696840821 -0.007406778062374818 
0.0007419057468483619 -0.0008474797505136389 -0.0001549028390853254 -0.0006277763756337086 -0.001921656700830375 -0.001612326181308528 -0.001238805559395771 
0.0007355645932759152 -0.0006241559593076932 -0.0001565480795530566 -0.0003966768529160013 -0.0004950115899343722 -0.0006117550195574395 -0.0005146733489364827 
0.004942345953793782 -0.0003884085368502977 -0.007595071942038994 -0.0007658420409593612 -0.01526779122742252 -2.236077311310559e-05 -0.004901013565452305 
0.02168776165346077 -0.01684228230960077 -0.00107083999790937 -0.007409113196018008 -0.006347899818838114 -0.002316361374877655 -0.003060339347217223 
-0.1548642804335926 0.4611114608408896 -0.006311246864021187 -0.08275123656099384 -0.05810172192506735 -0.1214989142478485 -0.01068481655640608 
0.005557317214741328 -0.0001942454982424621 -0.01186846622838141 -0.0003328010741322677 -0.0109917764648867 -0.0001132617252343952 -0.009750016133882005 
0.003448983610418218 -0.003786908846101829 -0.001613197846745344 -0.003223497050222278 -0.009372468937367191 -0.002318777866014534 -0.003419506218190713 
0.01307323386995796 -0.002304743850771489 -0.00172636936277253 -0.002292467148411853 -0.007256657037132736 -0.001943292724330587 -0.006936218497020493 
0.02813557134105556 -0.005419898638929737 -0.001777579859802438 -0.003378128244263632 -0.01983307431267489 -0.003659916090380523 -0.004663832866352646 
0.02045408771194908 -0.00195393968329123 -0.0009802069205710048 -0.007904801120828949 -0.002820146495395254 -0.01385162009754512 -0.001199100176497218 
0.005160000355235379 -0.007087477597227401 -0.002557299409009096 -0.003807009610865268 -0.004264792636041548 -0.007613230517809601 -0.001859030657115474 
0.0001530349881057128 -0.0003041046376426378 -0.0006554768142725143 -0.0003765731929317455 -0.0009557613063873489 -0.0004505628135064044 -0.001051377683882089 
-0.4712836195354007 -0.03842547089479943 -0.02282030066446398 -0.05692092414176479 -0.009902697847342769 0.5935435739613212 -0.01686490752974087 
0.01071742629378668 -0.000172077859229909 -0.02697197206990224 -9.963804647667411e-05 -0.006733792236814867 -6.77878230717088e-05 -0.02837737360258106 
0.001562852156699555 -0.005756566723419176 -0.0005170500215700815 -0.004945910032451134 -0.002751742290731835 -0.001089545339692242 -0.001480285479983894 
0.003325780624897521 -0.000369353114767064 -0.0003772569960498932 -0.004550242394640754 -0.001952579067842588 -0.003308666229278072 -0.001239213499962259 
0.006057152894775134 -0.0003696447114847799 -0.000301650588558288 -0.001737437886768208 -0.003743826672251089 -0.001353783288162594 -0.002957692877119234 
0.01403647650498866 -0.001090434572502658 -0.0002402798645160948 -0.01044232630015809 -0.0003197828325561681 -0.006061158795686702 -0.0004232556112375701 
0.006749298302923446 -0.004840787748569953 -0.0002491012642056717 -0.004543763111706229 -0.001956286985576968 -0.00672125242305023 -0.001204735119212032 
0.002302051277868686 -0.0007318334008080204 -0.002079461058069899 -0.002422223910204049 -0.002760297355090581 -0.002773804816953436 -0.00889470243088483 
0.002270217755052953 -0.0006681357225275669 -0.002868922101925014 -0.001539422626000162 -0.004328999961658707 -0.004660900218212825 -0.007394229553054862 
-0.3476097507786765 0.7505249856491724 0.341827582081748 -0.02905070270580518 -0.08715552643252876 -0.2648318115612437 -0.1499644296476208 
0.003864710704447467 -8.028866745370811e-05 -0.003385195335904826 -0.0001215429022481359 -0.004056303662765157 -4.592971715197544e-05 -0.004660330856950038 
-0.1110638267024282 0.2970143795539846 -0.002500447305532349 -0.1530193117074512 -0.01652846387826013 -0.08039322064984038 -0.003523328592779324 
0.1268018058083712 -0.02920514366113282 -0.01710300033605509 -0.05350470012213543 -0.06252644036154401 -0.02472928727798654 -0.09131059883842244 
0.1620656830536217 -0.06223894284869812 -0.04778347797307977 -0.02286574618487813 -0.05861369529121858 -0.02603110039274368 -0.03233078402850502 
0.1924565479286079 -0.02755085451478725 -0.04148398817604796 -0.04631600996715383 -0.0842854313685623 -0.1665168897795127 -0.0902947801027341 
0.02653030775436014 -0.002861462798708294 -0.00204636437901101 -0.004496272058024517 -0.01010743007081904 -0.002017969296386847 -0.004859628752649745 
-0.2168894986452855 -0.08862689700481971 -0.03580554880899957 0.7149186494018085 -0.01533181980366767 -0.04480704134386701 -0.01684405903560434 
0.01993388586611703 -0.0005307993198057453 -0.009866285621815506 -0.001968571264059566 -0.01680059932934889 -0.001434607903141927 -0.02197265030452517 
0.009784438359182253 -0.03275655960396551 -0.001152464923199863 -0.004529104225595855 -0.004008498684715486 -0.002078090899295033 -0.002369839289583842 
-0.1327039906132467 0.2259078099939782 -0.03218990841218007 -0.03660616666421779 -0.02264270270103615 -0.07241148927462 -0.02342744188880169 
0.002696937328287539 -0.0004717283595573505 -0.01827353566871742 -0.0003257925877926271 -0.006302421492576834 -0.0001243797580176079 -0.01012720252109787 
-0.1586071395036215 -0.03295843294501271 -0.4358542282629846 -0.006452280309978322 -0.1380850085647905 -0.01582468059434545 0.7551488839461621 
0.01392969479617229 -0.0003397677315130158 -0.001638374799956353 -0.0002508963068468087 -0.01372810803299527 -7.759238494474023e-05 -0.00901568306121042 
-0.2534338667884874 -0.4433551754781359 -0.003344895014581454 -0.1296788025184118 -0.01399362166276005 0.7540486085729821 -0.00461046668450054 
-0.1038343166896667 -0.05520413626016383 -0.07148480057889306 -0.009222234580818391 -0.1430073338927969 -0.003474994372334558 0.58409257353119 
-0.09749208833254855 -0.0172269071100166 -0.3217510190346022 -0.003256347456515485 -0.08153219635957781 -0.008094734565775284 0.5797407440920849 
-0.1861010984163056 -0.0249510155394639 -0.003408302796593087 -0.01946417114960534 -0.004728343376650712 0.3137086108811645 -0.0006026752598943265 
-0.1548642804335926 -0.1553226495802324 -0.006311246864021187 -0.08275123656099384 -0.05810172192506735 0.5162470821199741 -0.01068481655640608 
-0.06149314520400313 -0.06571148553014934 -0.1144684352955111 -0.00951366314565521 -0.129170954664954 -0.003547246890543897 0.6202467238733806 
0.02823448070868339 -0.009026717933495977 -7.538090466783701e-05 -0.006596096904466139 -0.001717481435624039 -0.005833265608329939 -0.000865948676963187 
0.008538572054257265 -0.0003591003628518792 -0.0002871999216637379 -0.001663855526367061 -0.003382855070257236 -0.001980049543625704 -0.002755130507335723 
0.002010201816381981 -0.000753044539984326 -0.0006324876757008111 -0.0005989673452323267 -0.001018263208421615 -0.000190306026505073 -0.001692743348706584 
0.03078694858076264 -0.0005308257162303997 -0.000484788081779688 -0.009649817996306672 -0.01030685149062104 -0.009596987267653116 -0.004082427904226923 
0.0003054132245679848 -0.0009387048250259932 -0.001639061306352086 -0.002116381486451115 -0.0008776549874747235 -0.0006234506369345492 -0.002025610363738115 
0.001822632473089207 -0.004478277840487621 -0.003425484048275754 -0.002122138849692721 -0.001982693101152036 -0.002979823180067018 -0.001849218075605329 
0.0002531297353506842 -0.0005447593423338312 -0.0008295077679988941 -0.00236832828680577 -0.0008391254598636901 -0.001210090570418586 -0.001781684731055898 
0.01739754708570136 -0.002083215213665617 -0.001087773798260291 -0.01080980354664628 -0.001919399097034444 -0.004321983883222981 -0.003946231030348898 
0.002672386682833926 -0.002250416406206854 -0.001170107635928131 -0.001268737775435452 -0.004061643984802266 -0.000955792629527338 -0.001581615209034093 
0.001333315650710262 -0.0007882665687561972 -0.0003266631016117489 -0.001332514849733716 -0.001209024486584395 -0.00116657557838048 -0.001105737792237509 
0.01635658016718512 -0.0005546064626512413 -0.0001056209673316177 -0.01920832937306553 -0.001140098166910558 -0.004927528141954503 -0.0003008913713317098 
0.2900901170934608 -0.07949803956512505 -0.02931125095672881 -0.06102922912115984 -0.05417505717228745 -0.1402230136238446 -0.01874404823822765 
0.001330981364412847 -0.0003177390069631137 -7.97711290902426e-05 -0.001077731859443096 -0.0002720370817313757 -0.0007036124036033793 -0.0002205189298114703 
-0.2909980212810178 -0.1559767176577525 -0.01475509749357961 -0.0755375456340832 -0.1118193661874673 0.766806043847873 -0.01746504806184433 
0.05726048515239033 -0.0006318537505734012 -0.01341612632810738 -0.0004424992117847405 -0.05833811808060833 -9.072737697775647e-05 -0.01555245973549938 
0.0512647016678261 -0.002454109587658647 -0.003950160856366983 -0.0008024875165624569 -0.03850400001128369 -0.0001977664249662777 -0.006438692224520438 
0.01121973224864507 -0.002582757193377281 -0.04980324832546284 -0.001907180846115001 -0.02295841663371132 -0.002105999215531252 -0.0632885004030929 
0.001654848668965874 -0.001781915389781448 -0.01555089469854255 -0.004537008757424525 -0.001917213791708523 -0.004100180523010258 -0.003256062854879694 
0.6399402142643543 -0.02452201765926914 -0.2345871820224731 -0.09419398155964984 -0.07598140691474042 -0.2823464806708833 -0.1533348469671667 
-0.1605566177170264 0.3391529346585905 -0.001874603641907651 -0.06069996217918332 -0.01177020670263205 -0.1270864652401393 -0.002365630507296513 
-0.07352664723628978 -0.02773434316135987 0.3262804224865734 -0.005834890170335118 -0.0898342612579178 -0.003167488002224769 -0.02727230577110735 
0.006848664109583398 -0.0001978592170932993 -0.002452034193244726 -0.0001172676111283074 -0.01266306601344035 -2.005709044661654e-05 -0.003720822718220667 
0.001434687023919076 -0.001769003550301963 -0.0001011119806046372 -0.001642412744450454 -0.0009464441718707231 -0.00199441821444668 -0.000506940950236335 
0.002532762799480144 -0.0003139324190567198 -0.002257361622044698 -0.003818541768135052 -0.002309189671244986 -0.0004012310163470016 -0.001103520979909046 
0.0009716794031856632 -0.0005256793937983834 -0.001694570394869033 -0.0007340747673836397 -0.002854751648696414 -0.001413991645136102 -0.003648725232630478 
0.04829733893825788 -0.04542520777384002 -0.006327965704978292 -0.04404486339043036 -0.01209219074127758 -0.0406208790836863 -0.01575265905525563 
-0.194868954226554 0.4084051436012356 -0.04287248053670587 -0.2115755544376131 -0.1160471738442759 -0.198832389856283 -0.05066976476097315 
0.02486794210412617 -0.01531075623953475 -0.0310215482738418 -0.01448505861901063 -0.01746637205682935 -0.01685591292974737 -0.0288227014892747 
0.009234270205101527 -0.01479145683280379 -0.002344451737224017 -0.01299936516307316 -0.002909215092704425 -0.01055673873285481 -0.002943607934734583 
-0.06106704292707205 0.07748158962317146 -0.04800413110690094 -0.04666451319013164 -0.02297322005725347 -0.03068992550364863 -0.005500310106194455 
0.003090489919057614 -0.01387688717131034 -0.001769535249442365 -0.003037715208866324 -0.001809399708820565 -0.001093112402451912 -0.002351727917240835 
0.3196853368885211 -0.02066063001249909 -0.0431836979836157 -0.0236834701223355 -0.01188771210143671 -0.124313289802915 -0.00578783401056503 
0 0 0 0 0 0 0 
0.04480438161797128 -0.003633805329465659 -0.00107122353846961 -0.02616989857804712 -0.01051466996099183 -0.006020069929244363 -0.004127166563569825 
0.006782689529975758 -0.001420864745936919 -0.001661911089013128 -0.003341376426111635 -0.001847997732444659 -0.001463991099404693 -0.004297894038153516 
0.002222352237023734 -0.001174930943853513 -0.00119456642618968 -0.0004583354452163204 -0.001267421190821402 -0.0007081145638720524 -0.001621683867083393 
0.004392815108759781 -0.002817450573586243 -0.000523313332481954 -0.002976581205563009 -0.006337753300499468 -0.004538420591662074 -0.003618856600228377 
0.0369985304957029 -0.0001243029752022535 -0.03750749129744233 -0.000113059699521043 -0.01118299356968531 -5.785714417204602e-05 -0.0407492395072605 
0.0003407738946853974 -0.0002623381546099298 -0.0001324703693201478 -0.0003163558048750394 -0.0003428829010344297 -0.000433613803030013 -0.0004403184810484869 
-0.2406584356863931 -0.01153357139685093 -0.00335961367769008 -0.06272413050502498 -0.05598604520949726 0.5870662654992198 -0.003959173060132095 
0.0001402291124920924 -0.0002056337884061999 -0.0002265799764688728 -0.0001789719075421973 -0.0003154804195632972 -0.0002936031207459189 -0.0009402847141562333 
0.0001763949341117819 -0.0003680608643082165 -0.0005858618264649819 -0.000611837850124913 -0.001104245342995645 -0.0006353242547844257 -0.0008480685339061505 
0.000166794582644751 -0.0002932271390800091 -0.0003494086434780829 -0.0004141337864508312 -0.0009192535398865395 -0.0003991454175923577 -0.001176823563208849 
0.003367025796402179 -0.0007959272418251863 -0.0006881615237375046 -0.00120724710510662 -0.001268322446438173 -0.0002913653958114105 -0.001727283212139974 
0.0008379561967140926 -0.001434853596705029 -0.0001948297307430685 -0.0010939695250867 -0.001222609270728381 -0.0001651678494732265 -0.0009386883561620118 
0.01704357037605102 -0.00124780564190924 -0.0001086690054211742 -0.002356445412747864 -0.0007736734953618423 -0.002356545310566039 -0.0007948235586104677 
0.5419486751092684 -0.08879281262728753 -0.003537277042836681 -0.1339467349087544 -0.1062476015032126 -0.06122885104755617 -0.003215871079023713 
0.4096417239135033 -0.01350963558825925 -0.1303967851439199 -0.00267854884179159 -0.04532895121397709 -0.005995217573215261 -0.07606270790914396 
0.004821898862200259 -0.000746690574326393 -0.0004733619123635289 -0.0133441743759349 -0.002478364320520879 -0.0002917253550428779 -0.0009240629732980907 
0.004910207212116771 -0.0001680340921820104 -0.001055883702430147 -0.007334331480131069 -0.002368803557285705 -0.000750399566254718 -0.0004046142044279639 
0.01527986750170155 -0.0004156163666712214 -0.0002464523637701291 -0.0002996719310863498 -0.01372274200270368 -0.0001708673822528303 -0.001489468704994839 
0.01618546369970385 -0.001315204333262141 -0.0001551311658459497 -0.009464519553600857 -0.0003192966810605944 -0.005462090180905577 -0.0006675666456115454 
-0.632436023351461 1.178521436661287 -0.0212905542430551 -0.3652846263466381 -0.112814328045222 -0.4968860372660039 -0.03003373113120976 
-0.5485419183759005 -0.1123775393726615 1.297241557257825 -0.02400958237690546 -0.372966527193582 -0.03289556695270592 -0.4940708480021694 
0.06239641506734815 -0.02124607096471865 -0.000547780658092944 -0.0163080904138238 -0.02070528525730964 -0.01049545913769575 -0.004498328731204137 
0.004053165940261779 -0.002041963114020566 -0.001142989491845148 -0.001677676861527164 -0.002737653933189737 -0.001330685576562317 -0.001092510564188377 
0.001301992849956432 -0.00140861936998089 -0.001022284354985041 -0.001907320769993772 -0.001383300356552034 -0.002067627281470271 -0.0018485459550617 
0.007962705669164762 -0.0003964183177139311 -0.0002839254497299308 -0.003038291497725192 -0.01071946471202796 -0.005205923407447513 -0.001935795376563825 
0.1018152831741471 -0.09478726677976201 -0.02808126635695358 -0.002947813943696999 -0.007729475893673564 -0.02296314893332108 -0.008071875936709305 
0.03698582769488169 -6.922285123485089e-05 -0.01293423283271787 -0.0001152502921652998 -0.004551315198395579 -6.775428673692811e-05 -0.04054933584867477 
0.01561813824879765 -0.00603273450563592 -0.0003830778242652475 -0.003851453231980228 -0.002889734117132795 -0.0002232437984782411 -0.001318708559819291 
-0.06149314520400313 0.634792654169996 -0.1144684352955111 -0.00951366314565521 -0.129170954664954 -0.003547246890543897 -0.07138957905171207 
-0.06556167502820225 -0.05087609649387709 0.321893434204013 -0.004676346787924015 -0.110828486907384 -0.002923168152156212 -0.05431519925984107 
0.639699716147905 -0.0656766901840441 -0.1106760219974038 -0.009508892540450358 -0.1263796331922137 -0.003546994390235838 -0.06799926392690142 
0.002066666424189765 -0.001295320654704438 -0.001003328067319428 -0.003079222775819599 -0.001028335928901755 -0.004350753476091884 -0.001616382804964771 
0.001360018986620289 -0.001903917881352691 -0.0003329593340657134 -0.002416044887316214 -0.001406904565844035 -0.0008727422600796249 -0.001679861453127066 
0.002094273227778145 -0.003878218638206908 -0.00199665465423164 -0.003377957150907186 -0.001781213652883936 -0.003281107434910688 -0.002112525403573871 
-0.05071054316148318 -0.04076053142283177 -0.05366870121185414 -0.004709151364036141 -0.1103103103597271 -0.01377123928635132 0.3993488675181207 
-0.03450655287611901 -0.03401388233236212 -0.07351078469015693 -0.007306730156241254 -0.09973211531469185 -0.01089713476288102 0.4156132190342623 
-0.1210822094893987 -0.2070581667870205 -0.001362397229726299 -0.08442431492723936 -0.002114070894539919 0.3665107045950644 -0.002084602226200915 
-0.1636078511968563 0.1892513512899517 -0.003731099814270867 -0.06128126851124017 -0.01025603987738695 -0.032105101903931 -0.00398711953893352 
-0.09116250619150108 -0.02300275128471542 0.3553243232634659 -0.003078384204153603 -0.08116825635612973 -0.007683734331349612 -0.1452199344266827 
0.006663235714439985 -0.01462183539922093 -5.308892081238019e-05 -0.003146016524886512 -0.0005436690251701778 -0.0003412160593395486 -0.0003697868773656037 
0.3379512283402409 -0.009693530818458985 -0.001648185309882022 -0.1245535714033092 -0.003605684023478185 -0.146529598786094 -0.001793846319278491 
0.05048870091418884 -0.0001521712112557936 -0.02341093927171195 -0.000223547509802156 -0.02004172274808513 -4.411519786441434e-05 -0.04873478209613973 
0.005132963233411655 -0.0007286695752064096 -0.0001093035297411982 -0.001728718708755734 -0.01070011053428349 -0.0004540396469492099 -0.0004668371655131752 
0.008085125311133092 -0.01031100966586693 -0.0005642757208002292 -0.005203893547673909 -0.002929040820088261 -0.003401014264052734 -0.001231454587590109 
-0.1440573943055932 0.2661416384095803 -0.0131694258523099 -0.09063826087474929 -0.03257773697222953 -0.1086007954674097 -0.01068665113402665 
0.001670739379601015 -0.002849824414989566 -0.001395837755307732 -0.002663747752408682 -0.001392105704087594 -0.003424939328197223 -0.001497977755892755 
1.271392414375881 -0.8262723550306096 -0.02112997592926385 -0.2455366476131458 -0.04496108507515013 -0.3600069662547701 -0.01893127515166705 
0.505515091203206 0.9211481210661429 -0.2979293097218288 -0.02658601738887356 -0.3270540891226133 -0.009945474637535185 -0.1926827395743876 
0.00577777807279775 -0.01675393473619251 -0.001211056371433469 -0.003842045901082553 -0.006237027386010844 -0.0006936921469587239 -0.002058549939921067 
0.003544411374875047 -0.003527455649341065 -0.002406617851040099 -0.003101020125141561 -0.002106152673456916 -0.005569841401588199 -0.00304735120477382 
0.001864904716501699 -0.001640622784752545 -0.0003897141847351769 -0.001250475592006612 -0.0007062820083183966 -0.001328395652983159 -0.0007301351960191292 
0.02871860554196844 -0.00472102976408425 -0.0006117778091504567 -0.01542906090920246 -0.002575265345046732 -0.008930256783002098 -0.0005086504567291552 
0.002691372691779145 -0.0007659921868729989 -0.0007105131973994918 -0.001293670705649777 -0.001950584978934082 -0.0005442191731529013 -0.002925227117358482 
0.00385674037252106 -0.001721411649134881 -0.0006356689501799416 -0.0009737856829276519 -0.001244159202376357 -0.0002672074786579002 -0.002103025149156374 
0.00255164643958117 -0.004111655171682802 -0.00527000047932101 -0.006529264868861452 -0.009466719299154899 -0.00568145351540537 -0.01327075319598286 
0.004129572360945257 -0.0002532137999524457 -0.0004743531217042908 -0.0008017972103643336 -0.003029453189907821 -0.001479506080898523 -0.001431166035790632 
0.0009031456724798072 -0.0009933118821794122 -0.0005568035522523174 -0.0003256012749705596 -0.001325921401448906 -0.0003111428336437486 -0.0004207213022660923 
0.009906450151400794 -0.0005965594483166011 -0.0001543092732550697 -0.002281391051104749 -0.01389557498004571 -0.003950921802269021 -0.001836301646920796 
0.02780539809270187 -0.01181677948739544 -0.002276068660741058 -0.01843158970143795 -0.01099618309203643 -0.005202311673536826 -0.003887911545412092 
-0.08907155580022509 -0.2788502927989718 -0.01471043338440248 0.2271731727051792 -0.02797108641167895 -0.06218791662651426 -0.01301190352158902 
0.04506146014888925 -0.0004788004967812784 -0.01553792424527022 -0.00113729624202112 -0.01888289820957487 -0.0002107741485769525 -0.04896774174745968 
-0.7973466636472045 -0.0001034751715706416 -0.008266480939261233 -0.0001489913575762958 -0.01090957441498473 -2.323272377178366e-05 0.7862721019575658 
-0.9476251895858843 -0.001375899586633683 -0.001909152759438747 -0.0006849570020270721 -0.001762629511716349 -0.0005237236148554055 0.9777344829335357 
-0.2676131792813893 -0.01813428033719415 -0.001388597992038963 -0.01027484912730988 -0.003664305080444358 0.3463043096447995 -0.002291410219653174 
0.0081370448805059 -0.0006662546132913034 -0.0008783823489854351 -0.00484185197346204 -0.003797599115209755 -0.00231864843512169 -0.003781060037657445 
0.0007548379253664976 -0.001263574162897091 -0.0009731249403089109 -0.001033236488179377 -0.0009946870510770384 -0.0004007963662709144 -0.0005078301403120238 
0.00264823331660542 -0.002989441567594053 -0.001850351739829458 -0.003591662594876999 -0.002628657470501202 -0.001615027292208767 -0.00360818376899471 
0.005243281747507314 -0.001464312628608838 -0.0002131928202577693 -0.002457221208792285 -0.002861267989255174 -0.002522531329002083 -0.001074084002666473 
0.001872602734821283 -0.0005217946372214275 -0.0005437763832862217 -0.001247913219259305 -0.002535907911934871 -0.001322171251962288 -0.001297039245708379 
0.003861740580778374 -0.0004551906772654496 -0.0005682833886101109 -0.001068122815354523 -0.003650659809149712 -0.001364252837295493 -0.001030515982752942 
-0.1345926986401209 0.2214273049642611 -0.007517800347860964 -0.05795198251789759 -0.01937296287577182 -0.07805969970400838 -0.007002824475004126 
-0.04727430982410924 -0.09020663945878292 0.5052994574860813 -0.00842655128914465 -0.1221934365140781 -0.002907120845402979 -0.06466661170826679 
0.01262508374569753 -0.0006886452857917165 -0.004391237978479463 -0.000414916379077297 -0.01279355904838608 -5.883019185137317e-05 -0.006883774556543018 
-0.1150220770251474 -0.01603493360713984 -0.2729870481206062 -0.003159113443871939 -0.08286132376599493 -0.008019768637644682 0.5741868678070523 
0.007891591104375992 -7.6529963123259e-05 -0.003308359746135585 -0.0001370068747212288 -0.00546885822708432 -6.012845241103949e-05 -0.008787467105481506 
-0.01390507420382145 -0.005602569920662625 -0.0004098162189017228 -0.1355381856083434 -0.01321931685354395 0.1707997401551334 -0.0019366160368896 
0.02052929512091909 -0.005946718976373564 -0.002529872862554102 -0.001427539157101279 -0.003338973480832171 -0.001774112144251208 -0.007411043869734041 
0.0006394152497569271 -0.0008820139740412525 -0.0001295196542556738 -0.0003360559230717151 -0.0003118517726910807 -0.0003055775341551698 -0.0001624250648362553 
0.002870841283105061 -0.0008217482411026602 -0.0004560895241366668 -0.003156909522678297 -0.007382433868276524 -0.006352309152706571 -0.003396639903750074 
0.01578553259323993 -0.007684434220601016 -0.0007782181347225116 -0.01149239974599792 -0.004844844029033334 -0.006954976013327251 -0.004297943244172197 
0.01973921574903231 -0.0006862964351778318 -0.002639522265604963 -0.005295782100035679 -0.009947662965974017 -0.004139607110699823 -0.006536993926208956 
0.005419137283577432 -0.002550881605056632 -0.0006350055005407358 -0.004660160076871685 -0.0018277906355924 -0.01021158708600537 -0.001187088338588349 
0.646215491965376 -0.06571148553014934 -0.1144684352955111 -0.00951366314565521 -0.129170954664954 -0.003547246890543897 -0.07138957905171207 
0.483681215730177 -0.01485864513458435 -0.1123937667918975 -0.004253162862691172 -0.07374389815934143 -0.003434046541239562 -0.08405168158008339 
0.5854033634826643 -0.351171161313046 -0.001394864835660595 -0.08583297302611821 -0.002659072641000458 -0.1593475187772531 -0.002158275557645175 
0.00303363808029579 -0.001697655216238235 -0.006747189561574342 -0.01311945587325097 -0.005274299514095103 -0.003184829878791836 -0.005698535481174639 
0.03003116287358629 -0.001452376790580644 -0.002325589634759972 -0.001976251054363989 -0.02998101532469492 -0.002616748150254549 -0.008845555994523658 
0.006908709352532721 -0.007107867734989597 -0.001118806992596975 -0.01044844884495283 -0.008385753938577418 -0.01270626660947935 -0.003400572557212214 
0.01581306284920445 -0.0006196740528404891 -0.0004159847661535483 -0.007317854742689752 -0.007850720867488689 -0.002331839823455983 -0.002600532181281001 
0.02266182822827037 -0.012292213425813 -0.007103869247996069 -0.008861654357430481 -0.01070539365253714 -0.002494473594537669 -0.009207975816235798 
0.06327404213068773 -0.003331243331773087 -0.00511954597178559 -0.08928656779503633 -0.02413814684952308 -0.0170408157436229 -0.0212855900963568 
-0.07306192810688145 -0.1756395117851351 -0.002489153207783765 0.552469534930638 -0.1325533449412374 -0.1265944937357175 -0.006791271107991013 
-0.02528209137689821 -0.00640915688806212 -0.3029732837098969 -0.002229871489462091 0.6079724697142895 -0.09249498716833419 -0.1373991531667207 
0.04114948261348671 -0.002205852185937702 -0.0002513797188431598 -0.0006800603915062775 -0.02688098968392504 -0.0001775889247966419 -0.001163626287648649 
0.05950211774241162 -0.005043465989884514 -0.004991759569247156 -0.009230162119594256 -0.02840062678911556 -0.00633893896735957 -0.01807281755357614 
0.01774480252430803 -0.003700586156768254 -0.001481692108019343 -0.003808554738704891 -0.009809157314905982 -0.001646235072613635 -0.005333300469261208 
0.02532748922148557 -0.007530488847600293 -0.003204698351798916 -0.00786462735534626 -0.02590155694278057 -0.007903958862288962 -0.01016998115577217 
0.00535274426786396 -0.003765616744853256 -0.003749571084204834 -0.004785457453623963 -0.004489064023102531 -0.004800362617702467 -0.004196308745098643 
0.03712092817811179 -0.005566546963109698 -0.004186126425347107 -0.004310264908753063 -0.004761275604496098 -0.006643634176835537 -0.01323917286118401 
0.03393766406893915 -0.01205719571458219 -0.006673872309454753 -0.006764306280644492 -0.008592369852130886 -0.005453189247506272 -0.003754519746686411 
0.006881504093225803 -0.003456918541816667 -0.003428888496121307 -0.005864159241440953 -0.001726919495010807 -0.007456259869075177 -0.005467981309504177 
0.000233720934705621 -0.000428442718576207 -0.0001787609484973165 -0.0006658228641553004 -0.000231709158229644 -0.0005354379837248297 -0.0001900739511687722 
0.003180951865044528 -0.0007586787024439419 -0.001866413469289412 -0.005181831541471285 -0.008204956871175256 -0.005535324587609399 -0.005103323578678839 
0.005213615330154524 -9.805330724226179e-05 -0.0001008674409435486 -0.008671349377200311 -0.0005227116330582674 -0.004681192293636853 -0.0003701592286900304 
0.00771477087283132 -0.0002510268844775702 -0.001115918705741006 -0.003812841345781293 -0.005835432077088124 -0.0008418032572880935 -0.0009480704752518072 
0.0008147049844708827 -0.000596534908625484 -0.001450383808642315 -0.001436926644348221 -0.001517343486140995 -0.0003216788551940272 -0.0009984761758250295 
0.01929085913063846 -0.0001072269722312834 -0.01281335820472138 -0.0001298355687454949 -0.01524448947716661 -2.568697195004288e-05 -0.01950316114284719 
0.001277288345913178 -0.001154762117281353 -0.000746521684615122 -0.0005250755062151225 -0.001164852180493584 -0.0001995780252989732 -0.0006056556383127619 
-0.3240634372435642 -0.03884916724342596 -0.006035303751342889 0.6932945614809414 -0.02453219692216277 -0.09880629437676819 -0.012390660896882 
0.004210619170666933 -0.003007685319032362 -0.002491209173469199 -0.001049314372178527 -0.002280131609087187 -0.001309477620852767 -0.003600766600418674 
0.004681625614135842 -0.0009757756173081226 -0.001018789014497956 -0.001272539087698299 -0.0006923816362523972 -0.002580249450928229 -0.004065774769124183 
0.007701446179144702 -0.001390049066491796 -0.001474971028018836 -0.00450061411018063 -0.003622771408588089 -0.002569597924238927 -0.004189607086105498 
0.01391061875646198 -0.0007793182690388814 -0.0002066765384834143 -0.004696385295873478 -0.0009548909429830489 -0.001286217117667385 -0.0003567282777330353 
0.00544087898660801 -0.0001978849691690267 -0.0002798903663252193 -0.0001432329761520396 -0.004949808539981072 -6.108108563939136e-05 -0.0004065846852438045 
0.003102465567214918 -5.313546857128683e-05 -0.001122062112894011 -8.984272268837343e-05 -0.002919028659520729 -3.137887314682133e-05 -0.003997040048433201 
0.00867762999722182 -0.006653344855379463 -0.003721575768921603 -0.00689425619973263 -0.004368366879156828 -0.009214611443634748 -0.003439294860907334 
0.01358243330417219 -0.00828136781972133 -0.004964798753166319 -0.004785707081096048 -0.008976243901290568 -0.005319839278218529 -0.003931030858007815 
0.00103931999492783 -0.002170256653566563 -0.000825023272400531 -0.001218256577371317 -0.001238397193025729 -0.0006591400308918841 -0.0008438494077678459 
0.01745845442842546 -0.03246814195465678 -0.003323966779045899 -0.02242812193678485 -0.01382982844379178 -0.01513873861002864 -0.008370714403571294 
0.4507995790347387 -0.2122524820779048 -0.008448755962689779 -0.02743651975999202 -0.04874128904081201 -0.1675065372167823 -0.02600683942875398 
0.07156722153032129 -0.02779829877268055 -0.04098738471440836 -0.0133562376255572 -0.04921417801508759 -0.006399826389024408 -0.01648954206279141 
0.005259063925735598 -0.0005530634039125148 -0.0004019538569258615 -0.002323825808531571 -0.004814322007894122 -0.003890829908596903 -0.002876770020038139 
0.004503776645388403 -0.0002495839131771539 -0.0005456174126251794 -0.002265431934584341 -0.002828062021351978 -0.001797716739598409 -0.003078657020563114 
0.003768250216154709 -0.001569372358525554 -0.0002397733197009533 -0.001404387802379519 -0.001302173971153845 -0.003364231184170482 -0.0005598970744043024 
0.009978575364275205 -0.02859348705124513 -0.002812803213433612 -0.0052503115394844 -0.00438453460970688 -0.006601547042178761 -0.00413898224274869 
0.1495816701101746 -0.1432094694624796 -0.04751027202627178 -0.07817238041891893 -0.01500532626172228 -0.05279748977858915 -0.0170233492982014 
0.0006089572480279638 -0.01247839526919938 -0.002167800506941841 -0.004117092030352115 -0.001242752760162976 -0.004501116422616584 -0.001636813476082576 
0.01155568352159338 -4.887496824771498e-05 -0.0003588480616697251 -0.003711389421924124 -0.0005277693145802643 -0.004545273565725588 -0.0005827025689300634 
0.007389065898224019 -0.0007674293309554836 -0.0005923695212920367 -0.0007026700938035504 -0.0006809442998871564 -0.0006143079100088221 -0.002864141811227592 
0.002435877282846048 -0.0001037447946388959 -9.596236928337019e-05 -0.00108935507361824 -0.0003956979098335269 -0.001595891579024685 -0.0002638098860490773 
0.1471659776374476 -0.05568696298301067 -0.2401043626321464 0.736919380046245 -0.4642352940538761 -0.1213471637421569 -0.1220231370974281 
-0.253727991006581 -0.0004407987756561589 -0.07656152788512775 -0.0009774660127451903 0.3738090055348806 -0.002016465337087369 -0.1877245171811911 
0.4731019408524223 -0.02676742129414293 -0.001782262312486434 -0.3568828087257428 -0.01004512027440976 -0.1078467260759941 -0.001807825988093696 
1.163749061961321 -0.06535659747451104 -0.4835173343574915 -0.005853754339770163 -0.1711493503407172 -0.01231806799036003 -0.1904949858262049 
0.04164035526682041 -0.0001214958133183926 -0.01924588858299298 -0.0003397206464378476 -0.01295106886022515 -0.0001310406972847275 -0.04492968766516497 
0.8126961520513815 -0.1232097062015717 -0.005122536399707748 -0.2994782976941776 -0.1070578220725073 -0.1876518946291922 -0.004459847071739159 
0.0445913698595598 -0.02680211334547386 -0.003492779535167072 -0.01867669163401092 -0.02800943787746542 -0.03552684816597974 -0.01027147885226017 
-0.3623515702157512 -0.01691829696149771 -0.0166853759983171 -0.01989877376675976 -0.02612896305096532 0.423654727027114 -0.01643124108992033 
0.04393740692429082 -0.008130938743724499 -0.01255152467382766 -0.01191143454252401 -0.0254856157020585 -0.01214294837464936 -0.01852518998444046 
0.004910207212116771 -0.0001680340921820104 -0.001055883702430147 -0.007334331480131069 -0.002368803557285705 -0.000750399566254718 -0.0004046142044279639 
0.02768576955945432 -0.001297237887343962 -0.0002243371124768894 -0.0006053947089782308 -0.02305688970572378 -0.0001721666706867788 -0.002149839312496982 
0.01618546369970385 -0.001315204333262141 -0.0001551311658459497 -0.009464519553600857 -0.0003192966810605944 -0.005462090180905577 -0.0006675666456115454 
0.0120493762146112 -0.01147310110888611 -0.009953848478518983 -0.01392508023391648 -0.008455575189924042 -0.02264252721191005 -0.0153373033994003 
0.008605566386050629 -0.003920037158628291 -0.006908404129778539 -0.003818646119686409 -0.003811786713284456 -0.00673433435656931 -0.01722269931985435 
0.01418994207083092 -0.02335000953131986 -0.004559472421194217 -0.02622687750632949 -0.00522550491758824 -0.009421554864809134 -0.005668979866689617 
0.03994834782439888 -0.02744814964328091 -0.0159375363291217 -0.03343663499494661 -0.03155790804063324 -0.01621654948348807 -0.01306136244368527 
0.249228290739319 -0.006753845312012735 -0.01101374624447589 -0.06811377519810172 -0.06893801196440495 -0.1085474574475869 -0.03297608794884752 
0.05295508155380893 -0.01752867442429414 -0.0093839294459022 -0.02097349625509565 -0.03862310966257742 -0.02499656725864197 -0.01333308572481348 
0.02342015871341362 -0.001144867771501757 -0.002229468371443009 -0.02688397454649282 -0.006720790196601831 -0.01376923230180037 -0.006065568749625984 
0.01186206220551777 -0.01943886881838933 -0.01258392325169453 -0.005449205133536235 -0.01081892535557089 -0.002556579039146533 -0.005671877677949879 
0.04363497877204389 -0.002334906571427168 -0.0004194278631608478 -0.04127512300874952 -0.00303434989417676 -0.01917877522942563 -0.002209563521737509 
0.01991929739218071 -0.005811462534534495 -0.004971939600009748 -0.003624296164860993 -0.005539070660021221 -0.002075592139701606 -0.007376313695021819 
0.008791181369033986 -0.004490641262933116 -0.001584474367308228 -0.001786413014519822 -0.001919960935085626 -0.001558238901040008 -0.003559678056276339 
0.007181856158161934 -0.00164567144758857 -0.001482229008354732 -0.009168239850358653 -0.003294535049169685 -0.00347446464302427 -0.003693817727415345 
0.008191028275741415 -0.0003512298893402575 -8.664966389732849e-05 -0.00223894415194604 -0.01335686812969717 -0.0008794288613494675 -0.001657426202751587 
0.003745082685942462 -0.001256322903254244 -0.0008676319561462856 -0.0006472865977586486 -0.005853150956487049 -0.0004161676530285399 -0.0007788572083260172 
0.008801492062213433 -0.000296721076090864 -0.0003706409343457149 -0.0003489348118322675 -0.00977093934228943 -0.0003770466059640634 -0.001826521970348195 
0.0004301957805330452 -0.0006933071537443838 -0.002101099126199869 -0.001073608398807816 -0.0008407269947666844 -0.0008894939400505236 -0.003900365614814046 
0.0002737274397657651 -0.000297591911131814 -0.0001431251153628944 -0.0008617226854354733 -0.0002509230401672842 -0.0008935477357691074 -0.0003617317881502055 
0.001840715282388846 -0.001610976980837761 -7.908430545776827e-05 -0.003024285977079212 -0.0003714732870971972 -0.003917557810424532 -0.0005895413316758323 
