solver_type L2R_LR
nr_class 7
label 0 1 2 5 6 3 4
nr_feature 19759
bias -1
w
-0.3149858784399429 -2.396161829158715 -1.70685098528328 -3.21873756569452 -3.103782155291499 -1.851303173147876 -3.898020481081724 
0 0 0 0 0 0 0 
0 0 0 0 0 0 0 
0 0 0 0 0 0 0 
0 0 0 0 0 0 0 
0 0 0 0 0 0 0 
0 0 0 0 0 0 0 
0 0 0 0 0 0 0 
0 0 0 0 0 0 0 
0 0 0 0 0 0 0 
0 0 0 0 0 0 0 
0 0 0 0 0 0 0 
0 0 0 0 0 0 0 
0 0 0 0 0 0 0 
0 0 0 0 0 0 0 
0 0 0 0 0 0 0 
0 0 0 0 0 0 0 
0 0 0 0 0 0 0 
0 0 0 0 0 0 0 
0 0 0 0 0 0 0 
0 0 0 0 0 0 0 
0.4010452955077748 -0.4010526527482989 -0.4010553811010104 -0.4010540690996282 -0.4010535570434199 -0.4010574167581767 -0.4010560838267494 
0 0 0 0 0 0 0 
0 0 0 0 0 0 0 
-0.4010452955077748 0.4010526527482989 -0.4010553811010104 -0.4010540690996282 -0.4010535570434199 -0.4010574167581767 -0.4010560838267494 
0 0 0 0 0 0 0 
0 0 0 0 0 0 0 
-0.4010452955077748 -0.4010526527482989 0.4010553811010104 -0.4010540690996282 -0.4010535570434199 -0.4010574167581767 -0.4010560838267494 
0 0 0 0 0 0 0 
0 0 0 0 0 0 0 
-0.4010452955077748 -0.4010526527482989 -0.4010553811010104 -0.4010540690996282 -0.4010535570434199 -0.4010574167581767 0.4010560838267494 
0 0 0 0 0 0 0 
0 0 0 0 0 0 0 
0.6748329097477844 -0.6748316185217866 -0.6748311033876426 -0.6748316165636773 -0.6748307404249336 -0.6748316396358656 -0.6748316142319828 
0 0 0 0 0 0 0 
0 0 0 0 0 0 0 
1.392770886903146 -1.392769745545703 -1.392759353909433 -1.392768959140099 -1.392760512220215 -1.392769223227085 -1.392769713338234 
0 0 0 0 0 0 0 
0 0 0 0 0 0 0 
0.4010452955077748 -0.4010526527482989 -0.4010553811010104 -0.4010540690996282 -0.4010535570434199 -0.4010574167581767 -0.4010560838267494 
0 0 0 0 0 0 0 
0 0 0 0 0 0 0 
0.4010452955077748 -0.4010526527482989 -0.4010553811010104 -0.4010540690996282 -0.4010535570434199 -0.4010574167581767 -0.4010560838267494 
0 0 0 0 0 0 0 
0 0 0 0 0 0 0 
0.4010452955077748 -0.4010526527482989 -0.4010553811010104 -0.4010540690996282 -0.4010535570434199 -0.4010574167581767 -0.4010560838267494 
0 0 0 0 0 0 0 
0 0 0 0 0 0 0 
0.6748329097477844 -0.6748316185217866 -0.6748311033876426 -0.6748316165636773 -0.6748307404249336 -0.6748316396358656 -0.6748316142319828 
0 0 0 0 0 0 0 
0 0 0 0 0 0 0 
0.4010452955077748 -0.4010526527482989 -0.4010553811010104 -0.4010540690996282 -0.4010535570434199 -0.4010574167581767 -0.4010560838267494 
0 0 0 0 0 0 0 
0 0 0 0 0 0 0 
0.4010452955077748 -0.4010526527482989 -0.4010553811010104 -0.4010540690996282 -0.4010535570434199 -0.4010574167581767 -0.4010560838267494 
0 0 0 0 0 0 0 
0 0 0 0 0 0 0 
-0.4010452955077748 -0.4010526527482989 -0.4010553811010104 0.4010540690996282 -0.4010535570434199 -0.4010574167581767 -0.4010560838267494 
0 0 0 0 0 0 0 
0 0 0 0 0 0 0 
0.4010452955077748 -0.4010526527482989 -0.4010553811010104 -0.4010540690996282 -0.4010535570434199 -0.4010574167581767 -0.4010560838267494 
0 0 0 0 0 0 0 
0 0 0 0 0 0 0 
0.4010452955077748 -0.4010526527482989 -0.4010553811010104 -0.4010540690996282 -0.4010535570434199 -0.4010574167581767 -0.4010560838267494 
0 0 0 0 0 0 0 
0 0 0 0 0 0 0 
0.4010452955077748 -0.4010526527482989 -0.4010553811010104 -0.4010540690996282 -0.4010535570434199 -0.4010574167581767 -0.4010560838267494 
0 0 0 0 0 0 0 
0 0 0 0 0 0 0 
0.4010452955077748 -0.4010526527482989 -0.4010553811010104 -0.4010540690996282 -0.4010535570434199 -0.4010574167581767 -0.4010560838267494 
0 0 0 0 0 0 0 
0 0 0 0 0 0 0 
-0.6806195838000626 0.6806190998435032 -1.177504428153977 -1.17750539606572 -1.177504850507587 -1.177505416561325 -1.1775054958263 
0 0 0 0 0 0 0 
0 0 0 0 0 0 0 
0.4010452955077748 -0.4010526527482989 -0.4010553811010104 -0.4010540690996282 -0.4010535570434199 -0.4010574167581767 -0.4010560838267494 
0 0 0 0 0 0 0 
0 0 0 0 0 0 0 
0.6748329097477844 -0.6748316185217866 -0.6748311033876426 -0.6748316165636773 -0.6748307404249336 -0.6748316396358656 -0.6748316142319828 
0 0 0 0 0 0 0 
0 0 0 0 0 0 0 
0.4010452955077748 -0.4010526527482989 -0.4010553811010104 -0.4010540690996282 -0.4010535570434199 -0.4010574167581767 -0.4010560838267494 
0 0 0 0 0 0 0 
0 0 0 0 0 0 0 
1.177505205490719 -1.177505387553668 -1.177504428153977 -1.17750539606572 -1.177504850507587 -1.177505416561325 -1.1775054958263 
0 0 0 0 0 0 0 
0 0 0 0 0 0 0 
-0.4010452955077748 -0.4010526527482989 0.4010553811010104 -0.4010540690996282 -0.4010535570434199 -0.4010574167581767 -0.4010560838267494 
0 0 0 0 0 0 0 
0 0 0 0 0 0 0 
0.6748329097477844 -0.6748316185217866 -0.6748311033876426 -0.6748316165636773 -0.6748307404249336 -0.6748316396358656 -0.6748316142319828 
0 0 0 0 0 0 0 
0 0 0 0 0 0 0 
1.461024966840735 -2.403744383247752 -2.403762222243447 -1.461022323567331 -2.403743333504893 -2.403737799614913 -2.403743039791036 
0 0 0 0 0 0 0 
0 0 0 0 0 0 0 
0.4010452955077748 -0.4010526527482989 -0.4010553811010104 -0.4010540690996282 -0.4010535570434199 -0.4010574167581767 -0.4010560838267494 
0 0 0 0 0 0 0 
0 0 0 0 0 0 0 
0.6748329097477844 -0.6748316185217866 -0.6748311033876426 -0.6748316165636773 -0.6748307404249336 -0.6748316396358656 -0.6748316142319828 
0 0 0 0 0 0 0 
0 0 0 0 0 0 0 
-0.6748329097477844 -0.6748316185217866 -0.6748311033876426 -0.6748316165636773 0.6748307404249336 -0.6748316396358656 -0.6748316142319828 
0 0 0 0 0 0 0 
0 0 0 0 0 0 0 
0.4010452955077748 -0.4010526527482989 -0.4010553811010104 -0.4010540690996282 -0.4010535570434199 -0.4010574167581767 -0.4010560838267494 
0 0 0 0 0 0 0 
0 0 0 0 0 0 0 
-0.4010452955077748 0.4010526527482989 -0.4010553811010104 -0.4010540690996282 -0.4010535570434199 -0.4010574167581767 -0.4010560838267494 
0 0 0 0 0 0 0 
0 0 0 0 0 0 0 
0.8797121232472404 -0.879712253251313 -0.8797133379183317 -0.8797122328115964 -0.8797110704751745 -0.8797122616242716 -0.8797122024886205 
0 0 0 0 0 0 0 
0 0 0 0 0 0 0 
0.4010452955077748 -0.4010526527482989 -0.4010553811010104 -0.4010540690996282 -0.4010535570434199 -0.4010574167581767 -0.4010560838267494 
0 0 0 0 0 0 0 
0 0 0 0 0 0 0 
0.4010452955077748 -0.4010526527482989 -0.4010553811010104 -0.4010540690996282 -0.4010535570434199 -0.4010574167581767 -0.4010560838267494 
0 0 0 0 0 0 0 
0 0 0 0 0 0 0 
0.4010452955077748 -0.4010526527482989 -0.4010553811010104 -0.4010540690996282 -0.4010535570434199 -0.4010574167581767 -0.4010560838267494 
0 0 0 0 0 0 0 
0 0 0 0 0 0 0 
0.4010452955077748 -0.4010526527482989 -0.4010553811010104 -0.4010540690996282 -0.4010535570434199 -0.4010574167581767 -0.4010560838267494 
0 0 0 0 0 0 0 
0 0 0 0 0 0 0 
0.4010452955077748 -0.4010526527482989 -0.4010553811010104 -0.4010540690996282 -0.4010535570434199 -0.4010574167581767 -0.4010560838267494 
0 0 0 0 0 0 0 
0 0 0 0 0 0 0 
0.4010452955077748 -0.4010526527482989 -0.4010553811010104 -0.4010540690996282 -0.4010535570434199 -0.4010574167581767 -0.4010560838267494 
0 0 0 0 0 0 0 
0 0 0 0 0 0 0 
0.6748329097477844 -0.6748316185217866 -0.6748311033876426 -0.6748316165636773 -0.6748307404249336 -0.6748316396358656 -0.6748316142319828 
0 0 0 0 0 0 0 
0 0 0 0 0 0 0 
0.6748329097477844 -0.6748316185217866 -0.6748311033876426 -0.6748316165636773 -0.6748307404249336 -0.6748316396358656 -0.6748316142319828 
0 0 0 0 0 0 0 
0 0 0 0 0 0 0 
0.4010452955077748 -0.4010526527482989 -0.4010553811010104 -0.4010540690996282 -0.4010535570434199 -0.4010574167581767 -0.4010560838267494 
0 0 0 0 0 0 0 
0 0 0 0 0 0 0 
0.4010452955077748 -0.4010526527482989 -0.4010553811010104 -0.4010540690996282 -0.4010535570434199 -0.4010574167581767 -0.4010560838267494 
0 0 0 0 0 0 0 
0 0 0 0 0 0 0 
0.4010452955077748 -0.4010526527482989 -0.4010553811010104 -0.4010540690996282 -0.4010535570434199 -0.4010574167581767 -0.4010560838267494 
0 0 0 0 0 0 0 
0 0 0 0 0 0 0 
0.4010452955077748 -0.4010526527482989 -0.4010553811010104 -0.4010540690996282 -0.4010535570434199 -0.4010574167581767 -0.4010560838267494 
0 0 0 0 0 0 0 
0 0 0 0 0 0 0 
-1.042597147498205 -1.042596809626519 -1.042599201976554 -0.5052401105386717 -1.042597252286519 0.5052401152285965 -1.042596684370951 
0 0 0 0 0 0 0 
0 0 0 0 0 0 0 
0.4010452955077748 -0.4010526527482989 -0.4010553811010104 -0.4010540690996282 -0.4010535570434199 -0.4010574167581767 -0.4010560838267494 
0 0 0 0 0 0 0 
0 0 0 0 0 0 0 
0.4010452955077748 -0.4010526527482989 -0.4010553811010104 -0.4010540690996282 -0.4010535570434199 -0.4010574167581767 -0.4010560838267494 
0 0 0 0 0 0 0 
0 0 0 0 0 0 0 
0.4010452955077748 -0.4010526527482989 -0.4010553811010104 -0.4010540690996282 -0.4010535570434199 -0.4010574167581767 -0.4010560838267494 
0 0 0 0 0 0 0 
0 0 0 0 0 0 0 
0.4010452955077748 -0.4010526527482989 -0.4010553811010104 -0.4010540690996282 -0.4010535570434199 -0.4010574167581767 -0.4010560838267494 
0 0 0 0 0 0 0 
0 0 0 0 0 0 0 
0.4010452955077748 -0.4010526527482989 -0.4010553811010104 -0.4010540690996282 -0.4010535570434199 -0.4010574167581767 -0.4010560838267494 
0 0 0 0 0 0 0 
0 0 0 0 0 0 0 
0.4010452955077748 -0.4010526527482989 -0.4010553811010104 -0.4010540690996282 -0.4010535570434199 -0.4010574167581767 -0.4010560838267494 
0 0 0 0 0 0 0 
0 0 0 0 0 0 0 
0.4010452955077748 -0.4010526527482989 -0.4010553811010104 -0.4010540690996282 -0.4010535570434199 -0.4010574167581767 -0.4010560838267494 
0 0 0 0 0 0 0 
0 0 0 0 0 0 0 
0.4010452955077748 -0.4010526527482989 -0.4010553811010104 -0.4010540690996282 -0.4010535570434199 -0.4010574167581767 -0.4010560838267494 
0 0 0 0 0 0 0 
0 0 0 0 0 0 0 
1.042597147498205 -1.042596809626519 -1.042599201976554 -1.042596787718087 -1.042597252286519 -1.042596793298014 -1.042596684370951 
0 0 0 0 0 0 0 
0 0 0 0 0 0 0 
1.292540425208189 -1.292541061999043 -1.292534736928729 -1.292540860442763 -1.29253675641538 -1.292541027544283 -1.292541323789986 
0 0 0 0 0 0 0 
0 0 0 0 0 0 0 
-0.6806195838000626 -1.177505387553668 -1.177504428153977 0.6806187787560763 -1.177504850507587 -1.177505416561325 -1.1775054958263 
0 0 0 0 0 0 0 
0 0 0 0 0 0 0 
-0.6748329097477844 0.6748316185217866 -0.6748311033876426 -0.6748316165636773 -0.6748307404249336 -0.6748316396358656 -0.6748316142319828 
0 0 0 0 0 0 0 
0 0 0 0 0 0 0 
0.6748329097477844 -0.6748316185217866 -0.6748311033876426 -0.6748316165636773 -0.6748307404249336 -0.6748316396358656 -0.6748316142319828 
0 0 0 0 0 0 0 
0 0 0 0 0 0 0 
0.6748329097477844 -0.6748316185217866 -0.6748311033876426 -0.6748316165636773 -0.6748307404249336 -0.6748316396358656 -0.6748316142319828 
0 0 0 0 0 0 0 
0 0 0 0 0 0 0 
0.4010452955077748 -0.4010526527482989 -0.4010553811010104 -0.4010540690996282 -0.4010535570434199 -0.4010574167581767 -0.4010560838267494 
0 0 0 0 0 0 0 
0 0 0 0 0 0 0 
0.6748329097477844 -0.6748316185217866 -0.6748311033876426 -0.6748316165636773 -0.6748307404249336 -0.6748316396358656 -0.6748316142319828 
0 0 0 0 0 0 0 
0 0 0 0 0 0 0 
-0.4010452955077748 0.4010526527482989 -0.4010553811010104 -0.4010540690996282 -0.4010535570434199 -0.4010574167581767 -0.4010560838267494 
0 0 0 0 0 0 0 
0 0 0 0 0 0 0 
3.382621335523964 -3.382663904205504 -3.382703686693675 -3.382672172264752 -3.382670067694867 -3.382669449825418 -3.382654746188632 
0 0 0 0 0 0 0 
0 0 0 0 0 0 0 
0.4010452955077748 -0.4010526527482989 -0.4010553811010104 -0.4010540690996282 -0.4010535570434199 -0.4010574167581767 -0.4010560838267494 
0 0 0 0 0 0 0 
0 0 0 0 0 0 0 
-0.4010452955077748 -0.4010526527482989 -0.4010553811010104 -0.4010540690996282 -0.4010535570434199 -0.4010574167581767 0.4010560838267494 
0 0 0 0 0 0 0 
0 0 0 0 0 0 0 
0.8797121232472404 -0.879712253251313 -0.8797133379183317 -0.8797122328115964 -0.8797110704751745 -0.8797122616242716 -0.8797122024886205 
0 0 0 0 0 0 0 
0 0 0 0 0 0 0 
1.292540425208189 -1.292541061999043 -1.292534736928729 -1.292540860442763 -1.29253675641538 -1.292541027544283 -1.292541323789986 
0 0 0 0 0 0 0 
0 0 0 0 0 0 0 
-0.4010452955077748 0.4010526527482989 -0.4010553811010104 -0.4010540690996282 -0.4010535570434199 -0.4010574167581767 -0.4010560838267494 
0 0 0 0 0 0 0 
0 0 0 0 0 0 0 
2.453902077487149 -2.45386027525025 -2.45387536537031 -2.453858584336839 -2.453859644981719 -2.453854628677988 -2.453859378788892 
0 0 0 0 0 0 0 
0 0 0 0 0 0 0 
-1.760652648558497 0.2509820523689363 -0.2509819746685955 -1.760601231818462 -1.760586439791023 -1.760598402369268 -1.760601369223137 
0 0 0 0 0 0 0 
0 0 0 0 0 0 0 
0.4010452955077748 -0.4010526527482989 -0.4010553811010104 -0.4010540690996282 -0.4010535570434199 -0.4010574167581767 -0.4010560838267494 
0 0 0 0 0 0 0 
0 0 0 0 0 0 0 
-0.4010452955077748 -0.4010526527482989 -0.4010553811010104 -0.4010540690996282 0.4010535570434199 -0.4010574167581767 -0.4010560838267494 
0 0 0 0 0 0 0 
0 0 0 0 0 0 0 
0.4010452955077748 -0.4010526527482989 -0.4010553811010104 -0.4010540690996282 -0.4010535570434199 -0.4010574167581767 -0.4010560838267494 
0 0 0 0 0 0 0 
0 0 0 0 0 0 0 
1.177505205490719 -1.177505387553668 -1.177504428153977 -1.17750539606572 -1.177504850507587 -1.177505416561325 -1.1775054958263 
0 0 0 0 0 0 0 
0 0 0 0 0 0 0 
-0.4010452955077748 -0.4010526527482989 -0.4010553811010104 -0.4010540690996282 0.4010535570434199 -0.4010574167581767 -0.4010560838267494 
0 0 0 0 0 0 0 
0 0 0 0 0 0 0 
0.4010452955077748 -0.4010526527482989 -0.4010553811010104 -0.4010540690996282 -0.4010535570434199 -0.4010574167581767 -0.4010560838267494 
0 0 0 0 0 0 0 
0 0 0 0 0 0 0 
1.392770886903146 -1.392769745545703 -1.392759353909433 -1.392768959140099 -1.392760512220215 -1.392769223227085 -1.392769713338234 
0 0 0 0 0 0 0 
0 0 0 0 0 0 0 
0.4010452955077748 -0.4010526527482989 -0.4010553811010104 -0.4010540690996282 -0.4010535570434199 -0.4010574167581767 -0.4010560838267494 
0 0 0 0 0 0 0 
0 0 0 0 0 0 0 
0.4010452955077748 -0.4010526527482989 -0.4010553811010104 -0.4010540690996282 -0.4010535570434199 -0.4010574167581767 -0.4010560838267494 
0 0 0 0 0 0 0 
0 0 0 0 0 0 0 
-0.4010452955077748 -0.4010526527482989 -0.4010553811010104 -0.4010540690996282 -0.4010535570434199 0.4010574167581767 -0.4010560838267494 
0 0 0 0 0 0 0 
0 0 0 0 0 0 0 
0.6748329097477844 -0.6748316185217866 -0.6748311033876426 -0.6748316165636773 -0.6748307404249336 -0.6748316396358656 -0.6748316142319828 
0 0 0 0 0 0 0 
0 0 0 0 0 0 0 
0 0 -0.6748311033876426 -0.6748316165636773 -0.6748307404249336 -0.6748316396358656 -0.6748316142319828 
0 0 0 0 0 0 0 
0 0 0 0 0 0 0 
0.4010452955077748 -0.4010526527482989 -0.4010553811010104 -0.4010540690996282 -0.4010535570434199 -0.4010574167581767 -0.4010560838267494 
0 0 0 0 0 0 0 
0 0 0 0 0 0 0 
0.4010452955077748 -0.4010526527482989 -0.4010553811010104 -0.4010540690996282 -0.4010535570434199 -0.4010574167581767 -0.4010560838267494 
0 0 0 0 0 0 0 
0 0 0 0 0 0 0 
1.042597147498205 -1.042596809626519 -1.042599201976554 -1.042596787718087 -1.042597252286519 -1.042596793298014 -1.042596684370951 
0 0 0 0 0 0 0 
0 0 0 0 0 0 0 
0.6748329097477844 -0.6748316185217866 -0.6748311033876426 -0.6748316165636773 -0.6748307404249336 -0.6748316396358656 -0.6748316142319828 
0 0 0 0 0 0 0 
0 0 0 0 0 0 0 
-0.4010452955077748 -0.4010526527482989 -0.4010553811010104 -0.4010540690996282 -0.4010535570434199 0.4010574167581767 -0.4010560838267494 
0 0 0 0 0 0 0 
0 0 0 0 0 0 0 
0.4010452955077748 -0.4010526527482989 -0.4010553811010104 -0.4010540690996282 -0.4010535570434199 -0.4010574167581767 -0.4010560838267494 
0 0 0 0 0 0 0 
0 0 0 0 0 0 0 
1.177505205490719 -1.177505387553668 -1.177504428153977 -1.17750539606572 -1.177504850507587 -1.177505416561325 -1.1775054958263 
0 0 0 0 0 0 0 
0 0 0 0 0 0 0 
0.4010452955077748 -0.4010526527482989 -0.4010553811010104 -0.4010540690996282 -0.4010535570434199 -0.4010574167581767 -0.4010560838267494 
0 0 0 0 0 0 0 
0 0 0 0 0 0 0 
2.090572282104922 -2.090490129004526 -2.090521145051996 -2.090484530602174 -2.090481044449653 -2.090477580327563 -2.090484463437952 
0 0 0 0 0 0 0 
0 0 0 0 0 0 0 
-0.4010452955077748 0.4010526527482989 -0.4010553811010104 -0.4010540690996282 -0.4010535570434199 -0.4010574167581767 -0.4010560838267494 
0 0 0 0 0 0 0 
0 0 0 0 0 0 0 
0.4010452955077748 -0.4010526527482989 -0.4010553811010104 -0.4010540690996282 -0.4010535570434199 -0.4010574167581767 -0.4010560838267494 
0 0 0 0 0 0 0 
0 0 0 0 0 0 0 
-0.8797121232472404 -0.879712253251313 -0.8797133379183317 -0.8797122328115964 0.8797110704751745 -0.8797122616242716 -0.8797122024886205 
0 0 0 0 0 0 0 
0 0 0 0 0 0 0 
1.919307384989375 -1.919235807399385 -1.919258184940108 -1.919229453699051 -1.919219679865774 -1.919224024093177 -1.919229194856455 
0 0 0 0 0 0 0 
0 0 0 0 0 0 0 
0.4010452955077748 -0.4010526527482989 -0.4010553811010104 -0.4010540690996282 -0.4010535570434199 -0.4010574167581767 -0.4010560838267494 
0 0 0 0 0 0 0 
0 0 0 0 0 0 0 
0.4010452955077748 -0.4010526527482989 -0.4010553811010104 -0.4010540690996282 -0.4010535570434199 -0.4010574167581767 -0.4010560838267494 
0 0 0 0 0 0 0 
0 0 0 0 0 0 0 
-0.5800985044681193 -0.1459138688103611 1.232708778107851 -0.07178990808234793 -0.07958770300200474 -0.2232006162002707 -0.03829214100698431 
0 0 0 0 0 0 0 
0 0 0 0 0 0 0 
0.4010452955077748 -0.4010526527482989 -0.4010553811010104 -0.4010540690996282 -0.4010535570434199 -0.4010574167581767 -0.4010560838267494 
0 0 0 0 0 0 0 
0 0 0 0 0 0 0 
0.8797121232472404 -0.879712253251313 -0.8797133379183317 -0.8797122328115964 -0.8797110704751745 -0.8797122616242716 -0.8797122024886205 
0 0 0 0 0 0 0 
0 0 0 0 0 0 0 
0.4010452955077748 -0.4010526527482989 -0.4010553811010104 -0.4010540690996282 -0.4010535570434199 -0.4010574167581767 -0.4010560838267494 
0 0 0 0 0 0 0 
0 0 0 0 0 0 0 
0.6748329097477844 -0.6748316185217866 -0.6748311033876426 -0.6748316165636773 -0.6748307404249336 -0.6748316396358656 -0.6748316142319828 
0 0 0 0 0 0 0 
0 0 0 0 0 0 0 
0.4010452955077748 -0.4010526527482989 -0.4010553811010104 -0.4010540690996282 -0.4010535570434199 -0.4010574167581767 -0.4010560838267494 
0 0 0 0 0 0 0 
0 0 0 0 0 0 0 
-0.4010452955077748 -0.4010526527482989 0.4010553811010104 -0.4010540690996282 -0.4010535570434199 -0.4010574167581767 -0.4010560838267494 
0 0 0 0 0 0 0 
0 0 0 0 0 0 0 
0.4010452955077748 -0.4010526527482989 -0.4010553811010104 -0.4010540690996282 -0.4010535570434199 -0.4010574167581767 -0.4010560838267494 
0 0 0 0 0 0 0 
0 0 0 0 0 0 0 
0.6748329097477844 -0.6748316185217866 -0.6748311033876426 -0.6748316165636773 -0.6748307404249336 -0.6748316396358656 -0.6748316142319828 
0 0 0 0 0 0 0 
0 0 0 0 0 0 0 
0.4010452955077748 -0.4010526527482989 -0.4010553811010104 -0.4010540690996282 -0.4010535570434199 -0.4010574167581767 -0.4010560838267494 
0 0 0 0 0 0 0 
0 0 0 0 0 0 0 
0.4010452955077748 -0.4010526527482989 -0.4010553811010104 -0.4010540690996282 -0.4010535570434199 -0.4010574167581767 -0.4010560838267494 
0 0 0 0 0 0 0 
0 0 0 0 0 0 0 
0.6748329097477844 -0.6748316185217866 -0.6748311033876426 -0.6748316165636773 -0.6748307404249336 -0.6748316396358656 -0.6748316142319828 
0 0 0 0 0 0 0 
0 0 0 0 0 0 0 
-0.6748329097477844 -0.6748316185217866 -0.6748311033876426 -0.6748316165636773 -0.6748307404249336 0.6748316396358656 -0.6748316142319828 
0 0 0 0 0 0 0 
0 0 0 0 0 0 0 
1.177505205490719 -1.177505387553668 -1.177504428153977 -1.17750539606572 -1.177504850507587 -1.177505416561325 -1.1775054958263 
0 0 0 0 0 0 0 
0 0 0 0 0 0 0 
-0.50524008503591 -1.042596809626519 -1.042599201976554 -1.042596787718087 -1.042597252286519 0.5052401152285965 -1.042596684370951 
0 0 0 0 0 0 0 
0 0 0 0 0 0 0 
-0.50524008503591 -1.042596809626519 -1.042599201976554 0.5052401105386717 -1.042597252286519 -1.042596793298014 -1.042596684370951 
0 0 0 0 0 0 0 
0 0 0 0 0 0 0 
-0.4010452955077748 -0.4010526527482989 -0.4010553811010104 -0.4010540690996282 -0.4010535570434199 0.4010574167581767 -0.4010560838267494 
0 0 0 0 0 0 0 
0 0 0 0 0 0 0 
0.4010452955077748 -0.4010526527482989 -0.4010553811010104 -0.4010540690996282 -0.4010535570434199 -0.4010574167581767 -0.4010560838267494 
0 0 0 0 0 0 0 
0 0 0 0 0 0 0 
-0.6748329097477844 -0.6748316185217866 -0.6748311033876426 0 0 -0.6748316396358656 -0.6748316142319828 
0 0 0 0 0 0 0 
0 0 0 0 0 0 0 
-0.4010452955077748 -0.4010526527482989 -0.4010553811010104 -0.4010540690996282 -0.4010535570434199 0.4010574167581767 -0.4010560838267494 
0 0 0 0 0 0 0 
0 0 0 0 0 0 0 
1.177505205490719 -1.177505387553668 -1.177504428153977 -1.17750539606572 -1.177504850507587 -1.177505416561325 -1.1775054958263 
0 0 0 0 0 0 0 
0 0 0 0 0 0 0 
0.4010452955077748 -0.4010526527482989 -0.4010553811010104 -0.4010540690996282 -0.4010535570434199 -0.4010574167581767 -0.4010560838267494 
0 0 0 0 0 0 0 
0 0 0 0 0 0 0 
0.4010452955077748 -0.4010526527482989 -0.4010553811010104 -0.4010540690996282 -0.4010535570434199 -0.4010574167581767 -0.4010560838267494 
0 0 0 0 0 0 0 
0 0 0 0 0 0 0 
0.4010452955077748 -0.4010526527482989 -0.4010553811010104 -0.4010540690996282 -0.4010535570434199 -0.4010574167581767 -0.4010560838267494 
0 0 0 0 0 0 0 
0 0 0 0 0 0 0 
-0.4010452955077748 0.4010526527482989 -0.4010553811010104 -0.4010540690996282 -0.4010535570434199 -0.4010574167581767 -0.4010560838267494 
0 0 0 0 0 0 0 
0 0 0 0 0 0 0 
0.6748329097477844 -0.6748316185217866 -0.6748311033876426 -0.6748316165636773 -0.6748307404249336 -0.6748316396358656 -0.6748316142319828 
0 0 0 0 0 0 0 
0 0 0 0 0 0 0 
0.4010452955077748 -0.4010526527482989 -0.4010553811010104 -0.4010540690996282 -0.4010535570434199 -0.4010574167581767 -0.4010560838267494 
0 0 0 0 0 0 0 
0 0 0 0 0 0 0 
0.4010452955077748 -0.4010526527482989 -0.4010553811010104 -0.4010540690996282 -0.4010535570434199 -0.4010574167581767 -0.4010560838267494 
0 0 0 0 0 0 0 
0 0 0 0 0 0 0 
0.4010452955077748 -0.4010526527482989 -0.4010553811010104 -0.4010540690996282 -0.4010535570434199 -0.4010574167581767 -0.4010560838267494 
0 0 0 0 0 0 0 
0 0 0 0 0 0 0 
-0.3414985980510538 0.8275149309029234 -0.1366345444653657 -0.03711525910427404 -0.04128414102212801 -0.1220276301876543 -0.01950254910101107 
0 0 0 0 0 0 0 
0 0 0 0 0 0 0 
-0.4010452955077748 -0.4010526527482989 0.4010553811010104 -0.4010540690996282 -0.4010535570434199 -0.4010574167581767 -0.4010560838267494 
0 0 0 0 0 0 0 
0 0 0 0 0 0 0 
0.6748329097477844 -0.6748316185217866 -0.6748311033876426 -0.6748316165636773 -0.6748307404249336 -0.6748316396358656 -0.6748316142319828 
0 0 0 0 0 0 0 
0 0 0 0 0 0 0 
0.6748329097477844 -0.6748316185217866 -0.6748311033876426 -0.6748316165636773 -0.6748307404249336 -0.6748316396358656 -0.6748316142319828 
0 0 0 0 0 0 0 
0 0 0 0 0 0 0 
0.8797121232472404 -0.879712253251313 -0.8797133379183317 -0.8797122328115964 -0.8797110704751745 -0.8797122616242716 -0.8797122024886205 
0 0 0 0 0 0 0 
0 0 0 0 0 0 0 
0.4010452955077748 -0.4010526527482989 -0.4010553811010104 -0.4010540690996282 -0.4010535570434199 -0.4010574167581767 -0.4010560838267494 
0 0 0 0 0 0 0 
0 0 0 0 0 0 0 
0.6748329097477844 -0.6748316185217866 -0.6748311033876426 -0.6748316165636773 -0.6748307404249336 -0.6748316396358656 -0.6748316142319828 
0 0 0 0 0 0 0 
0 0 0 0 0 0 0 
0.4010452955077748 -0.4010526527482989 -0.4010553811010104 -0.4010540690996282 -0.4010535570434199 -0.4010574167581767 -0.4010560838267494 
0 0 0 0 0 0 0 
0 0 0 0 0 0 0 
-0.4010452955077748 -0.4010526527482989 -0.4010553811010104 -0.4010540690996282 -0.4010535570434199 0.4010574167581767 -0.4010560838267494 
0 0 0 0 0 0 0 
0 0 0 0 0 0 0 
0.4010452955077748 -0.4010526527482989 -0.4010553811010104 -0.4010540690996282 -0.4010535570434199 -0.4010574167581767 -0.4010560838267494 
0 0 0 0 0 0 0 
0 0 0 0 0 0 0 
0.4010452955077748 -0.4010526527482989 -0.4010553811010104 -0.4010540690996282 -0.4010535570434199 -0.4010574167581767 -0.4010560838267494 
0 0 0 0 0 0 0 
0 0 0 0 0 0 0 
-0.4010452955077748 0.4010526527482989 -0.4010553811010104 -0.4010540690996282 -0.4010535570434199 -0.4010574167581767 -0.4010560838267494 
0 0 0 0 0 0 0 
0 0 0 0 0 0 0 
1.177505205490719 -1.177505387553668 -1.177504428153977 -1.17750539606572 -1.177504850507587 -1.177505416561325 -1.1775054958263 
0 0 0 0 0 0 0 
0 0 0 0 0 0 0 
2.587694389299874 -2.587660932358891 -2.587672125871884 -2.58765974805964 -2.587660819627275 -2.58765643382799 -2.58766078791314 
0 0 0 0 0 0 0 
0 0 0 0 0 0 0 
0.4010452955077748 -0.4010526527482989 -0.4010553811010104 -0.4010540690996282 -0.4010535570434199 -0.4010574167581767 -0.4010560838267494 
0 0 0 0 0 0 0 
0 0 0 0 0 0 0 
1.042597147498205 -1.042596809626519 -1.042599201976554 -1.042596787718087 -1.042597252286519 -1.042596793298014 -1.042596684370951 
0 0 0 0 0 0 0 
0 0 0 0 0 0 0 
0.4010452955077748 -0.4010526527482989 -0.4010553811010104 -0.4010540690996282 -0.4010535570434199 -0.4010574167581767 -0.4010560838267494 
0 0 0 0 0 0 0 
0 0 0 0 0 0 0 
-0.6748329097477844 -0.6748316185217866 -0.6748311033876426 -0.6748316165636773 -0.6748307404249336 0.6748316396358656 -0.6748316142319828 
0 0 0 0 0 0 0 
0 0 0 0 0 0 0 
0.4010452955077748 -0.4010526527482989 -0.4010553811010104 -0.4010540690996282 -0.4010535570434199 -0.4010574167581767 -0.4010560838267494 
0 0 0 0 0 0 0 
0 0 0 0 0 0 0 
1.392770886903146 -1.392769745545703 -1.392759353909433 -1.392768959140099 -1.392760512220215 -1.392769223227085 -1.392769713338234 
0 0 0 0 0 0 0 
0 0 0 0 0 0 0 
0.4010452955077748 -0.4010526527482989 -0.4010553811010104 -0.4010540690996282 -0.4010535570434199 -0.4010574167581767 -0.4010560838267494 
0 0 0 0 0 0 0 
0 0 0 0 0 0 0 
-0.4010452955077748 -0.4010526527482989 0.4010553811010104 -0.4010540690996282 -0.4010535570434199 -0.4010574167581767 -0.4010560838267494 
0 0 0 0 0 0 0 
0 0 0 0 0 0 0 
0.4010452955077748 -0.4010526527482989 -0.4010553811010104 -0.4010540690996282 -0.4010535570434199 -0.4010574167581767 -0.4010560838267494 
0 0 0 0 0 0 0 
0 0 0 0 0 0 0 
-0.4010452955077748 -0.4010526527482989 -0.4010553811010104 -0.4010540690996282 -0.4010535570434199 0.4010574167581767 -0.4010560838267494 
0 0 0 0 0 0 0 
0 0 0 0 0 0 0 
0.6748329097477844 -0.6748316185217866 -0.6748311033876426 -0.6748316165636773 -0.6748307404249336 -0.6748316396358656 -0.6748316142319828 
0 0 0 0 0 0 0 
0 0 0 0 0 0 0 
0.4010452955077748 -0.4010526527482989 -0.4010553811010104 -0.4010540690996282 -0.4010535570434199 -0.4010574167581767 -0.4010560838267494 
0 0 0 0 0 0 0 
0 0 0 0 0 0 0 
0.4010452955077748 -0.4010526527482989 -0.4010553811010104 -0.4010540690996282 -0.4010535570434199 -0.4010574167581767 -0.4010560838267494 
0 0 0 0 0 0 0 
0 0 0 0 0 0 0 
0.4010452955077748 -0.4010526527482989 -0.4010553811010104 -0.4010540690996282 -0.4010535570434199 -0.4010574167581767 -0.4010560838267494 
0 0 0 0 0 0 0 
0 0 0 0 0 0 0 
0.4010452955077748 -0.4010526527482989 -0.4010553811010104 -0.4010540690996282 -0.4010535570434199 -0.4010574167581767 -0.4010560838267494 
0 0 0 0 0 0 0 
0 0 0 0 0 0 0 
0.4010452955077748 -0.4010526527482989 -0.4010553811010104 -0.4010540690996282 -0.4010535570434199 -0.4010574167581767 -0.4010560838267494 
0 0 0 0 0 0 0 
0 0 0 0 0 0 0 
-0.4010452955077748 -0.4010526527482989 -0.4010553811010104 -0.4010540690996282 -0.4010535570434199 -0.4010574167581767 0.4010560838267494 
0 0 0 0 0 0 0 
0 0 0 0 0 0 0 
1.392770886903146 -1.392769745545703 -1.392759353909433 -1.392768959140099 -1.392760512220215 -1.392769223227085 -1.392769713338234 
0 0 0 0 0 0 0 
0 0 0 0 0 0 0 
0.4010452955077748 -0.4010526527482989 -0.4010553811010104 -0.4010540690996282 -0.4010535570434199 -0.4010574167581767 -0.4010560838267494 
0 0 0 0 0 0 0 
0 0 0 0 0 0 0 
1.042597147498205 -1.042596809626519 -1.042599201976554 -1.042596787718087 -1.042597252286519 -1.042596793298014 -1.042596684370951 
0 0 0 0 0 0 0 
0 0 0 0 0 0 0 
1.042597147498205 -1.042596809626519 -1.042599201976554 -1.042596787718087 -1.042597252286519 -1.042596793298014 -1.042596684370951 
0 0 0 0 0 0 0 
0 0 0 0 0 0 0 
0.4010452955077748 -0.4010526527482989 -0.4010553811010104 -0.4010540690996282 -0.4010535570434199 -0.4010574167581767 -0.4010560838267494 
0 0 0 0 0 0 0 
0 0 0 0 0 0 0 
0.4010452955077748 -0.4010526527482989 -0.4010553811010104 -0.4010540690996282 -0.4010535570434199 -0.4010574167581767 -0.4010560838267494 
0 0 0 0 0 0 0 
0 0 0 0 0 0 0 
0.6748329097477844 -0.6748316185217866 -0.6748311033876426 -0.6748316165636773 -0.6748307404249336 -0.6748316396358656 -0.6748316142319828 
0 0 0 0 0 0 0 
0 0 0 0 0 0 0 
0.6748329097477844 -0.6748316185217866 -0.6748311033876426 -0.6748316165636773 -0.6748307404249336 -0.6748316396358656 -0.6748316142319828 
0 0 0 0 0 0 0 
0 0 0 0 0 0 0 
0.4010452955077748 -0.4010526527482989 -0.4010553811010104 -0.4010540690996282 -0.4010535570434199 -0.4010574167581767 -0.4010560838267494 
0 0 0 0 0 0 0 
0 0 0 0 0 0 0 
0.4010452955077748 -0.4010526527482989 -0.4010553811010104 -0.4010540690996282 -0.4010535570434199 -0.4010574167581767 -0.4010560838267494 
0 0 0 0 0 0 0 
0 0 0 0 0 0 0 
0.4010452955077748 -0.4010526527482989 -0.4010553811010104 -0.4010540690996282 -0.4010535570434199 -0.4010574167581767 -0.4010560838267494 
0 0 0 0 0 0 0 
0 0 0 0 0 0 0 
1.177505205490719 -1.177505387553668 -1.177504428153977 -1.17750539606572 -1.177504850507587 -1.177505416561325 -1.1775054958263 
0 0 0 0 0 0 0 
0 0 0 0 0 0 0 
-0.6748329097477844 -0.6748316185217866 -0.6748311033876426 -0.6748316165636773 -0.6748307404249336 0.6748316396358656 -0.6748316142319828 
0 0 0 0 0 0 0 
0 0 0 0 0 0 0 
0.6748329097477844 -0.6748316185217866 -0.6748311033876426 -0.6748316165636773 -0.6748307404249336 -0.6748316396358656 -0.6748316142319828 
0 0 0 0 0 0 0 
0 0 0 0 0 0 0 
0.4010452955077748 -0.4010526527482989 -0.4010553811010104 -0.4010540690996282 -0.4010535570434199 -0.4010574167581767 -0.4010560838267494 
0 0 0 0 0 0 0 
0 0 0 0 0 0 0 
0.4010452955077748 -0.4010526527482989 -0.4010553811010104 -0.4010540690996282 -0.4010535570434199 -0.4010574167581767 -0.4010560838267494 
0 0 0 0 0 0 0 
0 0 0 0 0 0 0 
0.4010452955077748 -0.4010526527482989 -0.4010553811010104 -0.4010540690996282 -0.4010535570434199 -0.4010574167581767 -0.4010560838267494 
0 0 0 0 0 0 0 
0 0 0 0 0 0 0 
1.177505205490719 -1.177505387553668 -1.177504428153977 -1.17750539606572 -1.177504850507587 -1.177505416561325 -1.1775054958263 
0 0 0 0 0 0 0 
0 0 0 0 0 0 0 
0.4010452955077748 -0.4010526527482989 -0.4010553811010104 -0.4010540690996282 -0.4010535570434199 -0.4010574167581767 -0.4010560838267494 
0 0 0 0 0 0 0 
0 0 0 0 0 0 0 
0.6748329097477844 -0.6748316185217866 -0.6748311033876426 -0.6748316165636773 -0.6748307404249336 -0.6748316396358656 -0.6748316142319828 
0 0 0 0 0 0 0 
0 0 0 0 0 0 0 
0.4010452955077748 -0.4010526527482989 -0.4010553811010104 -0.4010540690996282 -0.4010535570434199 -0.4010574167581767 -0.4010560838267494 
0 0 0 0 0 0 0 
0 0 0 0 0 0 0 
0.4010452955077748 -0.4010526527482989 -0.4010553811010104 -0.4010540690996282 -0.4010535570434199 -0.4010574167581767 -0.4010560838267494 
0 0 0 0 0 0 0 
0 0 0 0 0 0 0 
0.4010452955077748 -0.4010526527482989 -0.4010553811010104 -0.4010540690996282 -0.4010535570434199 -0.4010574167581767 -0.4010560838267494 
0 0 0 0 0 0 0 
0 0 0 0 0 0 0 
1.392770886903146 -1.392769745545703 -1.392759353909433 -1.392768959140099 -1.392760512220215 -1.392769223227085 -1.392769713338234 
0 0 0 0 0 0 0 
0 0 0 0 0 0 0 
-0.4010452955077748 -0.4010526527482989 -0.4010553811010104 -0.4010540690996282 -0.4010535570434199 0.4010574167581767 -0.4010560838267494 
0 0 0 0 0 0 0 
0 0 0 0 0 0 0 
1.042597147498205 -1.042596809626519 -1.042599201976554 -1.042596787718087 -1.042597252286519 -1.042596793298014 -1.042596684370951 
0 0 0 0 0 0 0 
0 0 0 0 0 0 0 
0.8797121232472404 -0.879712253251313 -0.8797133379183317 -0.8797122328115964 -0.8797110704751745 -0.8797122616242716 -0.8797122024886205 
0 0 0 0 0 0 0 
0 0 0 0 0 0 0 
-0.4010452955077748 -0.4010526527482989 -0.4010553811010104 -0.4010540690996282 -0.4010535570434199 0.4010574167581767 -0.4010560838267494 
0 0 0 0 0 0 0 
0 0 0 0 0 0 0 
-0.4010452955077748 0.4010526527482989 -0.4010553811010104 -0.4010540690996282 -0.4010535570434199 -0.4010574167581767 -0.4010560838267494 
0 0 0 0 0 0 0 
0 0 0 0 0 0 0 
2.607964465651232 -2.607930707090362 -2.607941831182242 -2.607929518908154 -2.607930629704794 -2.60792616966891 -2.607930651021739 
0 0 0 0 0 0 0 
0 0 0 0 0 0 0 
0.4010452955077748 -0.4010526527482989 -0.4010553811010104 -0.4010540690996282 -0.4010535570434199 -0.4010574167581767 -0.4010560838267494 
0 0 0 0 0 0 0 
0 0 0 0 0 0 0 
2.932735897401082 -2.932650302184701 -2.932663921475449 -2.932646087150285 -2.932649400574811 -2.932639275183684 -2.932654361206884 
0 0 0 0 0 0 0 
0 0 0 0 0 0 0 
-0.3414985980510538 -0.07770368145879883 0.7270366367432638 -0.03711525910427404 -0.04128414102212801 -0.1220276301876543 -0.01950254910101107 
0 0 0 0 0 0 0 
0 0 0 0 0 0 0 
0.6748329097477844 -0.6748316185217866 -0.6748311033876426 -0.6748316165636773 -0.6748307404249336 -0.6748316396358656 -0.6748316142319828 
0 0 0 0 0 0 0 
0 0 0 0 0 0 0 
0.4010452955077748 -0.4010526527482989 -0.4010553811010104 -0.4010540690996282 -0.4010535570434199 -0.4010574167581767 -0.4010560838267494 
0 0 0 0 0 0 0 
0 0 0 0 0 0 0 
0.4010452955077748 -0.4010526527482989 -0.4010553811010104 -0.4010540690996282 -0.4010535570434199 -0.4010574167581767 -0.4010560838267494 
0 0 0 0 0 0 0 
0 0 0 0 0 0 0 
1.817196580856578 -1.817140557512015 -1.817152903791885 -1.81713464896837 -1.817121300166766 -1.817130863698257 -1.817134595146626 
0 0 0 0 0 0 0 
0 0 0 0 0 0 0 
0.4010452955077748 -0.4010526527482989 -0.4010553811010104 -0.4010540690996282 -0.4010535570434199 -0.4010574167581767 -0.4010560838267494 
0 0 0 0 0 0 0 
0 0 0 0 0 0 0 
0.4010452955077748 -0.4010526527482989 -0.4010553811010104 -0.4010540690996282 -0.4010535570434199 -0.4010574167581767 -0.4010560838267494 
0 0 0 0 0 0 0 
0 0 0 0 0 0 0 
-0.4010452955077748 -0.4010526527482989 0.4010553811010104 -0.4010540690996282 -0.4010535570434199 -0.4010574167581767 -0.4010560838267494 
0 0 0 0 0 0 0 
0 0 0 0 0 0 0 
0.4010452955077748 -0.4010526527482989 -0.4010553811010104 -0.4010540690996282 -0.4010535570434199 -0.4010574167581767 -0.4010560838267494 
0 0 0 0 0 0 0 
0 0 0 0 0 0 0 
0.4010452955077748 -0.4010526527482989 -0.4010553811010104 -0.4010540690996282 -0.4010535570434199 -0.4010574167581767 -0.4010560838267494 
0 0 0 0 0 0 0 
0 0 0 0 0 0 0 
0.4010452955077748 -0.4010526527482989 -0.4010553811010104 -0.4010540690996282 -0.4010535570434199 -0.4010574167581767 -0.4010560838267494 
0 0 0 0 0 0 0 
0 0 0 0 0 0 0 
0.6748329097477844 -0.6748316185217866 -0.6748311033876426 -0.6748316165636773 -0.6748307404249336 -0.6748316396358656 -0.6748316142319828 
0 0 0 0 0 0 0 
0 0 0 0 0 0 0 
0.4010452955077748 -0.4010526527482989 -0.4010553811010104 -0.4010540690996282 -0.4010535570434199 -0.4010574167581767 -0.4010560838267494 
0 0 0 0 0 0 0 
0 0 0 0 0 0 0 
-0.4010452955077748 -0.4010526527482989 -0.4010553811010104 -0.4010540690996282 -0.4010535570434199 -0.4010574167581767 0.4010560838267494 
0 0 0 0 0 0 0 
0 0 0 0 0 0 0 
-0.50524008503591 -1.042596809626519 -1.042599201976554 -1.042596787718087 0.5052400056836366 -1.042596793298014 -1.042596684370951 
0 0 0 0 0 0 0 
0 0 0 0 0 0 0 
0.4010452955077748 -0.4010526527482989 -0.4010553811010104 -0.4010540690996282 -0.4010535570434199 -0.4010574167581767 -0.4010560838267494 
0 0 0 0 0 0 0 
0 0 0 0 0 0 0 
0.4010452955077748 -0.4010526527482989 -0.4010553811010104 -0.4010540690996282 -0.4010535570434199 -0.4010574167581767 -0.4010560838267494 
0 0 0 0 0 0 0 
0 0 0 0 0 0 0 
0.4010452955077748 -0.4010526527482989 -0.4010553811010104 -0.4010540690996282 -0.4010535570434199 -0.4010574167581767 -0.4010560838267494 
0 0 0 0 0 0 0 
0 0 0 0 0 0 0 
0.4010452955077748 -0.4010526527482989 -0.4010553811010104 -0.4010540690996282 -0.4010535570434199 -0.4010574167581767 -0.4010560838267494 
0 0 0 0 0 0 0 
0 0 0 0 0 0 0 
0.4010452955077748 -0.4010526527482989 -0.4010553811010104 -0.4010540690996282 -0.4010535570434199 -0.4010574167581767 -0.4010560838267494 
0 0 0 0 0 0 0 
0 0 0 0 0 0 0 
-0.4010452955077748 -0.4010526527482989 -0.4010553811010104 -0.4010540690996282 -0.4010535570434199 -0.4010574167581767 0.4010560838267494 
0 0 0 0 0 0 0 
0 0 0 0 0 0 0 
-0.4010452955077748 0.4010526527482989 -0.4010553811010104 -0.4010540690996282 -0.4010535570434199 -0.4010574167581767 -0.4010560838267494 
0 0 0 0 0 0 0 
0 0 0 0 0 0 0 
0.4010452955077748 -0.4010526527482989 -0.4010553811010104 -0.4010540690996282 -0.4010535570434199 -0.4010574167581767 -0.4010560838267494 
0 0 0 0 0 0 0 
0 0 0 0 0 0 0 
0.4010452955077748 -0.4010526527482989 -0.4010553811010104 -0.4010540690996282 -0.4010535570434199 -0.4010574167581767 -0.4010560838267494 
0 0 0 0 0 0 0 
0 0 0 0 0 0 0 
-0.4010452955077748 -0.4010526527482989 -0.4010553811010104 0.4010540690996282 -0.4010535570434199 -0.4010574167581767 -0.4010560838267494 
0 0 0 0 0 0 0 
0 0 0 0 0 0 0 
1.633541809900155 -1.633517599963402 -1.633512148847191 -1.633513851495823 -1.633498116773398 -1.633512858855894 -1.633514456481416 
0 0 0 0 0 0 0 
0 0 0 0 0 0 0 
1.042597147498205 -1.042596809626519 -1.042599201976554 -1.042596787718087 -1.042597252286519 -1.042596793298014 -1.042596684370951 
0 0 0 0 0 0 0 
0 0 0 0 0 0 0 
1.292540425208189 -1.292541061999043 -1.292534736928729 -1.292540860442763 -1.29253675641538 -1.292541027544283 -1.292541323789986 
0 0 0 0 0 0 0 
0 0 0 0 0 0 0 
0.4010452955077748 -0.4010526527482989 -0.4010553811010104 -0.4010540690996282 -0.4010535570434199 -0.4010574167581767 -0.4010560838267494 
0 0 0 0 0 0 0 
0 0 0 0 0 0 0 
0.8797121232472404 -0.879712253251313 -0.8797133379183317 -0.8797122328115964 -0.8797110704751745 -0.8797122616242716 -0.8797122024886205 
0 0 0 0 0 0 0 
0 0 0 0 0 0 0 
-0.4010452955077748 -0.4010526527482989 -0.4010553811010104 -0.4010540690996282 -0.4010535570434199 0.4010574167581767 -0.4010560838267494 
0 0 0 0 0 0 0 
0 0 0 0 0 0 0 
-0.4010452955077748 -0.4010526527482989 0.4010553811010104 -0.4010540690996282 -0.4010535570434199 -0.4010574167581767 -0.4010560838267494 
0 0 0 0 0 0 0 
0 0 0 0 0 0 0 
-0.4010452955077748 -0.4010526527482989 -0.4010553811010104 -0.4010540690996282 -0.4010535570434199 0.4010574167581767 -0.4010560838267494 
0 0 0 0 0 0 0 
0 0 0 0 0 0 0 
0.4010452955077748 -0.4010526527482989 -0.4010553811010104 -0.4010540690996282 -0.4010535570434199 -0.4010574167581767 -0.4010560838267494 
0 0 0 0 0 0 0 
0 0 0 0 0 0 0 
0.6748329097477844 -0.6748316185217866 -0.6748311033876426 -0.6748316165636773 -0.6748307404249336 -0.6748316396358656 -0.6748316142319828 
0 0 0 0 0 0 0 
0 0 0 0 0 0 0 
-1.042597147498205 -1.042596809626519 -1.042599201976554 0 -1.042597252286519 0 -1.042596684370951 
0 0 0 0 0 0 0 
0 0 0 0 0 0 0 
0.6748329097477844 -0.6748316185217866 -0.6748311033876426 -0.6748316165636773 -0.6748307404249336 -0.6748316396358656 -0.6748316142319828 
0 0 0 0 0 0 0 
0 0 0 0 0 0 0 
-0.4010452955077748 -0.4010526527482989 -0.4010553811010104 -0.4010540690996282 0.4010535570434199 -0.4010574167581767 -0.4010560838267494 
0 0 0 0 0 0 0 
0 0 0 0 0 0 0 
0.4010452955077748 -0.4010526527482989 -0.4010553811010104 -0.4010540690996282 -0.4010535570434199 -0.4010574167581767 -0.4010560838267494 
0 0 0 0 0 0 0 
0 0 0 0 0 0 0 
0.6748329097477844 -0.6748316185217866 -0.6748311033876426 -0.6748316165636773 -0.6748307404249336 -0.6748316396358656 -0.6748316142319828 
0 0 0 0 0 0 0 
0 0 0 0 0 0 0 
0.4010452955077748 -0.4010526527482989 -0.4010553811010104 -0.4010540690996282 -0.4010535570434199 -0.4010574167581767 -0.4010560838267494 
0 0 0 0 0 0 0 
0 0 0 0 0 0 0 
0.4010452955077748 -0.4010526527482989 -0.4010553811010104 -0.4010540690996282 -0.4010535570434199 -0.4010574167581767 -0.4010560838267494 
0 0 0 0 0 0 0 
0 0 0 0 0 0 0 
0.4010452955077748 -0.4010526527482989 -0.4010553811010104 -0.4010540690996282 -0.4010535570434199 -0.4010574167581767 -0.4010560838267494 
0 0 0 0 0 0 0 
0 0 0 0 0 0 0 
-0.4010452955077748 -0.4010526527482989 0.4010553811010104 -0.4010540690996282 -0.4010535570434199 -0.4010574167581767 -0.4010560838267494 
0 0 0 0 0 0 0 
0 0 0 0 0 0 0 
1.042597147498205 -1.042596809626519 -1.042599201976554 -1.042596787718087 -1.042597252286519 -1.042596793298014 -1.042596684370951 
0 0 0 0 0 0 0 
0 0 0 0 0 0 0 
0.4010452955077748 -0.4010526527482989 -0.4010553811010104 -0.4010540690996282 -0.4010535570434199 -0.4010574167581767 -0.4010560838267494 
0 0 0 0 0 0 0 
0 0 0 0 0 0 0 
0.4010452955077748 -0.4010526527482989 -0.4010553811010104 -0.4010540690996282 -0.4010535570434199 -0.4010574167581767 -0.4010560838267494 
0 0 0 0 0 0 0 
0 0 0 0 0 0 0 
0.4010452955077748 -0.4010526527482989 -0.4010553811010104 -0.4010540690996282 -0.4010535570434199 -0.4010574167581767 -0.4010560838267494 
0 0 0 0 0 0 0 
0 0 0 0 0 0 0 
0.4010452955077748 -0.4010526527482989 -0.4010553811010104 -0.4010540690996282 -0.4010535570434199 -0.4010574167581767 -0.4010560838267494 
0 0 0 0 0 0 0 
0 0 0 0 0 0 0 
-0.1821528965343621 -1.392769745545703 -1.392759353909433 -1.392768959140099 -1.392760512220215 -0.1821373602662758 -0.950916896271684 
0 0 0 0 0 0 0 
0 0 0 0 0 0 0 
-0.4010452955077748 -0.4010526527482989 0.4010553811010104 -0.4010540690996282 -0.4010535570434199 -0.4010574167581767 -0.4010560838267494 
0 0 0 0 0 0 0 
0 0 0 0 0 0 0 
-0.4010452955077748 0.4010526527482989 -0.4010553811010104 -0.4010540690996282 -0.4010535570434199 -0.4010574167581767 -0.4010560838267494 
0 0 0 0 0 0 0 
0 0 0 0 0 0 0 
1.965760449259682 -1.965683713359682 -1.965709693886103 -1.965677387241071 -1.965669415649065 -1.965671343419868 -1.965677114831459 
0 0 0 0 0 0 0 
0 0 0 0 0 0 0 
0.4010452955077748 -0.4010526527482989 -0.4010553811010104 -0.4010540690996282 -0.4010535570434199 -0.4010574167581767 -0.4010560838267494 
0 0 0 0 0 0 0 
0 0 0 0 0 0 0 
-0.6748329097477844 -0.6748316185217866 -0.6748311033876426 -0.6748316165636773 -0.6748307404249336 0.6748316396358656 -0.6748316142319828 
0 0 0 0 0 0 0 
0 0 0 0 0 0 0 
-0.8797121232472404 -0.2865477140685664 0.2865487083560857 -0.8797122328115964 -0.8797110704751745 -0.8797122616242716 -0.8797122024886205 
0 0 0 0 0 0 0 
0 0 0 0 0 0 0 
1.633541809900155 -1.633517599963402 -1.633512148847191 -1.633513851495823 -1.633498116773398 -1.633512858855894 -1.633514456481416 
0 0 0 0 0 0 0 
0 0 0 0 0 0 0 
0.4010452955077748 -0.4010526527482989 -0.4010553811010104 -0.4010540690996282 -0.4010535570434199 -0.4010574167581767 -0.4010560838267494 
0 0 0 0 0 0 0 
0 0 0 0 0 0 0 
0.4010452955077748 -0.4010526527482989 -0.4010553811010104 -0.4010540690996282 -0.4010535570434199 -0.4010574167581767 -0.4010560838267494 
0 0 0 0 0 0 0 
0 0 0 0 0 0 0 
-1.292540425208189 -1.292541061999043 -1.292534736928729 -1.292540860442763 -1.29253675641538 1.292541027544283 -1.292541323789986 
0 0 0 0 0 0 0 
0 0 0 0 0 0 0 
0.6748329097477844 -0.6748316185217866 -0.6748311033876426 -0.6748316165636773 -0.6748307404249336 -0.6748316396358656 -0.6748316142319828 
0 0 0 0 0 0 0 
0 0 0 0 0 0 0 
0.4010452955077748 -0.4010526527482989 -0.4010553811010104 -0.4010540690996282 -0.4010535570434199 -0.4010574167581767 -0.4010560838267494 
0 0 0 0 0 0 0 
0 0 0 0 0 0 0 
0.6748329097477844 -0.6748316185217866 -0.6748311033876426 -0.6748316165636773 -0.6748307404249336 -0.6748316396358656 -0.6748316142319828 
0 0 0 0 0 0 0 
0 0 0 0 0 0 0 
-0.4010452955077748 -0.4010526527482989 0.4010553811010104 -0.4010540690996282 -0.4010535570434199 -0.4010574167581767 -0.4010560838267494 
0 0 0 0 0 0 0 
0 0 0 0 0 0 0 
0.4010452955077748 -0.4010526527482989 -0.4010553811010104 -0.4010540690996282 -0.4010535570434199 -0.4010574167581767 -0.4010560838267494 
0 0 0 0 0 0 0 
0 0 0 0 0 0 0 
0.4010452955077748 -0.4010526527482989 -0.4010553811010104 -0.4010540690996282 -0.4010535570434199 -0.4010574167581767 -0.4010560838267494 
0 0 0 0 0 0 0 
0 0 0 0 0 0 0 
1.292540425208189 -1.292541061999043 -1.292534736928729 -1.292540860442763 -1.29253675641538 -1.292541027544283 -1.292541323789986 
0 0 0 0 0 0 0 
0 0 0 0 0 0 0 
0.4010452955077748 -0.4010526527482989 -0.4010553811010104 -0.4010540690996282 -0.4010535570434199 -0.4010574167581767 -0.4010560838267494 
0 0 0 0 0 0 0 
0 0 0 0 0 0 0 
-1.241678927458458 -1.633517599963402 -1.633512148847191 -1.241596205033867 -1.633498116773398 0.8968853770711874 -1.633514456481416 
0 0 0 0 0 0 0 
0 0 0 0 0 0 0 
0.4010452955077748 -0.4010526527482989 -0.4010553811010104 -0.4010540690996282 -0.4010535570434199 -0.4010574167581767 -0.4010560838267494 
0 0 0 0 0 0 0 
0 0 0 0 0 0 0 
0.4010452955077748 -0.4010526527482989 -0.4010553811010104 -0.4010540690996282 -0.4010535570434199 -0.4010574167581767 -0.4010560838267494 
0 0 0 0 0 0 0 
0 0 0 0 0 0 0 
-0.6748329097477844 -0.6748316185217866 -0.6748311033876426 -0.6748316165636773 0.6748307404249336 -0.6748316396358656 -0.6748316142319828 
0 0 0 0 0 0 0 
0 0 0 0 0 0 0 
0.4010452955077748 -0.4010526527482989 -0.4010553811010104 -0.4010540690996282 -0.4010535570434199 -0.4010574167581767 -0.4010560838267494 
0 0 0 0 0 0 0 
0 0 0 0 0 0 0 
-0.4010452955077748 0.4010526527482989 -0.4010553811010104 -0.4010540690996282 -0.4010535570434199 -0.4010574167581767 -0.4010560838267494 
0 0 0 0 0 0 0 
0 0 0 0 0 0 0 
-1.392770886903146 -1.392769745545703 -1.392759353909433 1.392768959140099 -1.392760512220215 -1.392769223227085 -1.392769713338234 
0 0 0 0 0 0 0 
0 0 0 0 0 0 0 
0.4010452955077748 -0.4010526527482989 -0.4010553811010104 -0.4010540690996282 -0.4010535570434199 -0.4010574167581767 -0.4010560838267494 
0 0 0 0 0 0 0 
0 0 0 0 0 0 0 
-0.4010452955077748 0.4010526527482989 -0.4010553811010104 -0.4010540690996282 -0.4010535570434199 -0.4010574167581767 -0.4010560838267494 
0 0 0 0 0 0 0 
0 0 0 0 0 0 0 
0.4010452955077748 -0.4010526527482989 -0.4010553811010104 -0.4010540690996282 -0.4010535570434199 -0.4010574167581767 -0.4010560838267494 
0 0 0 0 0 0 0 
0 0 0 0 0 0 0 
-1.292540425208189 0.4032293609581025 -0.4032295224203998 -1.292540860442763 -1.29253675641538 -1.292541027544283 -1.292541323789986 
0 0 0 0 0 0 0 
0 0 0 0 0 0 0 
0.4010452955077748 -0.4010526527482989 -0.4010553811010104 -0.4010540690996282 -0.4010535570434199 -0.4010574167581767 -0.4010560838267494 
0 0 0 0 0 0 0 
0 0 0 0 0 0 0 
0.6748329097477844 -0.6748316185217866 -0.6748311033876426 -0.6748316165636773 -0.6748307404249336 -0.6748316396358656 -0.6748316142319828 
0 0 0 0 0 0 0 
0 0 0 0 0 0 0 
0.4010452955077748 -0.4010526527482989 -0.4010553811010104 -0.4010540690996282 -0.4010535570434199 -0.4010574167581767 -0.4010560838267494 
0 0 0 0 0 0 0 
0 0 0 0 0 0 0 
0.4010452955077748 -0.4010526527482989 -0.4010553811010104 -0.4010540690996282 -0.4010535570434199 -0.4010574167581767 -0.4010560838267494 
0 0 0 0 0 0 0 
0 0 0 0 0 0 0 
-1.292540425208189 0.4032293609581025 -0.4032295224203998 -1.292540860442763 -1.29253675641538 -1.292541027544283 -1.292541323789986 
0 0 0 0 0 0 0 
0 0 0 0 0 0 0 
-0.4010452955077748 -0.4010526527482989 -0.4010553811010104 -0.4010540690996282 -0.4010535570434199 0.4010574167581767 -0.4010560838267494 
0 0 0 0 0 0 0 
0 0 0 0 0 0 0 
1.042597147498205 -1.042596809626519 -1.042599201976554 -1.042596787718087 -1.042597252286519 -1.042596793298014 -1.042596684370951 
0 0 0 0 0 0 0 
0 0 0 0 0 0 0 
-0.4010452955077748 -0.4010526527482989 -0.4010553811010104 0.4010540690996282 -0.4010535570434199 -0.4010574167581767 -0.4010560838267494 
0 0 0 0 0 0 0 
0 0 0 0 0 0 0 
0.4010452955077748 -0.4010526527482989 -0.4010553811010104 -0.4010540690996282 -0.4010535570434199 -0.4010574167581767 -0.4010560838267494 
0 0 0 0 0 0 0 
0 0 0 0 0 0 0 
-1.960913188452897 0.9062801077394143 -1.080748352027753 -2.262545800354816 -2.262546036036788 -2.262539644726044 -2.26254627937356 
0 0 0 0 0 0 0 
0 0 0 0 0 0 0 
-0.4010452955077748 0.4010526527482989 -0.4010553811010104 -0.4010540690996282 -0.4010535570434199 -0.4010574167581767 -0.4010560838267494 
0 0 0 0 0 0 0 
0 0 0 0 0 0 0 
0.8797121232472404 -0.879712253251313 -0.8797133379183317 -0.8797122328115964 -0.8797110704751745 -0.8797122616242716 -0.8797122024886205 
0 0 0 0 0 0 0 
0 0 0 0 0 0 0 
0.4010452955077748 -0.4010526527482989 -0.4010553811010104 -0.4010540690996282 -0.4010535570434199 -0.4010574167581767 -0.4010560838267494 
0 0 0 0 0 0 0 
0 0 0 0 0 0 0 
-0.4010452955077748 -0.4010526527482989 -0.4010553811010104 -0.4010540690996282 0.4010535570434199 -0.4010574167581767 -0.4010560838267494 
0 0 0 0 0 0 0 
0 0 0 0 0 0 0 
1.042597147498205 -1.042596809626519 -1.042599201976554 -1.042596787718087 -1.042597252286519 -1.042596793298014 -1.042596684370951 
0 0 0 0 0 0 0 
0 0 0 0 0 0 0 
0.8797121232472404 -0.879712253251313 -0.8797133379183317 -0.8797122328115964 -0.8797110704751745 -0.8797122616242716 -0.8797122024886205 
0 0 0 0 0 0 0 
0 0 0 0 0 0 0 
0.4010452955077748 -0.4010526527482989 -0.4010553811010104 -0.4010540690996282 -0.4010535570434199 -0.4010574167581767 -0.4010560838267494 
0 0 0 0 0 0 0 
0 0 0 0 0 0 0 
0.6748329097477844 -0.6748316185217866 -0.6748311033876426 -0.6748316165636773 -0.6748307404249336 -0.6748316396358656 -0.6748316142319828 
0 0 0 0 0 0 0 
0 0 0 0 0 0 0 
-0.4010452955077748 -0.4010526527482989 0.4010553811010104 -0.4010540690996282 -0.4010535570434199 -0.4010574167581767 -0.4010560838267494 
0 0 0 0 0 0 0 
0 0 0 0 0 0 0 
-0.6748329097477844 0 0 -0.6748316165636773 -0.6748307404249336 -0.6748316396358656 -0.6748316142319828 
0 0 0 0 0 0 0 
0 0 0 0 0 0 0 
1.042597147498205 -1.042596809626519 -1.042599201976554 -1.042596787718087 -1.042597252286519 -1.042596793298014 -1.042596684370951 
0 0 0 0 0 0 0 
0 0 0 0 0 0 0 
0.4010452955077748 -0.4010526527482989 -0.4010553811010104 -0.4010540690996282 -0.4010535570434199 -0.4010574167581767 -0.4010560838267494 
0 0 0 0 0 0 0 
0 0 0 0 0 0 0 
0.4010452955077748 -0.4010526527482989 -0.4010553811010104 -0.4010540690996282 -0.4010535570434199 -0.4010574167581767 -0.4010560838267494 
0 0 0 0 0 0 0 
0 0 0 0 0 0 0 
1.042597147498205 -1.042596809626519 -1.042599201976554 -1.042596787718087 -1.042597252286519 -1.042596793298014 -1.042596684370951 
0 0 0 0 0 0 0 
0 0 0 0 0 0 0 
1.699686058110876 -1.699650891305841 -1.699651052656931 -1.699646230947984 -1.699630543226992 -1.699644361842318 -1.699646599641155 
0 0 0 0 0 0 0 
0 0 0 0 0 0 0 
0.4010452955077748 -0.4010526527482989 -0.4010553811010104 -0.4010540690996282 -0.4010535570434199 -0.4010574167581767 -0.4010560838267494 
0 0 0 0 0 0 0 
0 0 0 0 0 0 0 
-0.4010452955077748 -0.4010526527482989 0.4010553811010104 -0.4010540690996282 -0.4010535570434199 -0.4010574167581767 -0.4010560838267494 
0 0 0 0 0 0 0 
0 0 0 0 0 0 0 
1.699686058110876 -1.699650891305841 -1.699651052656931 -1.699646230947984 -1.699630543226992 -1.699644361842318 -1.699646599641155 
0 0 0 0 0 0 0 
0 0 0 0 0 0 0 
0.4010452955077748 -0.4010526527482989 -0.4010553811010104 -0.4010540690996282 -0.4010535570434199 -0.4010574167581767 -0.4010560838267494 
0 0 0 0 0 0 0 
0 0 0 0 0 0 0 
0.4010452955077748 -0.4010526527482989 -0.4010553811010104 -0.4010540690996282 -0.4010535570434199 -0.4010574167581767 -0.4010560838267494 
0 0 0 0 0 0 0 
0 0 0 0 0 0 0 
-0.4010452955077748 -0.4010526527482989 -0.4010553811010104 -0.4010540690996282 -0.4010535570434199 -0.4010574167581767 0.4010560838267494 
0 0 0 0 0 0 0 
0 0 0 0 0 0 0 
-0.4010452955077748 -0.4010526527482989 0.4010553811010104 -0.4010540690996282 -0.4010535570434199 -0.4010574167581767 -0.4010560838267494 
0 0 0 0 0 0 0 
0 0 0 0 0 0 0 
0.8797121232472404 -0.879712253251313 -0.8797133379183317 -0.8797122328115964 -0.8797110704751745 -0.8797122616242716 -0.8797122024886205 
0 0 0 0 0 0 0 
0 0 0 0 0 0 0 
0.6748329097477844 -0.6748316185217866 -0.6748311033876426 -0.6748316165636773 -0.6748307404249336 -0.6748316396358656 -0.6748316142319828 
0 0 0 0 0 0 0 
0 0 0 0 0 0 0 
-1.177505205490719 0.6806190998435032 -0.6806147338074244 -1.17750539606572 -1.177504850507587 -1.177505416561325 -1.1775054958263 
0 0 0 0 0 0 0 
0 0 0 0 0 0 0 
0.4010452955077748 -0.4010526527482989 -0.4010553811010104 -0.4010540690996282 -0.4010535570434199 -0.4010574167581767 -0.4010560838267494 
0 0 0 0 0 0 0 
0 0 0 0 0 0 0 
1.633541809900155 -1.633517599963402 -1.633512148847191 -1.633513851495823 -1.633498116773398 -1.633512858855894 -1.633514456481416 
0 0 0 0 0 0 0 
0 0 0 0 0 0 0 
0.6748329097477844 -0.6748316185217866 -0.6748311033876426 -0.6748316165636773 -0.6748307404249336 -0.6748316396358656 -0.6748316142319828 
0 0 0 0 0 0 0 
0 0 0 0 0 0 0 
0.4010452955077748 -0.4010526527482989 -0.4010553811010104 -0.4010540690996282 -0.4010535570434199 -0.4010574167581767 -0.4010560838267494 
0 0 0 0 0 0 0 
0 0 0 0 0 0 0 
0.6748329097477844 -0.6748316185217866 -0.6748311033876426 -0.6748316165636773 -0.6748307404249336 -0.6748316396358656 -0.6748316142319828 
0 0 0 0 0 0 0 
0 0 0 0 0 0 0 
-0.4010452955077748 0.4010526527482989 -0.4010553811010104 -0.4010540690996282 -0.4010535570434199 -0.4010574167581767 -0.4010560838267494 
0 0 0 0 0 0 0 
0 0 0 0 0 0 0 
0.4010452955077748 -0.4010526527482989 -0.4010553811010104 -0.4010540690996282 -0.4010535570434199 -0.4010574167581767 -0.4010560838267494 
0 0 0 0 0 0 0 
0 0 0 0 0 0 0 
-0.4010452955077748 -0.4010526527482989 -0.4010553811010104 -0.4010540690996282 -0.4010535570434199 0.4010574167581767 -0.4010560838267494 
0 0 0 0 0 0 0 
0 0 0 0 0 0 0 
0.8797121232472404 -0.879712253251313 -0.8797133379183317 -0.8797122328115964 -0.8797110704751745 -0.8797122616242716 -0.8797122024886205 
0 0 0 0 0 0 0 
0 0 0 0 0 0 0 
0.6748329097477844 -0.6748316185217866 -0.6748311033876426 -0.6748316165636773 -0.6748307404249336 -0.6748316396358656 -0.6748316142319828 
0 0 0 0 0 0 0 
0 0 0 0 0 0 0 
0.4010452955077748 -0.4010526527482989 -0.4010553811010104 -0.4010540690996282 -0.4010535570434199 -0.4010574167581767 -0.4010560838267494 
0 0 0 0 0 0 0 
0 0 0 0 0 0 0 
0.8797121232472404 -0.879712253251313 -0.8797133379183317 -0.8797122328115964 -0.8797110704751745 -0.8797122616242716 -0.8797122024886205 
0 0 0 0 0 0 0 
0 0 0 0 0 0 0 
0.4010452955077748 -0.4010526527482989 -0.4010553811010104 -0.4010540690996282 -0.4010535570434199 -0.4010574167581767 -0.4010560838267494 
0 0 0 0 0 0 0 
0 0 0 0 0 0 0 
0.4010452955077748 -0.4010526527482989 -0.4010553811010104 -0.4010540690996282 -0.4010535570434199 -0.4010574167581767 -0.4010560838267494 
0 0 0 0 0 0 0 
0 0 0 0 0 0 0 
0.8797121232472404 -0.879712253251313 -0.8797133379183317 -0.8797122328115964 -0.8797110704751745 -0.8797122616242716 -0.8797122024886205 
0 0 0 0 0 0 0 
0 0 0 0 0 0 0 
-0.8264295569656821 -1.292541061999043 -1.292534736928729 -1.292540860442763 -1.29253675641538 0.8264213822046841 -1.292541323789986 
0 0 0 0 0 0 0 
0 0 0 0 0 0 0 
-2.627733446462408 -2.627698940897387 -2.627710124023153 1.306944547507065 -1.306944107008053 -2.627694307569524 -2.627698973779511 
0 0 0 0 0 0 0 
0 0 0 0 0 0 0 
0.4010452955077748 -0.4010526527482989 -0.4010553811010104 -0.4010540690996282 -0.4010535570434199 -0.4010574167581767 -0.4010560838267494 
0 0 0 0 0 0 0 
0 0 0 0 0 0 0 
-1.292540425208189 -1.292541061999043 -1.292534736928729 -1.292540860442763 -0.403223468154505 -1.292541027544283 0.4032280803639015 
0 0 0 0 0 0 0 
0 0 0 0 0 0 0 
0.8797121232472404 -0.879712253251313 -0.8797133379183317 -0.8797122328115964 -0.8797110704751745 -0.8797122616242716 -0.8797122024886205 
0 0 0 0 0 0 0 
0 0 0 0 0 0 0 
-0.4010452955077748 -0.4010526527482989 -0.4010553811010104 -0.4010540690996282 -0.4010535570434199 0.4010574167581767 -0.4010560838267494 
0 0 0 0 0 0 0 
0 0 0 0 0 0 0 
1.392770886903146 -1.392769745545703 -1.392759353909433 -1.392768959140099 -1.392760512220215 -1.392769223227085 -1.392769713338234 
0 0 0 0 0 0 0 
0 0 0 0 0 0 0 
-0.4010452955077748 0.4010526527482989 -0.4010553811010104 -0.4010540690996282 -0.4010535570434199 -0.4010574167581767 -0.4010560838267494 
0 0 0 0 0 0 0 
0 0 0 0 0 0 0 
0.4010452955077748 -0.4010526527482989 -0.4010553811010104 -0.4010540690996282 -0.4010535570434199 -0.4010574167581767 -0.4010560838267494 
0 0 0 0 0 0 0 
0 0 0 0 0 0 0 
0.4010452955077748 -0.4010526527482989 -0.4010553811010104 -0.4010540690996282 -0.4010535570434199 -0.4010574167581767 -0.4010560838267494 
0 0 0 0 0 0 0 
0 0 0 0 0 0 0 
0.6748329097477844 -0.6748316185217866 -0.6748311033876426 -0.6748316165636773 -0.6748307404249336 -0.6748316396358656 -0.6748316142319828 
0 0 0 0 0 0 0 
0 0 0 0 0 0 0 
0.4010452955077748 -0.4010526527482989 -0.4010553811010104 -0.4010540690996282 -0.4010535570434199 -0.4010574167581767 -0.4010560838267494 
0 0 0 0 0 0 0 
0 0 0 0 0 0 0 
0.4010452955077748 -0.4010526527482989 -0.4010553811010104 -0.4010540690996282 -0.4010535570434199 -0.4010574167581767 -0.4010560838267494 
0 0 0 0 0 0 0 
0 0 0 0 0 0 0 
0.4010452955077748 -0.4010526527482989 -0.4010553811010104 -0.4010540690996282 -0.4010535570434199 -0.4010574167581767 -0.4010560838267494 
0 0 0 0 0 0 0 
0 0 0 0 0 0 0 
1.177505205490719 -1.177505387553668 -1.177504428153977 -1.17750539606572 -1.177504850507587 -1.177505416561325 -1.1775054958263 
0 0 0 0 0 0 0 
0 0 0 0 0 0 0 
0.4010452955077748 -0.4010526527482989 -0.4010553811010104 -0.4010540690996282 -0.4010535570434199 -0.4010574167581767 -0.4010560838267494 
0 0 0 0 0 0 0 
0 0 0 0 0 0 0 
0.4010452955077748 -0.4010526527482989 -0.4010553811010104 -0.4010540690996282 -0.4010535570434199 -0.4010574167581767 -0.4010560838267494 
0 0 0 0 0 0 0 
0 0 0 0 0 0 0 
-0.4010452955077748 -0.4010526527482989 0.4010553811010104 -0.4010540690996282 -0.4010535570434199 -0.4010574167581767 -0.4010560838267494 
0 0 0 0 0 0 0 
0 0 0 0 0 0 0 
-0.6748329097477844 0 0 -0.6748316165636773 -0.6748307404249336 -0.6748316396358656 -0.6748316142319828 
0 0 0 0 0 0 0 
0 0 0 0 0 0 0 
0.4010452955077748 -0.4010526527482989 -0.4010553811010104 -0.4010540690996282 -0.4010535570434199 -0.4010574167581767 -0.4010560838267494 
0 0 0 0 0 0 0 
0 0 0 0 0 0 0 
0.4010452955077748 -0.4010526527482989 -0.4010553811010104 -0.4010540690996282 -0.4010535570434199 -0.4010574167581767 -0.4010560838267494 
0 0 0 0 0 0 0 
0 0 0 0 0 0 0 
0.6748329097477844 -0.6748316185217866 -0.6748311033876426 -0.6748316165636773 -0.6748307404249336 -0.6748316396358656 -0.6748316142319828 
0 0 0 0 0 0 0 
0 0 0 0 0 0 0 
0.4010452955077748 -0.4010526527482989 -0.4010553811010104 -0.4010540690996282 -0.4010535570434199 -0.4010574167581767 -0.4010560838267494 
0 0 0 0 0 0 0 
0 0 0 0 0 0 0 
-0.4010452955077748 -0.4010526527482989 0.4010553811010104 -0.4010540690996282 -0.4010535570434199 -0.4010574167581767 -0.4010560838267494 
0 0 0 0 0 0 0 
0 0 0 0 0 0 0 
0.8797121232472404 -0.879712253251313 -0.8797133379183317 -0.8797122328115964 -0.8797110704751745 -0.8797122616242716 -0.8797122024886205 
0 0 0 0 0 0 0 
0 0 0 0 0 0 0 
1.177505205490719 -1.177505387553668 -1.177504428153977 -1.17750539606572 -1.177504850507587 -1.177505416561325 -1.1775054958263 
0 0 0 0 0 0 0 
0 0 0 0 0 0 0 
-0.8797121232472404 0.2865477140685664 -0.2865487083560857 -0.8797122328115964 -0.8797110704751745 -0.8797122616242716 -0.8797122024886205 
0 0 0 0 0 0 0 
0 0 0 0 0 0 0 
0.6748329097477844 -0.6748316185217866 -0.6748311033876426 -0.6748316165636773 -0.6748307404249336 -0.6748316396358656 -0.6748316142319828 
0 0 0 0 0 0 0 
0 0 0 0 0 0 0 
1.177505205490719 -1.177505387553668 -1.177504428153977 -1.17750539606572 -1.177504850507587 -1.177505416561325 -1.1775054958263 
0 0 0 0 0 0 0 
0 0 0 0 0 0 0 
0.4010452955077748 -0.4010526527482989 -0.4010553811010104 -0.4010540690996282 -0.4010535570434199 -0.4010574167581767 -0.4010560838267494 
0 0 0 0 0 0 0 
0 0 0 0 0 0 0 
1.177505205490719 -1.177505387553668 -1.177504428153977 -1.17750539606572 -1.177504850507587 -1.177505416561325 -1.1775054958263 
0 0 0 0 0 0 0 
0 0 0 0 0 0 0 
0.6748329097477844 -0.6748316185217866 -0.6748311033876426 -0.6748316165636773 -0.6748307404249336 -0.6748316396358656 -0.6748316142319828 
0 0 0 0 0 0 0 
0 0 0 0 0 0 0 
-0.4010452955077748 -0.4010526527482989 0.4010553811010104 -0.4010540690996282 -0.4010535570434199 -0.4010574167581767 -0.4010560838267494 
0 0 0 0 0 0 0 
0 0 0 0 0 0 0 
0.4010452955077748 -0.4010526527482989 -0.4010553811010104 -0.4010540690996282 -0.4010535570434199 -0.4010574167581767 -0.4010560838267494 
0 0 0 0 0 0 0 
0 0 0 0 0 0 0 
0.4010452955077748 -0.4010526527482989 -0.4010553811010104 -0.4010540690996282 -0.4010535570434199 -0.4010574167581767 -0.4010560838267494 
0 0 0 0 0 0 0 
0 0 0 0 0 0 0 
-0.4010452955077748 -0.4010526527482989 -0.4010553811010104 -0.4010540690996282 -0.4010535570434199 0.4010574167581767 -0.4010560838267494 
0 0 0 0 0 0 0 
0 0 0 0 0 0 0 
0.4010452955077748 -0.4010526527482989 -0.4010553811010104 -0.4010540690996282 -0.4010535570434199 -0.4010574167581767 -0.4010560838267494 
0 0 0 0 0 0 0 
0 0 0 0 0 0 0 
1.56125432911383 -1.561240162954682 -1.561230502484477 -1.561237446268372 -1.561222816528005 -1.561237148517411 -1.561238238226681 
0 0 0 0 0 0 0 
0 0 0 0 0 0 0 
0.4010452955077748 -0.4010526527482989 -0.4010553811010104 -0.4010540690996282 -0.4010535570434199 -0.4010574167581767 -0.4010560838267494 
0 0 0 0 0 0 0 
0 0 0 0 0 0 0 
0.4010452955077748 -0.4010526527482989 -0.4010553811010104 -0.4010540690996282 -0.4010535570434199 -0.4010574167581767 -0.4010560838267494 
0 0 0 0 0 0 0 
0 0 0 0 0 0 0 
0.4010452955077748 -0.4010526527482989 -0.4010553811010104 -0.4010540690996282 -0.4010535570434199 -0.4010574167581767 -0.4010560838267494 
0 0 0 0 0 0 0 
0 0 0 0 0 0 0 
1.56125432911383 -1.561240162954682 -1.561230502484477 -1.561237446268372 -1.561222816528005 -1.561237148517411 -1.561238238226681 
0 0 0 0 0 0 0 
0 0 0 0 0 0 0 
-1.48156157869134 1.059407815030459 -1.05941478782527 -1.481553740213593 -1.481541569238735 -1.481553871830047 -1.481554601914317 
0 0 0 0 0 0 0 
0 0 0 0 0 0 0 
-0.6748329097477844 -0.6748316185217866 0.6748311033876426 -0.6748316165636773 -0.6748307404249336 -0.6748316396358656 -0.6748316142319828 
0 0 0 0 0 0 0 
0 0 0 0 0 0 0 
-0.6748329097477844 0 0 -0.6748316165636773 -0.6748307404249336 -0.6748316396358656 -0.6748316142319828 
0 0 0 0 0 0 0 
0 0 0 0 0 0 0 
-0.4010452955077748 -0.4010526527482989 0.4010553811010104 -0.4010540690996282 -0.4010535570434199 -0.4010574167581767 -0.4010560838267494 
0 0 0 0 0 0 0 
0 0 0 0 0 0 0 
0.4010452955077748 -0.4010526527482989 -0.4010553811010104 -0.4010540690996282 -0.4010535570434199 -0.4010574167581767 -0.4010560838267494 
0 0 0 0 0 0 0 
0 0 0 0 0 0 0 
-0.6748329097477844 -0.6748316185217866 -0.6748311033876426 -0.6748316165636773 -0.6748307404249336 -0.6748316396358656 0.6748316142319828 
0 0 0 0 0 0 0 
0 0 0 0 0 0 0 
0.4010452955077748 -0.4010526527482989 -0.4010553811010104 -0.4010540690996282 -0.4010535570434199 -0.4010574167581767 -0.4010560838267494 
0 0 0 0 0 0 0 
0 0 0 0 0 0 0 
0.4010452955077748 -0.4010526527482989 -0.4010553811010104 -0.4010540690996282 -0.4010535570434199 -0.4010574167581767 -0.4010560838267494 
0 0 0 0 0 0 0 
0 0 0 0 0 0 0 
0.4010452955077748 -0.4010526527482989 -0.4010553811010104 -0.4010540690996282 -0.4010535570434199 -0.4010574167581767 -0.4010560838267494 
0 0 0 0 0 0 0 
0 0 0 0 0 0 0 
-0.4010452955077748 0.4010526527482989 -0.4010553811010104 -0.4010540690996282 -0.4010535570434199 -0.4010574167581767 -0.4010560838267494 
0 0 0 0 0 0 0 
0 0 0 0 0 0 0 
0.4010452955077748 -0.4010526527482989 -0.4010553811010104 -0.4010540690996282 -0.4010535570434199 -0.4010574167581767 -0.4010560838267494 
0 0 0 0 0 0 0 
0 0 0 0 0 0 0 
0.6748329097477844 -0.6748316185217866 -0.6748311033876426 -0.6748316165636773 -0.6748307404249336 -0.6748316396358656 -0.6748316142319828 
0 0 0 0 0 0 0 
0 0 0 0 0 0 0 
0.4010452955077748 -0.4010526527482989 -0.4010553811010104 -0.4010540690996282 -0.4010535570434199 -0.4010574167581767 -0.4010560838267494 
0 0 0 0 0 0 0 
0 0 0 0 0 0 0 
0.4010452955077748 -0.4010526527482989 -0.4010553811010104 -0.4010540690996282 -0.4010535570434199 -0.4010574167581767 -0.4010560838267494 
0 0 0 0 0 0 0 
0 0 0 0 0 0 0 
0.4010452955077748 -0.4010526527482989 -0.4010553811010104 -0.4010540690996282 -0.4010535570434199 -0.4010574167581767 -0.4010560838267494 
0 0 0 0 0 0 0 
0 0 0 0 0 0 0 
-0.4010452955077748 0.4010526527482989 -0.4010553811010104 -0.4010540690996282 -0.4010535570434199 -0.4010574167581767 -0.4010560838267494 
0 0 0 0 0 0 0 
0 0 0 0 0 0 0 
-0.4010452955077748 -0.4010526527482989 -0.4010553811010104 -0.4010540690996282 -0.4010535570434199 0.4010574167581767 -0.4010560838267494 
0 0 0 0 0 0 0 
0 0 0 0 0 0 0 
0.4010452955077748 -0.4010526527482989 -0.4010553811010104 -0.4010540690996282 -0.4010535570434199 -0.4010574167581767 -0.4010560838267494 
0 0 0 0 0 0 0 
0 0 0 0 0 0 0 
0.6748329097477844 -0.6748316185217866 -0.6748311033876426 -0.6748316165636773 -0.6748307404249336 -0.6748316396358656 -0.6748316142319828 
0 0 0 0 0 0 0 
0 0 0 0 0 0 0 
-0.4010452955077748 -0.4010526527482989 -0.4010553811010104 -0.4010540690996282 -0.4010535570434199 0.4010574167581767 -0.4010560838267494 
0 0 0 0 0 0 0 
0 0 0 0 0 0 0 
0.4010452955077748 -0.4010526527482989 -0.4010553811010104 -0.4010540690996282 -0.4010535570434199 -0.4010574167581767 -0.4010560838267494 
0 0 0 0 0 0 0 
0 0 0 0 0 0 0 
0.4010452955077748 -0.4010526527482989 -0.4010553811010104 -0.4010540690996282 -0.4010535570434199 -0.4010574167581767 -0.4010560838267494 
0 0 0 0 0 0 0 
0 0 0 0 0 0 0 
1.177505205490719 -1.177505387553668 -1.177504428153977 -1.17750539606572 -1.177504850507587 -1.177505416561325 -1.1775054958263 
0 0 0 0 0 0 0 
0 0 0 0 0 0 0 
-0.6748329097477844 -0.6748316185217866 -0.6748311033876426 -0.6748316165636773 -0.6748307404249336 -0.6748316396358656 0.6748316142319828 
0 0 0 0 0 0 0 
0 0 0 0 0 0 0 
-0.4010452955077748 0.4010526527482989 -0.4010553811010104 -0.4010540690996282 -0.4010535570434199 -0.4010574167581767 -0.4010560838267494 
0 0 0 0 0 0 0 
0 0 0 0 0 0 0 
0.4010452955077748 -0.4010526527482989 -0.4010553811010104 -0.4010540690996282 -0.4010535570434199 -0.4010574167581767 -0.4010560838267494 
0 0 0 0 0 0 0 
0 0 0 0 0 0 0 
1.177505205490719 -1.177505387553668 -1.177504428153977 -1.17750539606572 -1.177504850507587 -1.177505416561325 -1.1775054958263 
0 0 0 0 0 0 0 
0 0 0 0 0 0 0 
0.4010452955077748 -0.4010526527482989 -0.4010553811010104 -0.4010540690996282 -0.4010535570434199 -0.4010574167581767 -0.4010560838267494 
0 0 0 0 0 0 0 
0 0 0 0 0 0 0 
1.817196580856578 -1.817140557512015 -1.817152903791885 -1.81713464896837 -1.817121300166766 -1.817130863698257 -1.817134595146626 
0 0 0 0 0 0 0 
0 0 0 0 0 0 0 
-0.4010452955077748 0.4010526527482989 -0.4010553811010104 -0.4010540690996282 -0.4010535570434199 -0.4010574167581767 -0.4010560838267494 
0 0 0 0 0 0 0 
0 0 0 0 0 0 0 
0.4010452955077748 -0.4010526527482989 -0.4010553811010104 -0.4010540690996282 -0.4010535570434199 -0.4010574167581767 -0.4010560838267494 
0 0 0 0 0 0 0 
0 0 0 0 0 0 0 
-0.8264295569656821 -1.292541061999043 -1.292534736928729 -1.292540860442763 -1.29253675641538 0.8264213822046841 -1.292541323789986 
0 0 0 0 0 0 0 
0 0 0 0 0 0 0 
-0.4010452955077748 -0.4010526527482989 0.4010553811010104 -0.4010540690996282 -0.4010535570434199 -0.4010574167581767 -0.4010560838267494 
0 0 0 0 0 0 0 
0 0 0 0 0 0 0 
0.4010452955077748 -0.4010526527482989 -0.4010553811010104 -0.4010540690996282 -0.4010535570434199 -0.4010574167581767 -0.4010560838267494 
0 0 0 0 0 0 0 
0 0 0 0 0 0 0 
-0.4010452955077748 -0.4010526527482989 -0.4010553811010104 -0.4010540690996282 -0.4010535570434199 -0.4010574167581767 0.4010560838267494 
0 0 0 0 0 0 0 
0 0 0 0 0 0 0 
0.6748329097477844 -0.6748316185217866 -0.6748311033876426 -0.6748316165636773 -0.6748307404249336 -0.6748316396358656 -0.6748316142319828 
0 0 0 0 0 0 0 
0 0 0 0 0 0 0 
0.6748329097477844 -0.6748316185217866 -0.6748311033876426 -0.6748316165636773 -0.6748307404249336 -0.6748316396358656 -0.6748316142319828 
0 0 0 0 0 0 0 
0 0 0 0 0 0 0 
1.392770886903146 -1.392769745545703 -1.392759353909433 -1.392768959140099 -1.392760512220215 -1.392769223227085 -1.392769713338234 
0 0 0 0 0 0 0 
0 0 0 0 0 0 0 
0.4010452955077748 -0.4010526527482989 -0.4010553811010104 -0.4010540690996282 -0.4010535570434199 -0.4010574167581767 -0.4010560838267494 
0 0 0 0 0 0 0 
0 0 0 0 0 0 0 
-0.4010452955077748 -0.4010526527482989 -0.4010553811010104 -0.4010540690996282 0.4010535570434199 -0.4010574167581767 -0.4010560838267494 
0 0 0 0 0 0 0 
0 0 0 0 0 0 0 
1.292540425208189 -1.292541061999043 -1.292534736928729 -1.292540860442763 -1.29253675641538 -1.292541027544283 -1.292541323789986 
0 0 0 0 0 0 0 
0 0 0 0 0 0 0 
0.6748329097477844 -0.6748316185217866 -0.6748311033876426 -0.6748316165636773 -0.6748307404249336 -0.6748316396358656 -0.6748316142319828 
0 0 0 0 0 0 0 
0 0 0 0 0 0 0 
0 -0.6748316185217866 -0.6748311033876426 -0.6748316165636773 -0.6748307404249336 -0.6748316396358656 0 
0 0 0 0 0 0 0 
0 0 0 0 0 0 0 
1.48156157869134 -1.481555417750696 -1.481543879632636 -1.481553740213593 -1.481541569238735 -1.481553871830047 -1.481554601914317 
0 0 0 0 0 0 0 
0 0 0 0 0 0 0 
0.4010452955077748 -0.4010526527482989 -0.4010553811010104 -0.4010540690996282 -0.4010535570434199 -0.4010574167581767 -0.4010560838267494 
0 0 0 0 0 0 0 
0 0 0 0 0 0 0 
0.4010452955077748 -0.4010526527482989 -0.4010553811010104 -0.4010540690996282 -0.4010535570434199 -0.4010574167581767 -0.4010560838267494 
0 0 0 0 0 0 0 
0 0 0 0 0 0 0 
0.4010452955077748 -0.4010526527482989 -0.4010553811010104 -0.4010540690996282 -0.4010535570434199 -0.4010574167581767 -0.4010560838267494 
0 0 0 0 0 0 0 
0 0 0 0 0 0 0 
0.4010452955077748 -0.4010526527482989 -0.4010553811010104 -0.4010540690996282 -0.4010535570434199 -0.4010574167581767 -0.4010560838267494 
0 0 0 0 0 0 0 
0 0 0 0 0 0 0 
0.4010452955077748 -0.4010526527482989 -0.4010553811010104 -0.4010540690996282 -0.4010535570434199 -0.4010574167581767 -0.4010560838267494 
0 0 0 0 0 0 0 
0 0 0 0 0 0 0 
-0.4010452955077748 -0.4010526527482989 -0.4010553811010104 -0.4010540690996282 0.4010535570434199 -0.4010574167581767 -0.4010560838267494 
0 0 0 0 0 0 0 
0 0 0 0 0 0 0 
0.6748329097477844 -0.6748316185217866 -0.6748311033876426 -0.6748316165636773 -0.6748307404249336 -0.6748316396358656 -0.6748316142319828 
0 0 0 0 0 0 0 
0 0 0 0 0 0 0 
0.4010452955077748 -0.4010526527482989 -0.4010553811010104 -0.4010540690996282 -0.4010535570434199 -0.4010574167581767 -0.4010560838267494 
0 0 0 0 0 0 0 
0 0 0 0 0 0 0 
0.4010452955077748 -0.4010526527482989 -0.4010553811010104 -0.4010540690996282 -0.4010535570434199 -0.4010574167581767 -0.4010560838267494 
0 0 0 0 0 0 0 
0 0 0 0 0 0 0 
-0.4010452955077748 -0.4010526527482989 -0.4010553811010104 0.4010540690996282 -0.4010535570434199 -0.4010574167581767 -0.4010560838267494 
0 0 0 0 0 0 0 
0 0 0 0 0 0 0 
0.4010452955077748 -0.4010526527482989 -0.4010553811010104 -0.4010540690996282 -0.4010535570434199 -0.4010574167581767 -0.4010560838267494 
0 0 0 0 0 0 0 
0 0 0 0 0 0 0 
-0.4010452955077748 0.4010526527482989 -0.4010553811010104 -0.4010540690996282 -0.4010535570434199 -0.4010574167581767 -0.4010560838267494 
0 0 0 0 0 0 0 
0 0 0 0 0 0 0 
-0.4010452955077748 -0.4010526527482989 0.4010553811010104 -0.4010540690996282 -0.4010535570434199 -0.4010574167581767 -0.4010560838267494 
0 0 0 0 0 0 0 
0 0 0 0 0 0 0 
1.48156157869134 -1.481555417750696 -1.481543879632636 -1.481553740213593 -1.481541569238735 -1.481553871830047 -1.481554601914317 
0 0 0 0 0 0 0 
0 0 0 0 0 0 0 
0.4010452955077748 -0.4010526527482989 -0.4010553811010104 -0.4010540690996282 -0.4010535570434199 -0.4010574167581767 -0.4010560838267494 
0 0 0 0 0 0 0 
0 0 0 0 0 0 0 
-0.4010452955077748 0.4010526527482989 -0.4010553811010104 -0.4010540690996282 -0.4010535570434199 -0.4010574167581767 -0.4010560838267494 
0 0 0 0 0 0 0 
0 0 0 0 0 0 0 
0.4010452955077748 -0.4010526527482989 -0.4010553811010104 -0.4010540690996282 -0.4010535570434199 -0.4010574167581767 -0.4010560838267494 
0 0 0 0 0 0 0 
0 0 0 0 0 0 0 
0.4010452955077748 -0.4010526527482989 -0.4010553811010104 -0.4010540690996282 -0.4010535570434199 -0.4010574167581767 -0.4010560838267494 
0 0 0 0 0 0 0 
0 0 0 0 0 0 0 
-0.4010452955077748 0.4010526527482989 -0.4010553811010104 -0.4010540690996282 -0.4010535570434199 -0.4010574167581767 -0.4010560838267494 
0 0 0 0 0 0 0 
0 0 0 0 0 0 0 
1.699686058110876 -1.699650891305841 -1.699651052656931 -1.699646230947984 -1.699630543226992 -1.699644361842318 -1.699646599641155 
0 0 0 0 0 0 0 
0 0 0 0 0 0 0 
-0.4010452955077748 -0.4010526527482989 -0.4010553811010104 -0.4010540690996282 -0.4010535570434199 0.4010574167581767 -0.4010560838267494 
0 0 0 0 0 0 0 
0 0 0 0 0 0 0 
0.4010452955077748 -0.4010526527482989 -0.4010553811010104 -0.4010540690996282 -0.4010535570434199 -0.4010574167581767 -0.4010560838267494 
0 0 0 0 0 0 0 
0 0 0 0 0 0 0 
0.4010452955077748 -0.4010526527482989 -0.4010553811010104 -0.4010540690996282 -0.4010535570434199 -0.4010574167581767 -0.4010560838267494 
0 0 0 0 0 0 0 
0 0 0 0 0 0 0 
0.6748329097477844 -0.6748316185217866 -0.6748311033876426 -0.6748316165636773 -0.6748307404249336 -0.6748316396358656 -0.6748316142319828 
0 0 0 0 0 0 0 
0 0 0 0 0 0 0 
0.4010452955077748 -0.4010526527482989 -0.4010553811010104 -0.4010540690996282 -0.4010535570434199 -0.4010574167581767 -0.4010560838267494 
0 0 0 0 0 0 0 
0 0 0 0 0 0 0 
0.4010452955077748 -0.4010526527482989 -0.4010553811010104 -0.4010540690996282 -0.4010535570434199 -0.4010574167581767 -0.4010560838267494 
0 0 0 0 0 0 0 
0 0 0 0 0 0 0 
0.4010452955077748 -0.4010526527482989 -0.4010553811010104 -0.4010540690996282 -0.4010535570434199 -0.4010574167581767 -0.4010560838267494 
0 0 0 0 0 0 0 
0 0 0 0 0 0 0 
2.545542906600724 -2.545508632396529 -2.545520416026791 -2.545507385842191 -2.545508420216484 -2.545504025003944 -2.5455082974253 
0 0 0 0 0 0 0 
0 0 0 0 0 0 0 
0.4010452955077748 -0.4010526527482989 -0.4010553811010104 -0.4010540690996282 -0.4010535570434199 -0.4010574167581767 -0.4010560838267494 
0 0 0 0 0 0 0 
0 0 0 0 0 0 0 
0.6748329097477844 -0.6748316185217866 -0.6748311033876426 -0.6748316165636773 -0.6748307404249336 -0.6748316396358656 -0.6748316142319828 
0 0 0 0 0 0 0 
0 0 0 0 0 0 0 
1.48156157869134 -1.481555417750696 -1.481543879632636 -1.481553740213593 -1.481541569238735 -1.481553871830047 -1.481554601914317 
0 0 0 0 0 0 0 
0 0 0 0 0 0 0 
0.6748329097477844 -0.6748316185217866 -0.6748311033876426 -0.6748316165636773 -0.6748307404249336 -0.6748316396358656 -0.6748316142319828 
0 0 0 0 0 0 0 
0 0 0 0 0 0 0 
0.4010452955077748 -0.4010526527482989 -0.4010553811010104 -0.4010540690996282 -0.4010535570434199 -0.4010574167581767 -0.4010560838267494 
0 0 0 0 0 0 0 
0 0 0 0 0 0 0 
-0.4010452955077748 0.4010526527482989 -0.4010553811010104 -0.4010540690996282 -0.4010535570434199 -0.4010574167581767 -0.4010560838267494 
0 0 0 0 0 0 0 
0 0 0 0 0 0 0 
1.177505205490719 -1.177505387553668 -1.177504428153977 -1.17750539606572 -1.177504850507587 -1.177505416561325 -1.1775054958263 
0 0 0 0 0 0 0 
0 0 0 0 0 0 0 
-0.4010452955077748 -0.4010526527482989 -0.4010553811010104 -0.4010540690996282 0.4010535570434199 -0.4010574167581767 -0.4010560838267494 
0 0 0 0 0 0 0 
0 0 0 0 0 0 0 
1.042597147498205 -1.042596809626519 -1.042599201976554 -1.042596787718087 -1.042597252286519 -1.042596793298014 -1.042596684370951 
0 0 0 0 0 0 0 
0 0 0 0 0 0 0 
0.8264295569656822 -1.292541061999043 -1.292534736928729 -1.292540860442763 -1.29253675641538 -0.8264213822046839 -1.292541323789986 
0 0 0 0 0 0 0 
0 0 0 0 0 0 0 
0.8797121232472404 -0.879712253251313 -0.8797133379183317 -0.8797122328115964 -0.8797110704751745 -0.8797122616242716 -0.8797122024886205 
0 0 0 0 0 0 0 
0 0 0 0 0 0 0 
-0.4010452955077748 -0.4010526527482989 0.4010553811010104 -0.4010540690996282 -0.4010535570434199 -0.4010574167581767 -0.4010560838267494 
0 0 0 0 0 0 0 
0 0 0 0 0 0 0 
0.4010452955077748 -0.4010526527482989 -0.4010553811010104 -0.4010540690996282 -0.4010535570434199 -0.4010574167581767 -0.4010560838267494 
0 0 0 0 0 0 0 
0 0 0 0 0 0 0 
-0.4010452955077748 -0.4010526527482989 -0.4010553811010104 -0.4010540690996282 -0.4010535570434199 0.4010574167581767 -0.4010560838267494 
0 0 0 0 0 0 0 
0 0 0 0 0 0 0 
0.6748329097477844 -0.6748316185217866 -0.6748311033876426 -0.6748316165636773 -0.6748307404249336 -0.6748316396358656 -0.6748316142319828 
0 0 0 0 0 0 0 
0 0 0 0 0 0 0 
0.4010452955077748 -0.4010526527482989 -0.4010553811010104 -0.4010540690996282 -0.4010535570434199 -0.4010574167581767 -0.4010560838267494 
0 0 0 0 0 0 0 
0 0 0 0 0 0 0 
-0.4010452955077748 -0.4010526527482989 0.4010553811010104 -0.4010540690996282 -0.4010535570434199 -0.4010574167581767 -0.4010560838267494 
0 0 0 0 0 0 0 
0 0 0 0 0 0 0 
0.8797121232472404 -0.879712253251313 -0.8797133379183317 -0.8797122328115964 -0.8797110704751745 -0.8797122616242716 -0.8797122024886205 
0 0 0 0 0 0 0 
0 0 0 0 0 0 0 
-0.4010452955077748 0.4010526527482989 -0.4010553811010104 -0.4010540690996282 -0.4010535570434199 -0.4010574167581767 -0.4010560838267494 
0 0 0 0 0 0 0 
0 0 0 0 0 0 0 
-1.042597147498205 0 0 -1.042596787718087 -1.042597252286519 -1.042596793298014 -1.042596684370951 
0 0 0 0 0 0 0 
0 0 0 0 0 0 0 
0.4010452955077748 -0.4010526527482989 -0.4010553811010104 -0.4010540690996282 -0.4010535570434199 -0.4010574167581767 -0.4010560838267494 
0 0 0 0 0 0 0 
0 0 0 0 0 0 0 
1.042597147498205 -1.042596809626519 -1.042599201976554 -1.042596787718087 -1.042597252286519 -1.042596793298014 -1.042596684370951 
0 0 0 0 0 0 0 
0 0 0 0 0 0 0 
0.6748329097477844 -0.6748316185217866 -0.6748311033876426 -0.6748316165636773 -0.6748307404249336 -0.6748316396358656 -0.6748316142319828 
0 0 0 0 0 0 0 
0 0 0 0 0 0 0 
1.292540425208189 -1.292541061999043 -1.292534736928729 -1.292540860442763 -1.29253675641538 -1.292541027544283 -1.292541323789986 
0 0 0 0 0 0 0 
0 0 0 0 0 0 0 
1.042597147498205 -1.042596809626519 -1.042599201976554 -1.042596787718087 -1.042597252286519 -1.042596793298014 -1.042596684370951 
0 0 0 0 0 0 0 
0 0 0 0 0 0 0 
-0.4010452955077748 -0.4010526527482989 -0.4010553811010104 0.4010540690996282 -0.4010535570434199 -0.4010574167581767 -0.4010560838267494 
0 0 0 0 0 0 0 
0 0 0 0 0 0 0 
0.6748329097477844 -0.6748316185217866 -0.6748311033876426 -0.6748316165636773 -0.6748307404249336 -0.6748316396358656 -0.6748316142319828 
0 0 0 0 0 0 0 
0 0 0 0 0 0 0 
0.4010452955077748 -0.4010526527482989 -0.4010553811010104 -0.4010540690996282 -0.4010535570434199 -0.4010574167581767 -0.4010560838267494 
0 0 0 0 0 0 0 
0 0 0 0 0 0 0 
0.4010452955077748 -0.4010526527482989 -0.4010553811010104 -0.4010540690996282 -0.4010535570434199 -0.4010574167581767 -0.4010560838267494 
0 0 0 0 0 0 0 
0 0 0 0 0 0 0 
0.4010452955077748 -0.4010526527482989 -0.4010553811010104 -0.4010540690996282 -0.4010535570434199 -0.4010574167581767 -0.4010560838267494 
0 0 0 0 0 0 0 
0 0 0 0 0 0 0 
1.817196580856578 -1.817140557512015 -1.817152903791885 -1.81713464896837 -1.817121300166766 -1.817130863698257 -1.817134595146626 
0 0 0 0 0 0 0 
0 0 0 0 0 0 0 
0.4010452955077748 -0.4010526527482989 -0.4010553811010104 -0.4010540690996282 -0.4010535570434199 -0.4010574167581767 -0.4010560838267494 
0 0 0 0 0 0 0 
0 0 0 0 0 0 0 
-0.4010452955077748 -0.4010526527482989 -0.4010553811010104 -0.4010540690996282 0.4010535570434199 -0.4010574167581767 -0.4010560838267494 
0 0 0 0 0 0 0 
0 0 0 0 0 0 0 
0.4010452955077748 -0.4010526527482989 -0.4010553811010104 -0.4010540690996282 -0.4010535570434199 -0.4010574167581767 -0.4010560838267494 
0 0 0 0 0 0 0 
0 0 0 0 0 0 0 
0.4010452955077748 -0.4010526527482989 -0.4010553811010104 -0.4010540690996282 -0.4010535570434199 -0.4010574167581767 -0.4010560838267494 
0 0 0 0 0 0 0 
0 0 0 0 0 0 0 
0.4010452955077748 -0.4010526527482989 -0.4010553811010104 -0.4010540690996282 -0.4010535570434199 -0.4010574167581767 -0.4010560838267494 
0 0 0 0 0 0 0 
0 0 0 0 0 0 0 
1.633541809900155 -1.633517599963402 -1.633512148847191 -1.633513851495823 -1.633498116773398 -1.633512858855894 -1.633514456481416 
0 0 0 0 0 0 0 
0 0 0 0 0 0 0 
0.6748329097477844 -0.6748316185217866 -0.6748311033876426 -0.6748316165636773 -0.6748307404249336 -0.6748316396358656 -0.6748316142319828 
0 0 0 0 0 0 0 
0 0 0 0 0 0 0 
1.177505205490719 -1.177505387553668 -1.177504428153977 -1.17750539606572 -1.177504850507587 -1.177505416561325 -1.1775054958263 
0 0 0 0 0 0 0 
0 0 0 0 0 0 0 
0.8797121232472404 -0.879712253251313 -0.8797133379183317 -0.8797122328115964 -0.8797110704751745 -0.8797122616242716 -0.8797122024886205 
0 0 0 0 0 0 0 
0 0 0 0 0 0 0 
0.4010452955077748 -0.4010526527482989 -0.4010553811010104 -0.4010540690996282 -0.4010535570434199 -0.4010574167581767 -0.4010560838267494 
0 0 0 0 0 0 0 
0 0 0 0 0 0 0 
0.4010452955077748 -0.4010526527482989 -0.4010553811010104 -0.4010540690996282 -0.4010535570434199 -0.4010574167581767 -0.4010560838267494 
0 0 0 0 0 0 0 
0 0 0 0 0 0 0 
0.6748329097477844 -0.6748316185217866 -0.6748311033876426 -0.6748316165636773 -0.6748307404249336 -0.6748316396358656 -0.6748316142319828 
0 0 0 0 0 0 0 
0 0 0 0 0 0 0 
0.4010452955077748 -0.4010526527482989 -0.4010553811010104 -0.4010540690996282 -0.4010535570434199 -0.4010574167581767 -0.4010560838267494 
0 0 0 0 0 0 0 
0 0 0 0 0 0 0 
0.4010452955077748 -0.4010526527482989 -0.4010553811010104 -0.4010540690996282 -0.4010535570434199 -0.4010574167581767 -0.4010560838267494 
0 0 0 0 0 0 0 
0 0 0 0 0 0 0 
0.4010452955077748 -0.4010526527482989 -0.4010553811010104 -0.4010540690996282 -0.4010535570434199 -0.4010574167581767 -0.4010560838267494 
0 0 0 0 0 0 0 
0 0 0 0 0 0 0 
-1.56125432911383 -0.4673015178595876 -0.7966950680930234 -0.1540561749317859 -1.561222816528005 -1.561237148517411 -1.561238238226681 
0 0 0 0 0 0 0 
0 0 0 0 0 0 0 
0.4010452955077748 -0.4010526527482989 -0.4010553811010104 -0.4010540690996282 -0.4010535570434199 -0.4010574167581767 -0.4010560838267494 
0 0 0 0 0 0 0 
0 0 0 0 0 0 0 
-0.4010452955077748 -0.4010526527482989 -0.4010553811010104 -0.4010540690996282 0.4010535570434199 -0.4010574167581767 -0.4010560838267494 
0 0 0 0 0 0 0 
0 0 0 0 0 0 0 
0.4010452955077748 -0.4010526527482989 -0.4010553811010104 -0.4010540690996282 -0.4010535570434199 -0.4010574167581767 -0.4010560838267494 
0 0 0 0 0 0 0 
0 0 0 0 0 0 0 
0.6748329097477844 -0.6748316185217866 -0.6748311033876426 -0.6748316165636773 -0.6748307404249336 -0.6748316396358656 -0.6748316142319828 
0 0 0 0 0 0 0 
0 0 0 0 0 0 0 
0.6748329097477844 -0.6748316185217866 -0.6748311033876426 -0.6748316165636773 -0.6748307404249336 -0.6748316396358656 -0.6748316142319828 
0 0 0 0 0 0 0 
0 0 0 0 0 0 0 
-0.4010452955077748 -0.4010526527482989 -0.4010553811010104 -0.4010540690996282 0.4010535570434199 -0.4010574167581767 -0.4010560838267494 
0 0 0 0 0 0 0 
0 0 0 0 0 0 0 
-1.392770886903146 -1.392769745545703 -1.392759353909433 -1.392768959140099 -1.392760512220215 -0.554213938823812 0.5542159345319181 
0 0 0 0 0 0 0 
0 0 0 0 0 0 0 
0.6748329097477844 -0.6748316185217866 -0.6748311033876426 -0.6748316165636773 -0.6748307404249336 -0.6748316396358656 -0.6748316142319828 
0 0 0 0 0 0 0 
0 0 0 0 0 0 0 
0.4010452955077748 -0.4010526527482989 -0.4010553811010104 -0.4010540690996282 -0.4010535570434199 -0.4010574167581767 -0.4010560838267494 
0 0 0 0 0 0 0 
0 0 0 0 0 0 0 
0.6748329097477844 -0.6748316185217866 -0.6748311033876426 -0.6748316165636773 -0.6748307404249336 -0.6748316396358656 -0.6748316142319828 
0 0 0 0 0 0 0 
0 0 0 0 0 0 0 
0.4010452955077748 -0.4010526527482989 -0.4010553811010104 -0.4010540690996282 -0.4010535570434199 -0.4010574167581767 -0.4010560838267494 
0 0 0 0 0 0 0 
0 0 0 0 0 0 0 
-0.4010452955077748 -0.4010526527482989 0.4010553811010104 -0.4010540690996282 -0.4010535570434199 -0.4010574167581767 -0.4010560838267494 
0 0 0 0 0 0 0 
0 0 0 0 0 0 0 
-0.4010452955077748 0.4010526527482989 -0.4010553811010104 -0.4010540690996282 -0.4010535570434199 -0.4010574167581767 -0.4010560838267494 
0 0 0 0 0 0 0 
0 0 0 0 0 0 0 
0.8797121232472404 -0.879712253251313 -0.8797133379183317 -0.8797122328115964 -0.8797110704751745 -0.8797122616242716 -0.8797122024886205 
0 0 0 0 0 0 0 
0 0 0 0 0 0 0 
-0.8797121232472404 -0.879712253251313 -0.8797133379183317 -0.8797122328115964 -0.8797110704751745 0.8797122616242716 -0.8797122024886205 
0 0 0 0 0 0 0 
0 0 0 0 0 0 0 
0.4010452955077748 -0.4010526527482989 -0.4010553811010104 -0.4010540690996282 -0.4010535570434199 -0.4010574167581767 -0.4010560838267494 
0 0 0 0 0 0 0 
0 0 0 0 0 0 0 
-0.4010452955077748 -0.4010526527482989 -0.4010553811010104 -0.4010540690996282 -0.4010535570434199 -0.4010574167581767 0.4010560838267494 
0 0 0 0 0 0 0 
0 0 0 0 0 0 0 
1.177505205490719 -1.177505387553668 -1.177504428153977 -1.17750539606572 -1.177504850507587 -1.177505416561325 -1.1775054958263 
0 0 0 0 0 0 0 
0 0 0 0 0 0 0 
0.8797121232472404 -0.879712253251313 -0.8797133379183317 -0.8797122328115964 -0.8797110704751745 -0.8797122616242716 -0.8797122024886205 
0 0 0 0 0 0 0 
0 0 0 0 0 0 0 
0.8797121232472404 -0.879712253251313 -0.8797133379183317 -0.8797122328115964 -0.8797110704751745 -0.8797122616242716 -0.8797122024886205 
0 0 0 0 0 0 0 
0 0 0 0 0 0 0 
0.4010452955077748 -0.4010526527482989 -0.4010553811010104 -0.4010540690996282 -0.4010535570434199 -0.4010574167581767 -0.4010560838267494 
0 0 0 0 0 0 0 
0 0 0 0 0 0 0 
0.4010452955077748 -0.4010526527482989 -0.4010553811010104 -0.4010540690996282 -0.4010535570434199 -0.4010574167581767 -0.4010560838267494 
0 0 0 0 0 0 0 
0 0 0 0 0 0 0 
0 -0.6748316185217866 -0.6748311033876426 -0.6748316165636773 0 -0.6748316396358656 -0.6748316142319828 
0 0 0 0 0 0 0 
0 0 0 0 0 0 0 
0.4010452955077748 -0.4010526527482989 -0.4010553811010104 -0.4010540690996282 -0.4010535570434199 -0.4010574167581767 -0.4010560838267494 
0 0 0 0 0 0 0 
0 0 0 0 0 0 0 
1.919307384989375 -1.919235807399385 -1.919258184940108 -1.919229453699051 -1.919219679865774 -1.919224024093177 -1.919229194856455 
0 0 0 0 0 0 0 
0 0 0 0 0 0 0 
0.4010452955077748 -0.4010526527482989 -0.4010553811010104 -0.4010540690996282 -0.4010535570434199 -0.4010574167581767 -0.4010560838267494 
0 0 0 0 0 0 0 
0 0 0 0 0 0 0 
-1.177505205490719 0.6806190998435032 -0.6806147338074244 -1.17750539606572 -1.177504850507587 -1.177505416561325 -1.1775054958263 
0 0 0 0 0 0 0 
0 0 0 0 0 0 0 
0.8797121232472404 -0.879712253251313 -0.8797133379183317 -0.8797122328115964 -0.8797110704751745 -0.8797122616242716 -0.8797122024886205 
0 0 0 0 0 0 0 
0 0 0 0 0 0 0 
0.6748329097477844 -0.6748316185217866 -0.6748311033876426 -0.6748316165636773 -0.6748307404249336 -0.6748316396358656 -0.6748316142319828 
0 0 0 0 0 0 0 
0 0 0 0 0 0 0 
0.4010452955077748 -0.4010526527482989 -0.4010553811010104 -0.4010540690996282 -0.4010535570434199 -0.4010574167581767 -0.4010560838267494 
0 0 0 0 0 0 0 
0 0 0 0 0 0 0 
0.4010452955077748 -0.4010526527482989 -0.4010553811010104 -0.4010540690996282 -0.4010535570434199 -0.4010574167581767 -0.4010560838267494 
0 0 0 0 0 0 0 
0 0 0 0 0 0 0 
0.4010452955077748 -0.4010526527482989 -0.4010553811010104 -0.4010540690996282 -0.4010535570434199 -0.4010574167581767 -0.4010560838267494 
0 0 0 0 0 0 0 
0 0 0 0 0 0 0 
0.4010452955077748 -0.4010526527482989 -0.4010553811010104 -0.4010540690996282 -0.4010535570434199 -0.4010574167581767 -0.4010560838267494 
0 0 0 0 0 0 0 
0 0 0 0 0 0 0 
0.4010452955077748 -0.4010526527482989 -0.4010553811010104 -0.4010540690996282 -0.4010535570434199 -0.4010574167581767 -0.4010560838267494 
0 0 0 0 0 0 0 
0 0 0 0 0 0 0 
0.4010452955077748 -0.4010526527482989 -0.4010553811010104 -0.4010540690996282 -0.4010535570434199 -0.4010574167581767 -0.4010560838267494 
0 0 0 0 0 0 0 
0 0 0 0 0 0 0 
0.4010452955077748 -0.4010526527482989 -0.4010553811010104 -0.4010540690996282 -0.4010535570434199 -0.4010574167581767 -0.4010560838267494 
0 0 0 0 0 0 0 
0 0 0 0 0 0 0 
0.8797121232472404 -0.879712253251313 -0.8797133379183317 -0.8797122328115964 -0.8797110704751745 -0.8797122616242716 -0.8797122024886205 
0 0 0 0 0 0 0 
0 0 0 0 0 0 0 
0.4630503887445419 -0.07770368145879883 -0.1366345444653657 -0.03711525910427404 -0.04128414102212801 -0.1220276301876543 -0.01950254910101107 
0 0 0 0 0 0 0 
0 0 0 0 0 0 0 
0 -0.6748316185217866 -0.6748311033876426 0 -0.6748307404249336 -0.6748316396358656 -0.6748316142319828 
0 0 0 0 0 0 0 
0 0 0 0 0 0 0 
-1.042597147498205 -1.042596809626519 -1.042599201976554 -1.042596787718087 -1.042597252286519 1.042596793298014 -1.042596684370951 
0 0 0 0 0 0 0 
0 0 0 0 0 0 0 
0.8797121232472404 -0.879712253251313 -0.8797133379183317 -0.8797122328115964 -0.8797110704751745 -0.8797122616242716 -0.8797122024886205 
0 0 0 0 0 0 0 
0 0 0 0 0 0 0 
0.4010452955077748 -0.4010526527482989 -0.4010553811010104 -0.4010540690996282 -0.4010535570434199 -0.4010574167581767 -0.4010560838267494 
0 0 0 0 0 0 0 
0 0 0 0 0 0 0 
-0.4010452955077748 -0.4010526527482989 -0.4010553811010104 -0.4010540690996282 -0.4010535570434199 0.4010574167581767 -0.4010560838267494 
0 0 0 0 0 0 0 
0 0 0 0 0 0 0 
0.4010452955077748 -0.4010526527482989 -0.4010553811010104 -0.4010540690996282 -0.4010535570434199 -0.4010574167581767 -0.4010560838267494 
0 0 0 0 0 0 0 
0 0 0 0 0 0 0 
0.4010452955077748 -0.4010526527482989 -0.4010553811010104 -0.4010540690996282 -0.4010535570434199 -0.4010574167581767 -0.4010560838267494 
0 0 0 0 0 0 0 
0 0 0 0 0 0 0 
0.4010452955077748 -0.4010526527482989 -0.4010553811010104 -0.4010540690996282 -0.4010535570434199 -0.4010574167581767 -0.4010560838267494 
0 0 0 0 0 0 0 
0 0 0 0 0 0 0 
-0.4010452955077748 -0.4010526527482989 0.4010553811010104 -0.4010540690996282 -0.4010535570434199 -0.4010574167581767 -0.4010560838267494 
0 0 0 0 0 0 0 
0 0 0 0 0 0 0 
0.4010452955077748 -0.4010526527482989 -0.4010553811010104 -0.4010540690996282 -0.4010535570434199 -0.4010574167581767 -0.4010560838267494 
0 0 0 0 0 0 0 
0 0 0 0 0 0 0 
0.8797121232472404 -0.879712253251313 -0.8797133379183317 -0.8797122328115964 -0.8797110704751745 -0.8797122616242716 -0.8797122024886205 
0 0 0 0 0 0 0 
0 0 0 0 0 0 0 
-0.4010452955077748 -0.4010526527482989 -0.4010553811010104 -0.4010540690996282 -0.4010535570434199 0.4010574167581767 -0.4010560838267494 
0 0 0 0 0 0 0 
0 0 0 0 0 0 0 
-0.4010452955077748 -0.4010526527482989 -0.4010553811010104 -0.4010540690996282 -0.4010535570434199 0.4010574167581767 -0.4010560838267494 
0 0 0 0 0 0 0 
0 0 0 0 0 0 0 
0.6748329097477844 -0.6748316185217866 -0.6748311033876426 -0.6748316165636773 -0.6748307404249336 -0.6748316396358656 -0.6748316142319828 
0 0 0 0 0 0 0 
0 0 0 0 0 0 0 
0.4010452955077748 -0.4010526527482989 -0.4010553811010104 -0.4010540690996282 -0.4010535570434199 -0.4010574167581767 -0.4010560838267494 
0 0 0 0 0 0 0 
0 0 0 0 0 0 0 
0.4010452955077748 -0.4010526527482989 -0.4010553811010104 -0.4010540690996282 -0.4010535570434199 -0.4010574167581767 -0.4010560838267494 
0 0 0 0 0 0 0 
0 0 0 0 0 0 0 
0.4010452955077748 -0.4010526527482989 -0.4010553811010104 -0.4010540690996282 -0.4010535570434199 -0.4010574167581767 -0.4010560838267494 
0 0 0 0 0 0 0 
0 0 0 0 0 0 0 
0.4010452955077748 -0.4010526527482989 -0.4010553811010104 -0.4010540690996282 -0.4010535570434199 -0.4010574167581767 -0.4010560838267494 
0 0 0 0 0 0 0 
0 0 0 0 0 0 0 
-0.4010452955077748 0.4010526527482989 -0.4010553811010104 -0.4010540690996282 -0.4010535570434199 -0.4010574167581767 -0.4010560838267494 
0 0 0 0 0 0 0 
0 0 0 0 0 0 0 
0.4010452955077748 -0.4010526527482989 -0.4010553811010104 -0.4010540690996282 -0.4010535570434199 -0.4010574167581767 -0.4010560838267494 
0 0 0 0 0 0 0 
0 0 0 0 0 0 0 
0.6748329097477844 -0.6748316185217866 -0.6748311033876426 -0.6748316165636773 -0.6748307404249336 -0.6748316396358656 -0.6748316142319828 
0 0 0 0 0 0 0 
0 0 0 0 0 0 0 
0.4010452955077748 -0.4010526527482989 -0.4010553811010104 -0.4010540690996282 -0.4010535570434199 -0.4010574167581767 -0.4010560838267494 
0 0 0 0 0 0 0 
0 0 0 0 0 0 0 
0.6748329097477844 -0.6748316185217866 -0.6748311033876426 -0.6748316165636773 -0.6748307404249336 -0.6748316396358656 -0.6748316142319828 
0 0 0 0 0 0 0 
0 0 0 0 0 0 0 
2.566896749149098 -2.566863125953052 -2.566874534266963 -2.566861922665074 -2.566862969129257 -2.566858605284712 -2.566862889920596 
0 0 0 0 0 0 0 
0 0 0 0 0 0 0 
-0.4010452955077748 -0.4010526527482989 0.4010553811010104 -0.4010540690996282 -0.4010535570434199 -0.4010574167581767 -0.4010560838267494 
0 0 0 0 0 0 0 
0 0 0 0 0 0 0 
0.4010452955077748 -0.4010526527482989 -0.4010553811010104 -0.4010540690996282 -0.4010535570434199 -0.4010574167581767 -0.4010560838267494 
0 0 0 0 0 0 0 
0 0 0 0 0 0 0 
0.6748329097477844 -0.6748316185217866 -0.6748311033876426 -0.6748316165636773 -0.6748307404249336 -0.6748316396358656 -0.6748316142319828 
0 0 0 0 0 0 0 
0 0 0 0 0 0 0 
-0.4010452955077748 -0.4010526527482989 0.4010553811010104 -0.4010540690996282 -0.4010535570434199 -0.4010574167581767 -0.4010560838267494 
0 0 0 0 0 0 0 
0 0 0 0 0 0 0 
2.429242444079544 -2.429197593810348 -2.429213973861943 -2.429195717368599 -2.429196778557356 -2.42919151182093 -2.429196491518002 
0 0 0 0 0 0 0 
0 0 0 0 0 0 0 
0.4010452955077748 -0.4010526527482989 -0.4010553811010104 -0.4010540690996282 -0.4010535570434199 -0.4010574167581767 -0.4010560838267494 
0 0 0 0 0 0 0 
0 0 0 0 0 0 0 
-0.6806195838000626 -1.177505387553668 -1.177504428153977 -0.6806187787560763 0.2227301930651225 -1.177505416561325 -1.1775054958263 
0 0 0 0 0 0 0 
0 0 0 0 0 0 0 
0.4010452955077748 -0.4010526527482989 -0.4010553811010104 -0.4010540690996282 -0.4010535570434199 -0.4010574167581767 -0.4010560838267494 
0 0 0 0 0 0 0 
0 0 0 0 0 0 0 
0.8797121232472404 -0.879712253251313 -0.8797133379183317 -0.8797122328115964 -0.8797110704751745 -0.8797122616242716 -0.8797122024886205 
0 0 0 0 0 0 0 
0 0 0 0 0 0 0 
-0.4010452955077748 0.4010526527482989 -0.4010553811010104 -0.4010540690996282 -0.4010535570434199 -0.4010574167581767 -0.4010560838267494 
0 0 0 0 0 0 0 
0 0 0 0 0 0 0 
1.392770886903146 -1.392769745545703 -1.392759353909433 -1.392768959140099 -1.392760512220215 -1.392769223227085 -1.392769713338234 
0 0 0 0 0 0 0 
0 0 0 0 0 0 0 
0.6748329097477844 -0.6748316185217866 -0.6748311033876426 -0.6748316165636773 -0.6748307404249336 -0.6748316396358656 -0.6748316142319828 
0 0 0 0 0 0 0 
0 0 0 0 0 0 0 
-0.4010452955077748 -0.4010526527482989 0.4010553811010104 -0.4010540690996282 -0.4010535570434199 -0.4010574167581767 -0.4010560838267494 
0 0 0 0 0 0 0 
0 0 0 0 0 0 0 
0.4010452955077748 -0.4010526527482989 -0.4010553811010104 -0.4010540690996282 -0.4010535570434199 -0.4010574167581767 -0.4010560838267494 
0 0 0 0 0 0 0 
0 0 0 0 0 0 0 
0.4010452955077748 -0.4010526527482989 -0.4010553811010104 -0.4010540690996282 -0.4010535570434199 -0.4010574167581767 -0.4010560838267494 
0 0 0 0 0 0 0 
0 0 0 0 0 0 0 
0.4010452955077748 -0.4010526527482989 -0.4010553811010104 -0.4010540690996282 -0.4010535570434199 -0.4010574167581767 -0.4010560838267494 
0 0 0 0 0 0 0 
0 0 0 0 0 0 0 
0.6748329097477844 -0.6748316185217866 -0.6748311033876426 -0.6748316165636773 -0.6748307404249336 -0.6748316396358656 -0.6748316142319828 
0 0 0 0 0 0 0 
0 0 0 0 0 0 0 
1.454516536572907 -0.3588272027028852 -0.5622854607641217 -0.1917893165118745 -0.2104929396200123 -0.5147813092632642 -0.1073452167950431 
0 0 0 0 0 0 0 
0 0 0 0 0 0 0 
-0.6748329097477844 -0.6748316185217866 0.6748311033876426 -0.6748316165636773 -0.6748307404249336 -0.6748316396358656 -0.6748316142319828 
0 0 0 0 0 0 0 
0 0 0 0 0 0 0 
-0.8797121232472404 0.879712253251313 -0.8797133379183317 -0.8797122328115964 -0.8797110704751745 -0.8797122616242716 -0.8797122024886205 
0 0 0 0 0 0 0 
0 0 0 0 0 0 0 
0.4010452955077748 -0.4010526527482989 -0.4010553811010104 -0.4010540690996282 -0.4010535570434199 -0.4010574167581767 -0.4010560838267494 
0 0 0 0 0 0 0 
0 0 0 0 0 0 0 
0.4010452955077748 -0.4010526527482989 -0.4010553811010104 -0.4010540690996282 -0.4010535570434199 -0.4010574167581767 -0.4010560838267494 
0 0 0 0 0 0 0 
0 0 0 0 0 0 0 
0.4010452955077748 -0.4010526527482989 -0.4010553811010104 -0.4010540690996282 -0.4010535570434199 -0.4010574167581767 -0.4010560838267494 
0 0 0 0 0 0 0 
0 0 0 0 0 0 0 
3.212394905328611 -3.212363278719749 -3.212357417356818 -3.212360865205469 -3.21236185396864 -3.212360314137209 -3.212366738708653 
0 0 0 0 0 0 0 
0 0 0 0 0 0 0 
1.48156157869134 -1.481555417750696 -1.481543879632636 -1.481553740213593 -1.481541569238735 -1.481553871830047 -1.481554601914317 
0 0 0 0 0 0 0 
0 0 0 0 0 0 0 
-0.8797121232472404 0.2865477140685664 -0.2865487083560857 -0.8797122328115964 -0.8797110704751745 -0.8797122616242716 -0.8797122024886205 
0 0 0 0 0 0 0 
0 0 0 0 0 0 0 
1.042597147498205 -1.042596809626519 -1.042599201976554 -1.042596787718087 -1.042597252286519 -1.042596793298014 -1.042596684370951 
0 0 0 0 0 0 0 
0 0 0 0 0 0 0 
0.4010452955077748 -0.4010526527482989 -0.4010553811010104 -0.4010540690996282 -0.4010535570434199 -0.4010574167581767 -0.4010560838267494 
0 0 0 0 0 0 0 
0 0 0 0 0 0 0 
-0.4010452955077748 -0.4010526527482989 0.4010553811010104 -0.4010540690996282 -0.4010535570434199 -0.4010574167581767 -0.4010560838267494 
0 0 0 0 0 0 0 
0 0 0 0 0 0 0 
-0.4010452955077748 0.4010526527482989 -0.4010553811010104 -0.4010540690996282 -0.4010535570434199 -0.4010574167581767 -0.4010560838267494 
0 0 0 0 0 0 0 
0 0 0 0 0 0 0 
0.4010452955077748 -0.4010526527482989 -0.4010553811010104 -0.4010540690996282 -0.4010535570434199 -0.4010574167581767 -0.4010560838267494 
0 0 0 0 0 0 0 
0 0 0 0 0 0 0 
0.6748329097477844 -0.6748316185217866 -0.6748311033876426 -0.6748316165636773 -0.6748307404249336 -0.6748316396358656 -0.6748316142319828 
0 0 0 0 0 0 0 
0 0 0 0 0 0 0 
0.6748329097477844 -0.6748316185217866 -0.6748311033876426 -0.6748316165636773 -0.6748307404249336 -0.6748316396358656 -0.6748316142319828 
0 0 0 0 0 0 0 
0 0 0 0 0 0 0 
-0.4010452955077748 -0.4010526527482989 -0.4010553811010104 -0.4010540690996282 -0.4010535570434199 -0.4010574167581767 0.4010560838267494 
0 0 0 0 0 0 0 
0 0 0 0 0 0 0 
1.042597147498205 -1.042596809626519 -1.042599201976554 -1.042596787718087 -1.042597252286519 -1.042596793298014 -1.042596684370951 
0 0 0 0 0 0 0 
0 0 0 0 0 0 0 
0.8797121232472404 -0.879712253251313 -0.8797133379183317 -0.8797122328115964 -0.8797110704751745 -0.8797122616242716 -0.8797122024886205 
0 0 0 0 0 0 0 
0 0 0 0 0 0 0 
-0.4010452955077748 0.4010526527482989 -0.4010553811010104 -0.4010540690996282 -0.4010535570434199 -0.4010574167581767 -0.4010560838267494 
0 0 0 0 0 0 0 
0 0 0 0 0 0 0 
1.869919246009017 -1.869854609556352 -1.869872400206695 -1.869848385782088 -1.869836774151438 -1.869843718092097 -1.86984819839301 
0 0 0 0 0 0 0 
0 0 0 0 0 0 0 
0 -1.042596809626519 -1.042599201976554 -1.042596787718087 0 -1.042596793298014 -1.042596684370951 
0 0 0 0 0 0 0 
0 0 0 0 0 0 0 
0.6748329097477844 -0.6748316185217866 -0.6748311033876426 -0.6748316165636773 -0.6748307404249336 -0.6748316396358656 -0.6748316142319828 
0 0 0 0 0 0 0 
0 0 0 0 0 0 0 
1.817196580856578 -1.817140557512015 -1.817152903791885 -1.81713464896837 -1.817121300166766 -1.817130863698257 -1.817134595146626 
0 0 0 0 0 0 0 
0 0 0 0 0 0 0 
0.4010452955077748 -0.4010526527482989 -0.4010553811010104 -0.4010540690996282 -0.4010535570434199 -0.4010574167581767 -0.4010560838267494 
0 0 0 0 0 0 0 
0 0 0 0 0 0 0 
1.292540425208189 -1.292541061999043 -1.292534736928729 -1.292540860442763 -1.29253675641538 -1.292541027544283 -1.292541323789986 
0 0 0 0 0 0 0 
0 0 0 0 0 0 0 
0.4010452955077748 -0.4010526527482989 -0.4010553811010104 -0.4010540690996282 -0.4010535570434199 -0.4010574167581767 -0.4010560838267494 
0 0 0 0 0 0 0 
0 0 0 0 0 0 0 
0.4010452955077748 -0.4010526527482989 -0.4010553811010104 -0.4010540690996282 -0.4010535570434199 -0.4010574167581767 -0.4010560838267494 
0 0 0 0 0 0 0 
0 0 0 0 0 0 0 
0.4010452955077748 -0.4010526527482989 -0.4010553811010104 -0.4010540690996282 -0.4010535570434199 -0.4010574167581767 -0.4010560838267494 
0 0 0 0 0 0 0 
0 0 0 0 0 0 0 
-0.8797121232472404 0.2865477140685664 -0.2865487083560857 -0.8797122328115964 -0.8797110704751745 -0.8797122616242716 -0.8797122024886205 
0 0 0 0 0 0 0 
0 0 0 0 0 0 0 
0.4010452955077748 -0.4010526527482989 -0.4010553811010104 -0.4010540690996282 -0.4010535570434199 -0.4010574167581767 -0.4010560838267494 
0 0 0 0 0 0 0 
0 0 0 0 0 0 0 
-0.6748329097477844 -0.6748316185217866 -0.6748311033876426 -0.6748316165636773 -0.6748307404249336 0.6748316396358656 -0.6748316142319828 
0 0 0 0 0 0 0 
0 0 0 0 0 0 0 
-0.4010452955077748 -0.4010526527482989 -0.4010553811010104 0.4010540690996282 -0.4010535570434199 -0.4010574167581767 -0.4010560838267494 
0 0 0 0 0 0 0 
0 0 0 0 0 0 0 
-0.5800985044681193 -0.1459138688103611 -0.2480470951893739 -0.07178990808234793 -0.07958770300200474 1.278714090078373 -0.03829214100698431 
0 0 0 0 0 0 0 
0 0 0 0 0 0 0 
-0.4010452955077748 -0.4010526527482989 -0.4010553811010104 -0.4010540690996282 -0.4010535570434199 0.4010574167581767 -0.4010560838267494 
0 0 0 0 0 0 0 
0 0 0 0 0 0 0 
